{"learner":{"attributes":{},"feature_names":[],"feature_types":[],"gradient_booster":{"model":{"cats":{"enc":[],"feature_segments":[],"sorted_idx":[]},"gbtree_model_param":{"num_parallel_tree":"1","num_trees":"800"},"iteration_indptr":[0,1,2,3,4,5,6,7,8,9,10,11,12,13,14,15,16,17,18,19,20,21,22,23,24,25,26,27,28,29,30,31,32,33,34,35,36,37,38,39,40,41,42,43,44,45,46,47,48,49,50,51,52,53,54,55,56,57,58,59,60,61,62,63,64,65,66,67,68,69,70,71,72,73,74,75,76,77,78,79,80,81,82,83,84,85,86,87,88,89,90,91,92,93,94,95,96,97,98,99,100,101,102,103,104,105,106,107,108,109,110,111,112,113,114,115,116,117,118,119,120,121,122,123,124,125,126,127,128,129,130,131,132,133,134,135,136,137,138,139,140,141,142,143,144,145,146,147,148,149,150,151,152,153,154,155,156,157,158,159,160,161,162,163,164,165,166,167,168,169,170,171,172,173,174,175,176,177,178,179,180,181,182,183,184,185,186,187,188,189,190,191,192,193,194,195,196,197,198,199,200,201,202,203,204,205,206,207,208,209,210,211,212,213,214,215,216,217,218,219,220,221,222,223,224,225,226,227,228,229,230,231,232,233,234,235,236,237,238,239,240,241,242,243,244,245,246,247,248,249,250,251,252,253,254,255,256,257,258,259,260,261,262,263,264,265,266,267,268,269,270,271,272,273,274,275,276,277,278,279,280,281,282,283,284,285,286,287,288,289,290,291,292,293,294,295,296,297,298,299,300,301,302,303,304,305,306,307,308,309,310,311,312,313,314,315,316,317,318,319,320,321,322,323,324,325,326,327,328,329,330,331,332,333,334,335,336,337,338,339,340,341,342,343,344,345,346,347,348,349,350,351,352,353,354,355,356,357,358,359,360,361,362,363,364,365,366,367,368,369,370,371,372,373,374,375,376,377,378,379,380,381,382,383,384,385,386,387,388,389,390,391,392,393,394,395,396,397,398,399,400,401,402,403,404,405,406,407,408,409,410,411,412,413,414,415,416,417,418,419,420,421,422,423,424,425,426,427,428,429,430,431,432,433,434,435,436,437,438,439,440,441,442,443,444,445,446,447,448,449,450,451,452,453,454,455,456,457,458,459,460,461,462,463,464,465,466,467,468,469,470,471,472,473,474,475,476,477,478,479,480,481,482,483,484,485,486,487,488,489,490,491,492,493,494,495,496,497,498,499,500,501,502,503,504,505,506,507,508,509,510,511,512,513,514,515,516,517,518,519,520,521,522,523,524,525,526,527,528,529,530,531,532,533,534,535,536,537,538,539,540,541,542,543,544,545,546,547,548,549,550,551,552,553,554,555,556,557,558,559,560,561,562,563,564,565,566,567,568,569,570,571,572,573,574,575,576,577,578,579,580,581,582,583,584,585,586,587,588,589,590,591,592,593,594,595,596,597,598,599,600,601,602,603,604,605,606,607,608,609,610,611,612,613,614,615,616,617,618,619,620,621,622,623,624,625,626,627,628,629,630,631,632,633,634,635,636,637,638,639,640,641,642,643,644,645,646,647,648,649,650,651,652,653,654,655,656,657,658,659,660,661,662,663,664,665,666,667,668,669,670,671,672,673,674,675,676,677,678,679,680,681,682,683,684,685,686,687,688,689,690,691,692,693,694,695,696,697,698,699,700,701,702,703,704,705,706,707,708,709,710,711,712,713,714,715,716,717,718,719,720,721,722,723,724,725,726,727,728,729,730,731,732,733,734,735,736,737,738,739,740,741,742,743,744,745,746,747,748,749,750,751,752,753,754,755,756,757,758,759,760,761,762,763,764,765,766,767,768,769,770,771,772,773,774,775,776,777,778,779,780,781,782,783,784,785,786,787,788,789,790,791,792,793,794,795,796,797,798,799,800],"tree_info":[0,0,0,0,0,0,0,0,0,0,0,0,0,0,0,0,0,0,0,0,0,0,0,0,0,0,0,0,0,0,0,0,0,0,0,0,0,0,0,0,0,0,0,0,0,0,0,0,0,0,0,0,0,0,0,0,0,0,0,0,0,0,0,0,0,0,0,0,0,0,0,0,0,0,0,0,0,0,0,0,0,0,0,0,0,0,0,0,0,0,0,0,0,0,0,0,0,0,0,0,0,0,0,0,0,0,0,0,0,0,0,0,0,0,0,0,0,0,0,0,0,0,0,0,0,0,0,0,0,0,0,0,0,0,0,0,0,0,0,0,0,0,0,0,0,0,0,0,0,0,0,0,0,0,0,0,0,0,0,0,0,0,0,0,0,0,0,0,0,0,0,0,0,0,0,0,0,0,0,0,0,0,0,0,0,0,0,0,0,0,0,0,0,0,0,0,0,0,0,0,0,0,0,0,0,0,0,0,0,0,0,0,0,0,0,0,0,0,0,0,0,0,0,0,0,0,0,0,0,0,0,0,0,0,0,0,0,0,0,0,0,0,0,0,0,0,0,0,0,0,0,0,0,0,0,0,0,0,0,0,0,0,0,0,0,0,0,0,0,0,0,0,0,0,0,0,0,0,0,0,0,0,0,0,0,0,0,0,0,0,0,0,0,0,0,0,0,0,0,0,0,0,0,0,0,0,0,0,0,0,0,0,0,0,0,0,0,0,0,0,0,0,0,0,0,0,0,0,0,0,0,0,0,0,0,0,0,0,0,0,0,0,0,0,0,0,0,0,0,0,0,0,0,0,0,0,0,0,0,0,0,0,0,0,0,0,0,0,0,0,0,0,0,0,0,0,0,0,0,0,0,0,0,0,0,0,0,0,0,0,0,0,0,0,0,0,0,0,0,0,0,0,0,0,0,0,0,0,0,0,0,0,0,0,0,0,0,0,0,0,0,0,0,0,0,0,0,0,0,0,0,0,0,0,0,0,0,0,0,0,0,0,0,0,0,0,0,0,0,0,0,0,0,0,0,0,0,0,0,0,0,0,0,0,0,0,0,0,0,0,0,0,0,0,0,0,0,0,0,0,0,0,0,0,0,0,0,0,0,0,0,0,0,0,0,0,0,0,0,0,0,0,0,0,0,0,0,0,0,0,0,0,0,0,0,0,0,0,0,0,0,0,0,0,0,0,0,0,0,0,0,0,0,0,0,0,0,0,0,0,0,0,0,0,0,0,0,0,0,0,0,0,0,0,0,0,0,0,0,0,0,0,0,0,0,0,0,0,0,0,0,0,0,0,0,0,0,0,0,0,0,0,0,0,0,0,0,0,0,0,0,0,0,0,0,0,0,0,0,0,0,0,0,0,0,0,0,0,0,0,0,0,0,0,0,0,0,0,0,0,0,0,0,0,0,0,0,0,0,0,0,0,0,0,0,0,0,0,0,0,0,0,0,0,0,0,0,0,0,0,0,0,0,0,0,0,0,0,0,0,0,0,0,0,0,0,0,0,0,0,0,0,0,0,0,0,0,0,0,0,0,0,0,0,0,0,0,0,0,0,0,0,0,0,0,0,0,0,0,0,0,0,0,0,0,0,0,0,0,0,0,0,0,0,0,0,0,0,0,0,0,0,0,0,0,0,0,0,0,0,0,0,0,0,0,0,0,0,0,0,0,0,0,0,0,0,0,0,0,0,0,0,0,0,0,0,0,0,0,0,0,0,0,0,0,0,0,0,0,0,0,0,0,0,0,0,0,0,0,0,0,0,0,0,0,0,0,0,0,0,0,0,0,0,0,0,0,0,0,0],"trees":[{"base_weights":[5.072126E-3,3.701816E-2,-2.8060275E-1,-2.0184527E-1,3.4261796E-1,-3.011015E-1,2.1340856E-2,-1.4917396E0,3.6573094E-1,-4.354189E-1,-1.5774246E-1,-6.541513E-3,2.7829474E-1,-1.3162565E-2,-8.665245E-2,2.3648125E-1,4.7853497E-1,-6.333355E-2,-4.136823E-1,2.558497E-2,-3.39192E-1,-6.81975E-2,1.5329944E-1,5.766426E-1,-1.4505169E-1,-6.0669012E-2,2.8931606E-1,4.2638072E-1,6.425708E-1,-1.3715598E-2,-2.4262836E-2,-2.2831202E-2,4.117601E-3,-2.1866566E-2,-1.0444155E-2,1.4779026E-3,-8.230793E-3,1.0139736E-2,-2.5412116E-2,4.1281222E-3,3.1404115E-2,1.1913038E-2,-1.2432361E-2,2.203415E-3,-4.7408473E-2,2.03566E-2,5.2476088E-3,2.3772864E-2,1.5907021E-2,2.4831748E-2,3.8086645E-2],"categories":[],"categories_nodes":[],"categories_segments":[],"categories_sizes":[],"default_left":[0,0,0,0,0,0,0,0,0,0,0,0,0,0,0,0,0,0,0,0,0,0,0,0,0,0,0,0,0,0,0,0,0,0,0,0,0,0,0,0,0,0,0,0,0,0,0,0,0,0,0],"id":0,"left_children":[1,3,-1,5,7,9,11,13,15,17,19,21,23,-1,-1,25,27,-1,29,31,33,35,37,39,41,43,45,47,49,-1,-1,-1,-1,-1,-1,-1,-1,-1,-1,-1,-1,-1,-1,-1,-1,-1,-1,-1,-1,-1,-1],"loss_changes":[1.5865761E2,6.4233185E1,0E0,1.0949818E1,1.6911026E1,6.516733E0,1.0979863E0,1.026E0,5.4563484E0,2.6560707E0,5.56388E0,1.3803208E0,1.9782104E0,0E0,0E0,2.8435307E0,1.4627228E0,0E0,1.5926228E0,2.336985E0,9.828768E-1,9.568341E-1,1.3800536E0,1.7688179E-1,3.3720902E-1,2.6445074E0,3.2805834E0,6.827316E-1,4.390278E-1,0E0,0E0,0E0,0E0,0E0,0E0,0E0,0E0,0E0,0E0,0E0,0E0,0E0,0E0,0E0,0E0,0E0,0E0,0E0,0E0,0E0,0E0],"parents":[2147483647,0,0,1,1,3,3,4,4,5,5,6,6,7,7,8,8,9,9,10,10,11,11,12,12,15,15,16,16,18,18,19,19,20,20,21,21,22,22,23,23,24,24,25,25,26,26,27,27,28,28],"right_children":[2,4,-1,6,8,10,12,14,16,18,20,22,24,-1,-1,26,28,-1,30,32,34,36,38,40,42,44,46,48,50,-1,-1,-1,-1,-1,-1,-1,-1,-1,-1,-1,-1,-1,-1,-1,-1,-1,-1,-1,-1,-1,-1],"split_conditions":[1.5004313E0,4E0,-2.8060275E-1,1.29102545E1,1.1726787E1,2E0,1.3273347E1,1.164429E1,1.2787492E1,1.15714655E1,3E0,1.2897667E1,1.3302601E1,-1.3162565E-2,-8.665245E-2,1.2236423E1,1.3066744E1,-6.333355E-2,4.5857385E-1,1.2395849E1,1.2753373E1,1.2894605E1,5.5159146E-1,3E0,3E0,1.3441668E1,6E0,6E0,1.3238121E1,-1.3715598E-2,-2.4262836E-2,-2.2831202E-2,4.117601E-3,-2.1866566E-2,-1.0444155E-2,1.4779026E-3,-8.230793E-3,1.0139736E-2,-2.5412116E-2,4.1281222E-3,3.1404115E-2,1.1913038E-2,-1.2432361E-2,2.203415E-3,-4.7408473E-2,2.03566E-2,5.2476088E-3,2.3772864E-2,1.5907021E-2,2.4831748E-2,3.8086645E-2],"split_indices":[10,0,0,7,3,0,7,4,7,3,0,5,4,0,0,3,7,0,12,7,7,9,10,1,1,4,0,0,5,0,0,0,0,0,0,0,0,0,0,0,0,0,0,0,0,0,0,0,0,0,0],"split_type":[0,0,0,0,0,0,0,0,0,0,0,0,0,0,0,0,0,0,0,0,0,0,0,0,0,0,0,0,0,0,0,0,0,0,0,0,0,0,0,0,0,0,0,0,0,0,0,0,0,0,0],"sum_hessian":[8.82E2,8.78E2,4E0,4.93E2,3.85E2,3.41E2,1.52E2,4E0,3.81E2,1.75E2,1.66E2,1.38E2,1.4E1,1E0,3E0,1.79E2,2.02E2,3E0,1.72E2,8.3E1,8.3E1,1E2,3.8E1,8E0,6E0,2.7E1,1.52E2,1.56E2,4.6E1,6E1,1.12E2,8E0,7.5E1,4.6E1,3.7E1,5E1,5E1,3.6E1,2E0,1E0,7E0,1E0,5E0,2.5E1,2E0,9.2E1,6E1,1.05E2,5.1E1,2.3E1,2.3E1],"tree_param":{"num_deleted":"0","num_feature":"13","num_nodes":"51","size_leaf_vector":"1"}},{"base_weights":[-5.0783725E-3,3.5104316E-2,-5.931178E0,-1.7930901E-1,3.205202E-1,-3.451679E-1,-1.3289396E-1,-2.9757634E-1,3.1278848E-3,-1.2181442E0,3.4846172E-1,-3.74017E-1,-9.997907E-2,-2.2450788E-2,2.986858E-1,-1.0547908E-1,-7.1797436E-1,7.3522605E-2,3.936276E-1,-1.100674E0,-3.4861878E-1,-3.740729E-1,3.643957E-2,6.9820075E-3,-3.1372675E-1,5.744087E-1,-1.3787352E-1,-3.9664395E-2,-8.535171E-3,-5.096891E-1,1.1782308E-1,4.9018916E-1,2.4798575E-1,-2.3928834E-2,-6.268989E-2,-1.9919557E-2,-7.013216E-3,-1.2287047E-2,-2.9666478E-2,-1.0415721E-2,6.2306426E-3,-2.831638E-3,8.426204E-3,-3.6473133E-2,-1.0483224E-2,1.181562E-2,3.4277413E-2,1.1615205E-2,-1.1914357E-2,-3.3465147E-2,-7.7118876E-4,9.251497E-3,-1.6552648E-2,2.175699E-2,3.2313596E-2,8.3391665E-4,1.5145006E-2],"categories":[],"categories_nodes":[],"categories_segments":[],"categories_sizes":[],"default_left":[0,0,0,0,0,0,0,0,0,0,0,0,0,0,0,0,0,0,0,0,0,0,0,0,0,0,0,0,0,0,0,0,0,0,0,0,0,0,0,0,0,0,0,0,0,0,0,0,0,0,0,0,0,0,0,0,0],"id":1,"left_children":[1,3,5,7,9,-1,-1,11,13,15,17,19,21,23,25,-1,27,29,31,33,35,37,39,41,43,45,47,-1,-1,49,51,53,55,-1,-1,-1,-1,-1,-1,-1,-1,-1,-1,-1,-1,-1,-1,-1,-1,-1,-1,-1,-1,-1,-1,-1,-1],"loss_changes":[2.121409E2,5.4216793E1,7.451172E-1,1.0918552E1,1.6761677E1,0E0,0E0,4.599676E0,1.5187016E0,1.6064653E0,4.615341E0,3.695015E0,3.2666922E0,1.5882076E0,2.0051064E0,0E0,1.11884356E-1,1.455227E0,4.3927917E0,6.676674E-2,2.1737328E0,6.7018604E-1,1.2992237E0,1.7462661E0,5.825187E-1,2.1375513E-1,3.1555116E-1,0E0,0E0,3.0524313E-1,1.5997999E0,1.3684998E0,1.6462207E0,0E0,0E0,0E0,0E0,0E0,0E0,0E0,0E0,0E0,0E0,0E0,0E0,0E0,0E0,0E0,0E0,0E0,0E0,0E0,0E0,0E0,0E0,0E0,0E0],"parents":[2147483647,0,0,1,1,2,2,3,3,4,4,7,7,8,8,9,9,10,10,11,11,12,12,13,13,14,14,16,16,17,17,18,18,19,19,20,20,21,21,22,22,23,23,24,24,25,25,26,26,29,29,30,30,31,31,32,32],"right_children":[2,4,6,8,10,-1,-1,12,14,16,18,20,22,24,26,-1,28,30,32,34,36,38,40,42,44,46,48,-1,-1,50,52,54,56,-1,-1,-1,-1,-1,-1,-1,-1,-1,-1,-1,-1,-1,-1,-1,-1,-1,-1,-1,-1,-1,-1,-1,-1],"split_conditions":[1.5004313E0,4E0,1.2510093E1,1.2873497E1,1.1726787E1,-3.451679E-1,-1.3289396E-1,1.2614216E1,1.3273347E1,1.3089232E1,1.2387767E1,1.15714655E1,2E0,5.576431E-1,1.324346E1,-1.0547908E-1,1.3249999E1,2.9533216E-1,6E0,1.266151E1,1.2786584E1,1.2895085E1,1.26783905E1,1.2897667E1,5.7196647E-1,4E0,3E0,-3.9664395E-2,-8.535171E-3,1.2236423E1,1.3441668E1,1.2976393E1,1.2669872E1,-2.3928834E-2,-6.268989E-2,-1.9919557E-2,-7.013216E-3,-1.2287047E-2,-2.9666478E-2,-1.0415721E-2,6.2306426E-3,-2.831638E-3,8.426204E-3,-3.6473133E-2,-1.0483224E-2,1.181562E-2,3.4277413E-2,1.1615205E-2,-1.1914357E-2,-3.3465147E-2,-7.7118876E-4,9.251497E-3,-1.6552648E-2,2.175699E-2,3.2313596E-2,8.3391665E-4,1.5145006E-2],"split_indices":[10,0,4,7,3,0,0,4,7,5,3,3,0,10,4,0,4,10,0,5,5,4,7,5,10,1,1,0,0,3,4,8,8,0,0,0,0,0,0,0,0,0,0,0,0,0,0,0,0,0,0,0,0,0,0,0,0],"split_type":[0,0,0,0,0,0,0,0,0,0,0,0,0,0,0,0,0,0,0,0,0,0,0,0,0,0,0,0,0,0,0,0,0,0,0,0,0,0,0,0,0,0,0,0,0,0,0,0,0,0,0,0,0,0,0,0,0],"sum_hessian":[8.89E2,8.84E2,5E0,5.05E2,3.79E2,3E0,2E0,3.06E2,1.99E2,6E0,3.73E2,2.2E2,8.6E1,1.84E2,1.5E1,1E0,5E0,5.3E1,3.2E2,6E0,2.14E2,2.8E1,5.8E1,1.68E2,1.6E1,9E0,6E0,4E0,1E0,3E0,5E1,1.91E2,1.29E2,2E0,4E0,1.72E2,4.2E1,1.9E1,9E0,1.5E1,4.3E1,1.21E2,4.7E1,2E0,1.4E1,3E0,6E0,1E0,5E0,2E0,1E0,4.4E1,6E0,1.44E2,4.7E1,2.5E1,1.04E2],"tree_param":{"num_deleted":"0","num_feature":"13","num_nodes":"57","size_leaf_vector":"1"}},{"base_weights":[-1.1664357E-2,2.7186332E-2,-5.7142963E0,-1.8274169E-1,3.0189008E-1,-3.322241E-1,-1.2846418E-1,-2.620391E-1,4.0314972E-2,-1.179191E0,3.286605E-1,-3.7995476E-1,-1.387963E-1,-2.0431776E-2,3.449774E-1,-1.0284209E-1,-6.9010895E-1,3.9652973E-2,3.6684325E-1,-6.3685715E-1,-3.2317442E-1,3.14504E-2,-3.0205873E-1,-5.012705E-1,2.2282733E-3,-1.1785555E-2,3.8385358E-1,-4.167633E-2,-1.3442452E-2,-8.7778956E-2,3.0036876E-1,6.9560185E-2,3.856769E-1,-2.6025495E-2,-6.751237E-2,-1.7539732E-2,1.875051E-3,-4.208323E-3,1.0360682E-2,-3.3692647E-2,-1.3198045E-2,-2.8816199E-2,-5.026412E-3,-5.0400114E-3,5.0734887E-3,2.4352808E-2,9.606643E-3,1.1833815E-4,-2.3189029E-2,2.2240967E-2,5.9186043E-3,1.2083758E-2,-2.6477138E-2,2.2241993E-2,1.2883735E-2],"categories":[],"categories_nodes":[],"categories_segments":[],"categories_sizes":[],"default_left":[0,0,0,0,0,0,0,0,0,0,0,0,0,0,0,0,0,0,0,0,0,0,0,0,0,0,0,0,0,0,0,0,0,0,0,0,0,0,0,0,0,0,0,0,0,0,0,0,0,0,0,0,0,0,0],"id":2,"left_children":[1,3,5,7,9,-1,-1,11,13,15,17,19,21,23,25,-1,27,29,31,33,35,37,39,41,43,-1,45,-1,-1,47,49,51,53,-1,-1,-1,-1,-1,-1,-1,-1,-1,-1,-1,-1,-1,-1,-1,-1,-1,-1,-1,-1,-1,-1],"loss_changes":[1.964497E2,5.086068E1,4.8110962E-1,8.854469E0,1.5533539E1,0E0,0E0,5.3096676E0,2.4500058E0,1.5852575E0,4.134651E0,2.536539E0,5.0681696E0,1.2105541E0,5.871277E-1,0E0,1.3840413E-1,1.5214243E0,1.832016E0,2.0362167E0,1.5672169E0,1.8463479E0,1.1394329E0,9.244859E-2,1.1042713E0,0E0,3.2192802E-1,0E0,0E0,1.0518405E0,3.4168863E-1,2.2933836E0,2.2481499E0,0E0,0E0,0E0,0E0,0E0,0E0,0E0,0E0,0E0,0E0,0E0,0E0,0E0,0E0,0E0,0E0,0E0,0E0,0E0,0E0,0E0,0E0],"parents":[2147483647,0,0,1,1,2,2,3,3,4,4,7,7,8,8,9,9,10,10,11,11,12,12,13,13,14,14,16,16,17,17,18,18,19,19,20,20,21,21,22,22,23,23,24,24,26,26,29,29,30,30,31,31,32,32],"right_children":[2,4,6,8,10,-1,-1,12,14,16,18,20,22,24,26,-1,28,30,32,34,36,38,40,42,44,-1,46,-1,-1,48,50,52,54,-1,-1,-1,-1,-1,-1,-1,-1,-1,-1,-1,-1,-1,-1,-1,-1,-1,-1,-1,-1,-1,-1],"split_conditions":[1.2730744E0,4E0,1.2510093E1,1.2939792E1,1.1726787E1,-3.322241E-1,-1.2846418E-1,2E0,1.2986041E1,1.3089232E1,1.276641E1,1.2592363E1,3E0,1.216874E1,1.2621522E1,-1.0284209E-1,1.3178084E1,1.2702615E1,1.2236423E1,1.2786584E1,1.28868065E1,1.2780297E1,1.2137267E1,1.3540968E1,3.839384E-1,-1.1785555E-2,1.2991648E1,-4.167633E-2,-1.3442452E-2,1.3187584E1,4.686187E-1,1.3441668E1,6E0,-2.6025495E-2,-6.751237E-2,-1.7539732E-2,1.875051E-3,-4.208323E-3,1.0360682E-2,-3.3692647E-2,-1.3198045E-2,-2.8816199E-2,-5.026412E-3,-5.0400114E-3,5.0734887E-3,2.4352808E-2,9.606643E-3,1.1833815E-4,-2.3189029E-2,2.2240967E-2,5.9186043E-3,1.2083758E-2,-2.6477138E-2,2.2241993E-2,1.2883735E-2],"split_indices":[11,0,4,8,3,0,0,0,6,5,4,8,0,3,5,0,6,8,3,5,8,8,3,4,11,0,5,0,0,5,12,4,0,0,0,0,0,0,0,0,0,0,0,0,0,0,0,0,0,0,0,0,0,0,0],"split_type":[0,0,0,0,0,0,0,0,0,0,0,0,0,0,0,0,0,0,0,0,0,0,0,0,0,0,0,0,0,0,0,0,0,0,0,0,0,0,0,0,0,0,0,0,0,0,0,0,0,0,0,0,0,0,0],"sum_hessian":[8.85E2,8.8E2,5E0,4.99E2,3.81E2,3E0,2E0,3.68E2,1.31E2,6E0,3.75E2,1.87E2,1.81E2,1.1E2,2.1E1,1E0,5E0,4.4E1,3.31E2,3.2E1,1.55E2,8.9E1,9.2E1,4E0,1.06E2,1E0,2E1,3E0,2E0,3E1,1.4E1,2E1,3.11E2,2.9E1,3E0,1.44E2,1.1E1,5.4E1,3.5E1,7E0,8.5E1,3E0,1E0,5.2E1,5.4E1,1.2E1,8E0,2.5E1,5E0,7E0,7E0,1.6E1,4E0,2.11E2,1E2],"tree_param":{"num_deleted":"0","num_feature":"13","num_nodes":"55","size_leaf_vector":"1"}},{"base_weights":[4.6540056E-3,-5.825649E0,3.682493E-2,-3.1976572E-1,-8.8674664E-2,-1.9981392E-1,2.3458813E-1,-1.3558022E0,-1.7363192E-1,-1.5255572E-1,2.8643882E-1,-2.6901603E-1,-1.8543593E0,-2.4603777E-1,-7.56676E-3,-3.9802748E-1,-5.982609E-2,-4.216148E-2,3.3797616E-1,6.3022613E-3,-2.213591E-2,-4.124799E-2,-1.0814096E-1,-2.922601E-1,-4.9951743E-2,-1.8368201E-1,5.568726E-2,-6.625712E-2,-6.487092E-1,-1.7173359E-1,1.4674538E-1,-1.237244E-1,3.3241194E-1,1.7068939E-1,3.817512E-1,-1.745871E-2,-7.940434E-3,1.5032666E-2,-4.551266E-3,-1.3352099E-2,5.509907E-3,-9.620354E-4,1.2331453E-2,1.49119375E-2,-1.187311E-2,-3.4493458E-2,-7.985735E-3,-4.320365E-3,-3.4171056E-2,1.2969928E-2,-4.212149E-3,4.4075013E-3,-9.287206E-3,1.8881978E-2,4.2962553E-3,1.2943804E-2,-9.911859E-3,1.7923085E-2,3.3594064E-2],"categories":[],"categories_nodes":[],"categories_segments":[],"categories_sizes":[],"default_left":[0,0,0,0,0,0,0,0,0,0,0,0,0,0,0,0,0,0,0,0,0,0,0,0,0,0,0,0,0,0,0,0,0,0,0,0,0,0,0,0,0,0,0,0,0,0,0,0,0,0,0,0,0,0,0,0,0,0,0],"id":3,"left_children":[1,3,5,-1,-1,7,9,11,13,15,17,19,21,23,25,27,29,31,33,-1,-1,-1,-1,35,37,39,41,43,45,47,49,51,53,55,57,-1,-1,-1,-1,-1,-1,-1,-1,-1,-1,-1,-1,-1,-1,-1,-1,-1,-1,-1,-1,-1,-1,-1,-1],"loss_changes":[1.708998E2,1.998291E-1,4.2446278E1,0E0,0E0,1.2264479E1,9.960096E0,4.377573E0,4.867894E0,1.3191752E0,7.397991E0,3.3029455E-1,1.20931625E-1,2.5413246E0,1.3915886E0,1.2877185E0,1.0423446E0,1.8742055E0,2.6956062E0,0E0,0E0,0E0,0E0,1.6762676E0,8.194001E-1,8.3785605E-1,1.3209784E0,5.7004875E-1,7.096076E-2,1.2070992E0,4.3819755E-1,6.7339295E-1,9.017944E-2,2.6540723E0,1.7727356E0,0E0,0E0,0E0,0E0,0E0,0E0,0E0,0E0,0E0,0E0,0E0,0E0,0E0,0E0,0E0,0E0,0E0,0E0,0E0,0E0,0E0,0E0,0E0,0E0],"parents":[2147483647,0,0,1,1,2,2,5,5,6,6,7,7,8,8,9,9,10,10,11,11,12,12,13,13,14,14,15,15,16,16,17,17,18,18,23,23,24,24,25,25,26,26,27,27,28,28,29,29,30,30,31,31,32,32,33,33,34,34],"right_children":[2,4,6,-1,-1,8,10,12,14,16,18,20,22,24,26,28,30,32,34,-1,-1,-1,-1,36,38,40,42,44,46,48,50,52,54,56,58,-1,-1,-1,-1,-1,-1,-1,-1,-1,-1,-1,-1,-1,-1,-1,-1,-1,-1,-1,-1,-1,-1,-1,-1],"split_conditions":[1.1452243E1,1.2510093E1,1.2788461E1,-3.1976572E-1,-8.8674664E-2,1.1467133E1,1.224494E1,1.266151E1,1.2566565E1,1.1939593E1,1.2645524E1,1.213703E1,1.2168212E1,1.28503E1,3.5214573E-1,1.3081004E1,5.6175554E-1,1.3188219E1,1.2801071E1,6.3022613E-3,-2.213591E-2,-4.124799E-2,-1.0814096E-1,1.2895735E1,1.2455528E1,1.3092442E1,1.2884273E1,1.2600629E1,7.320812E-1,1.3233742E1,1.2819164E1,1.2734702E1,1.2495854E1,1.2941721E1,1.3194496E1,-1.745871E-2,-7.940434E-3,1.5032666E-2,-4.551266E-3,-1.3352099E-2,5.509907E-3,-9.620354E-4,1.2331453E-2,1.49119375E-2,-1.187311E-2,-3.4493458E-2,-7.985735E-3,-4.320365E-3,-3.4171056E-2,1.2969928E-2,-4.212149E-3,4.4075013E-3,-9.287206E-3,1.8881978E-2,4.2962553E-3,1.2943804E-2,-9.911859E-3,1.7923085E-2,3.3594064E-2],"split_indices":[7,4,4,0,0,3,3,5,4,3,5,5,4,8,10,4,10,6,6,0,0,0,0,3,3,3,6,8,10,4,7,8,5,9,7,0,0,0,0,0,0,0,0,0,0,0,0,0,0,0,0,0,0,0,0,0,0,0,0],"split_type":[0,0,0,0,0,0,0,0,0,0,0,0,0,0,0,0,0,0,0,0,0,0,0,0,0,0,0,0,0,0,0,0,0,0,0,0,0,0,0,0,0,0,0,0,0,0,0,0,0,0,0,0,0,0,0,0,0,0,0],"sum_hessian":[9.09E2,4E0,9.05E2,3E0,1E0,4.12E2,4.93E2,8E0,4.04E2,5.8E1,4.35E2,3E0,5E0,2.81E2,1.23E2,1.5E1,4.3E1,5.9E1,3.76E2,1E0,2E0,2E0,3E0,2.27E2,5.4E1,3.2E1,9.1E1,7E0,8E0,2.8E1,1.5E1,4.9E1,1E1,7.9E1,2.97E2,1.58E2,6.9E1,5E0,4.9E1,2.5E1,7E0,6.6E1,2.5E1,2E0,5E0,7E0,1E0,2.5E1,3E0,1E1,5E0,1.1E1,3.8E1,8E0,2E0,6.4E1,1.5E1,2.77E2,2E1],"tree_param":{"num_deleted":"0","num_feature":"13","num_nodes":"59","size_leaf_vector":"1"}},{"base_weights":[-6.4512105E-3,2.970066E-2,-2.665876E-1,-2.0734428E-1,2.3055774E-1,-1.3063701E0,-1.8197097E-1,8.3682835E-3,3.2322147E-1,-2.5952363E-1,-1.7865394E0,-2.4245258E-1,-8.662848E-3,-1.7267E-1,9.975217E-2,-4.8148118E-2,3.5175976E-1,-2.139805E-2,6.1447145E-3,-3.9873045E-2,-1.0408568E-1,-2.8387126E-1,-1.7863132E-2,-2.9569164E-2,2.6069367E-2,-4.138339E-1,-3.915575E-2,1.6957913E-1,-1.2620959E-1,2.3895924E-1,-2.90801E-1,4.1377154E-1,2.2617276E-1,-1.8996498E-2,-8.522986E-3,-3.6063038E-3,1.2784225E-2,-1.2478913E-2,2.8841497E-4,-6.6187955E-3,-2.451268E-2,-1.3315916E-2,2.3830852E-3,4.8573753E-3,2.4820305E-2,-8.806622E-3,2.4302317E-2,1.5860988E-2,1.5666486E-4,-7.501761E-4,-3.280152E-2,1.900029E-2,2.9769704E-2,-3.4959104E-2,1.2082227E-2],"categories":[],"categories_nodes":[],"categories_segments":[],"categories_sizes":[],"default_left":[0,0,0,0,0,0,0,0,0,0,0,0,0,0,0,0,0,0,0,0,0,0,0,0,0,0,0,0,0,0,0,0,0,0,0,0,0,0,0,0,0,0,0,0,0,0,0,0,0,0,0,0,0,0,0],"id":4,"left_children":[1,3,-1,5,7,9,11,13,15,17,19,21,23,25,27,29,31,-1,-1,-1,-1,33,35,37,-1,39,41,43,45,47,49,51,53,-1,-1,-1,-1,-1,-1,-1,-1,-1,-1,-1,-1,-1,-1,-1,-1,-1,-1,-1,-1,-1,-1],"loss_changes":[1.7130824E2,4.2136955E1,0E0,1.10839615E1,9.859383E0,4.0603228E0,4.169717E0,2.3664699E0,3.599144E0,3.1024793E-1,9.161568E-2,2.7390785E0,1.1678822E0,1.5293392E0,1.5203338E0,1.8111751E0,2.3518105E0,0E0,0E0,0E0,0E0,2.6478844E0,7.1608603E-1,7.8667057E-1,0E0,3.007543E-1,6.437868E-1,1.6798763E0,7.886161E-1,2.2047633E-1,1.4003677E0,1.0554619E0,1.686544E0,0E0,0E0,0E0,0E0,0E0,0E0,0E0,0E0,0E0,0E0,0E0,0E0,0E0,0E0,0E0,0E0,0E0,0E0,0E0,0E0,0E0,0E0],"parents":[2147483647,0,0,1,1,3,3,4,4,5,5,6,6,7,7,8,8,9,9,10,10,11,11,12,12,13,13,14,14,15,15,16,16,21,21,22,22,23,23,25,25,26,26,27,27,28,28,29,29,30,30,31,31,32,32],"right_children":[2,4,-1,6,8,10,12,14,16,18,20,22,24,26,28,30,32,-1,-1,-1,-1,34,36,38,-1,40,42,44,46,48,50,52,54,-1,-1,-1,-1,-1,-1,-1,-1,-1,-1,-1,-1,-1,-1,-1,-1,-1,-1,-1,-1,-1,-1],"split_conditions":[1.2730744E0,1.2788461E1,-2.665876E-1,1.1467133E1,4E0,1.266151E1,1.2614216E1,2E0,1.224494E1,2E0,1.2168212E1,1.3141598E1,1.3273347E1,1.2881066E1,3E0,1.3108257E1,6E0,-2.139805E-2,6.1447145E-3,-3.9873045E-2,-1.0408568E-1,2E0,1.2916818E1,3.5687882E-1,2.6069367E-2,4.2959392E-1,3.9730716E-1,1.2895735E1,1.3540968E1,1.2648378E1,1E1,1.3380267E1,1.2268418E1,-1.8996498E-2,-8.522986E-3,-3.6063038E-3,1.2784225E-2,-1.2478913E-2,2.8841497E-4,-6.6187955E-3,-2.451268E-2,-1.3315916E-2,2.3830852E-3,4.8573753E-3,2.4820305E-2,-8.806622E-3,2.4302317E-2,1.5860988E-2,1.5666486E-4,-7.501761E-4,-3.280152E-2,1.900029E-2,2.9769704E-2,-3.4959104E-2,1.2082227E-2],"split_indices":[11,4,0,3,0,5,4,0,3,1,4,3,7,7,0,4,0,0,0,0,0,0,5,11,0,12,12,3,3,7,1,3,7,0,0,0,0,0,0,0,0,0,0,0,0,0,0,0,0,0,0,0,0,0,0],"split_type":[0,0,0,0,0,0,0,0,0,0,0,0,0,0,0,0,0,0,0,0,0,0,0,0,0,0,0,0,0,0,0,0,0,0,0,0,0,0,0,0,0,0,0,0,0,0,0,0,0,0,0,0,0,0,0],"sum_hessian":[8.88E2,8.83E2,5E0,4.05E2,4.78E2,8E0,3.97E2,1.41E2,3.37E2,3E0,5E0,2.94E2,1.03E2,4.7E1,9.4E1,2.4E1,3.13E2,2E0,1E0,2E0,3E0,2.48E2,4.6E1,1E2,3E0,1.6E1,3.1E1,7.2E1,2.2E1,1.1E1,1.3E1,2.08E2,1.05E2,1.33E2,1.15E2,3.9E1,7E0,1.3E1,8.7E1,4E0,1.2E1,8E0,2.3E1,6E1,1.2E1,2.1E1,1E0,8E0,3E0,8E0,5E0,1.78E2,3E1,1E0,1.04E2],"tree_param":{"num_deleted":"0","num_feature":"13","num_nodes":"55","size_leaf_vector":"1"}},{"base_weights":[-8.828014E-3,2.5186911E-2,-5.1095953E0,-1.5485683E-1,2.6316953E-1,-2.9777747E-1,-1.1392293E-1,-2.3975934E-1,3.5448128E-3,-1.0800018E0,2.870937E-1,-3.4990647E-1,-1.2065311E-1,-6.879859E-1,2.7234182E-2,-7.4946634E-2,-1.9553531E-2,3.2626692E-2,3.1927496E-1,-3.1671134E-1,-7.340996E-1,-2.3544726E-1,1.0084025E-1,-8.825531E-1,-9.961716E-3,-1.0029734E-2,2.0767742E-1,-1.2575167E-1,1.6984832E-1,2.7664334E-1,4.6820387E-1,-1.8933868E-2,-1.03045255E-2,-5.1898986E-2,-2.4185536E-2,-1.5487012E-2,-2.1658991E-3,1.7358502E-2,1.12601025E-4,-1.3056683E-2,-5.013242E-2,-3.1573698E-3,4.820514E-3,4.3771337E-3,2.1959634E-2,4.422315E-4,-1.9810392E-2,-7.6202713E-3,1.0303582E-2,1.5297061E-3,1.4935136E-2,4.454279E-3,2.4429757E-2],"categories":[],"categories_nodes":[],"categories_segments":[],"categories_sizes":[],"default_left":[0,0,0,0,0,0,0,0,0,0,0,0,0,0,0,0,0,0,0,0,0,0,0,0,0,0,0,0,0,0,0,0,0,0,0,0,0,0,0,0,0,0,0,0,0,0,0,0,0,0,0,0,0],"id":5,"left_children":[1,3,5,7,9,-1,-1,11,13,15,17,19,21,23,25,-1,-1,27,29,31,33,35,37,39,-1,41,43,45,47,49,51,-1,-1,-1,-1,-1,-1,-1,-1,-1,-1,-1,-1,-1,-1,-1,-1,-1,-1,-1,-1,-1,-1],"loss_changes":[1.571482E2,3.8603306E1,8.006134E-1,6.900032E0,1.2778149E1,0E0,0E0,4.3395996E0,2.9674835E0,1.4341135E0,3.1178074E0,1.9738312E0,4.1427774E0,3.947351E-1,1.1787868E0,0E0,0E0,9.7760797E-1,2.0228157E0,1.0255699E0,4.8706484E-1,1.513885E0,1.3591903E0,3.6692858E-2,0E0,8.3154947E-1,7.959428E-1,7.6795465E-1,3.115608E-1,1.4346275E0,5.285454E-1,0E0,0E0,0E0,0E0,0E0,0E0,0E0,0E0,0E0,0E0,0E0,0E0,0E0,0E0,0E0,0E0,0E0,0E0,0E0,0E0,0E0,0E0],"parents":[2147483647,0,0,1,1,2,2,3,3,4,4,7,7,8,8,9,9,10,10,11,11,12,12,13,13,14,14,17,17,18,18,19,19,20,20,21,21,22,22,23,23,25,25,26,26,27,27,28,28,29,29,30,30],"right_children":[2,4,6,8,10,-1,-1,12,14,16,18,20,22,24,26,-1,-1,28,30,32,34,36,38,40,-1,42,44,46,48,50,52,-1,-1,-1,-1,-1,-1,-1,-1,-1,-1,-1,-1,-1,-1,-1,-1,-1,-1,-1,-1,-1,-1],"split_conditions":[1.5004313E0,4E0,1.2510093E1,1.2867864E1,1.1726787E1,-2.9777747E-1,-1.1392293E-1,2E0,1.216874E1,1.2957946E1,1.276641E1,6.174286E-1,1.2690201E1,1.2996703E1,1.3035334E1,-7.4946634E-2,-1.9553531E-2,1.2535657E1,1.2988519E1,1.2838446E1,1.1939593E1,1.2657223E1,4.3622842E-1,1.216874E1,-9.961716E-3,1.2884244E1,1.2993127E1,1.3150031E1,1.2523466E1,1.2236423E1,1.2387767E1,-1.8933868E-2,-1.03045255E-2,-5.1898986E-2,-2.4185536E-2,-1.5487012E-2,-2.1658991E-3,1.7358502E-2,1.12601025E-4,-1.3056683E-2,-5.013242E-2,-3.1573698E-3,4.820514E-3,4.3771337E-3,2.1959634E-2,4.422315E-4,-1.9810392E-2,-7.6202713E-3,1.0303582E-2,1.5297061E-3,1.4935136E-2,4.454279E-3,2.4429757E-2],"split_indices":[10,0,4,8,3,0,0,0,3,6,4,11,4,9,6,0,0,8,8,3,3,5,12,6,0,5,3,5,5,3,3,0,0,0,0,0,0,0,0,0,0,0,0,0,0,0,0,0,0,0,0,0,0],"split_type":[0,0,0,0,0,0,0,0,0,0,0,0,0,0,0,0,0,0,0,0,0,0,0,0,0,0,0,0,0,0,0,0,0,0,0,0,0,0,0,0,0,0,0,0,0,0,0,0,0,0,0,0,0],"sum_hessian":[9.04E2,8.99E2,5E0,5.12E2,3.87E2,3E0,2E0,3.33E2,1.79E2,6E0,3.81E2,1.72E2,1.61E2,5E0,1.74E2,3E0,3E0,4.3E1,3.38E2,1.6E2,1.2E1,1.06E2,5.5E1,3E0,2E0,1.45E2,2.9E1,2E1,2.3E1,2.65E2,7.3E1,1.01E2,5.9E1,4E0,8E0,7.6E1,3E1,1.5E1,4E1,1E0,2E0,9.7E1,4.8E1,2E1,9E0,1.4E1,6E0,2E0,2.1E1,2.2E1,2.43E2,4E0,6.9E1],"tree_param":{"num_deleted":"0","num_feature":"13","num_nodes":"53","size_leaf_vector":"1"}},{"base_weights":[3.7405337E-4,-1.8620072E-1,2.1110766E-2,-1.450394E-1,2.5006083E-1,-2.2359748E-1,2.2823842E-2,-1.039502E0,2.7365458E-1,-1.0133231E0,-2.0480034E-1,-2.4324376E-2,2.3894484E-1,-9.3091704E-2,-5.92141E-1,2.3689607E-2,3.0973047E-1,-1.1638602E0,-1.8723726E-2,-3.040609E-1,-1.0938641E-1,-5.822524E-3,-3.2425165E-1,3.680401E-1,-2.378025E-1,-3.5988238E-2,-1.1229786E-2,1.3096976E-1,-1.7964302E-1,6.0319774E-2,3.339622E-1,-1.5265989E-2,-6.372522E-2,-8.549488E-3,-2.0004133E-2,2.1467307E-3,-1.269479E-2,-1.9738523E-3,5.969397E-3,-2.7911171E-2,-7.6611913E-3,1.9373077E-3,2.378261E-2,-1.724708E-2,1.0125804E-2,-7.153006E-4,1.3856984E-2,-4.1631762E-2,-1.8534184E-3,8.240296E-3,-1.9254621E-2,1.9640388E-2,1.1394512E-2],"categories":[],"categories_nodes":[],"categories_segments":[],"categories_sizes":[],"default_left":[0,0,0,0,0,0,0,0,0,0,0,0,0,0,0,0,0,0,0,0,0,0,0,0,0,0,0,0,0,0,0,0,0,0,0,0,0,0,0,0,0,0,0,0,0,0,0,0,0,0,0,0,0],"id":6,"left_children":[1,-1,3,5,7,9,11,13,15,17,19,21,23,-1,25,27,29,31,-1,33,35,37,39,41,43,-1,-1,45,47,49,51,-1,-1,-1,-1,-1,-1,-1,-1,-1,-1,-1,-1,-1,-1,-1,-1,-1,-1,-1,-1,-1,-1],"loss_changes":[6.9741486E1,0E0,3.4196266E1,6.875537E0,1.1785351E1,5.062296E0,1.7074956E0,1.4726872E0,3.34725E0,3.3352757E-1,3.2625933E0,7.63903E-1,1.9338957E0,0E0,1.19788885E-1,1.0705785E0,1.9440422E0,1.8082237E-1,0E0,2.1038008E0,3.951016E0,5.567337E-1,2.3459232E-1,8.320348E-1,4.0008357E-1,0E0,0E0,6.8348306E-1,1.5518379E0,1.4596474E0,1.7580757E0,0E0,0E0,0E0,0E0,0E0,0E0,0E0,0E0,0E0,0E0,0E0,0E0,0E0,0E0,0E0,0E0,0E0,0E0,0E0,0E0,0E0,0E0],"parents":[2147483647,0,0,2,2,3,3,4,4,5,5,6,6,7,7,8,8,9,9,10,10,11,11,12,12,14,14,15,15,16,16,17,17,19,19,20,20,21,21,22,22,23,23,24,24,27,27,28,28,29,29,30,30],"right_children":[2,-1,4,6,8,10,12,14,16,18,20,22,24,-1,26,28,30,32,-1,34,36,38,40,42,44,-1,-1,46,48,50,52,-1,-1,-1,-1,-1,-1,-1,-1,-1,-1,-1,-1,-1,-1,-1,-1,-1,-1,-1,-1,-1,-1],"split_conditions":[8.669502E0,-1.8620072E-1,4E0,1.29102545E1,1.1726787E1,1.1467133E1,1.3035334E1,1.3089232E1,1.2572242E1,1.3097029E1,2E0,1.2909274E1,4.8591554E-1,-9.3091704E-2,1.3178084E1,6E0,1.2321379E1,1.266151E1,-1.8723726E-2,4.7149786E-1,3E0,1.2897667E1,3.9124104E-1,1.2769786E1,1.3029947E1,-3.5988238E-2,-1.1229786E-2,5E0,1.2268418E1,1.3441668E1,6E0,-1.5265989E-2,-6.372522E-2,-8.549488E-3,-2.0004133E-2,2.1467307E-3,-1.269479E-2,-1.9738523E-3,5.969397E-3,-2.7911171E-2,-7.6611913E-3,1.9373077E-3,2.378261E-2,-1.724708E-2,1.0125804E-2,-7.153006E-4,1.3856984E-2,-4.1631762E-2,-1.8534184E-3,8.240296E-3,-1.9254621E-2,1.9640388E-2,1.1394512E-2],"split_indices":[3,0,0,7,3,3,6,5,7,6,0,6,11,0,6,0,3,5,0,12,0,5,12,4,3,0,0,0,7,4,0,0,0,0,0,0,0,0,0,0,0,0,0,0,0,0,0,0,0,0,0,0,0],"split_type":[0,0,0,0,0,0,0,0,0,0,0,0,0,0,0,0,0,0,0,0,0,0,0,0,0,0,0,0,0,0,0,0,0,0,0,0,0,0,0,0,0,0,0,0,0,0,0,0,0,0,0,0,0],"sum_hessian":[9.01E2,4E0,8.97E2,5.2E2,3.77E2,3.54E2,1.66E2,6E0,3.71E2,7E0,3.47E2,1.37E2,2.9E1,1E0,5E0,4.7E1,3.24E2,5E0,2E0,1.69E2,1.78E2,1.3E2,7E0,2.3E1,6E0,3E0,2E0,3.1E1,1.6E1,2.9E1,2.95E2,1E0,4E0,7.2E1,9.7E1,8.7E1,9.1E1,1.03E2,2.7E1,2E0,5E0,6E0,1.7E1,5E0,1E0,1.6E1,1.5E1,2E0,1.4E1,2.4E1,5E0,1.88E2,1.07E2],"tree_param":{"num_deleted":"0","num_feature":"13","num_nodes":"53","size_leaf_vector":"1"}},{"base_weights":[4.126606E-3,-5.0865593E0,3.240361E-2,-2.8176495E-1,-7.229002E-2,-1.3599503E-1,2.4804237E-1,-2.1245182E-1,2.3303235E-2,-9.8427725E-1,2.6636514E-1,-1.971619E-1,-3.781361E-2,5.4507464E-2,-1.6229276E-1,-9.07644E-2,-4.5501748E-1,2.2018451E-2,3.0389178E-1,-2.9025054E-1,-1.0455908E-1,-1.5944596E-2,1.2927479E-1,-4.4922695E-1,3.981622E-2,-6.196475E-3,-2.5340354E-2,1.3246831E-1,-1.6684723E-1,2.7456173E-1,4.8410508E-1,-2.6979137E-2,-1.242055E-2,1.4624826E-3,-1.1550694E-2,4.56798E-3,-3.1549719E-3,3.6843866E-3,1.9358631E-2,-6.155968E-5,-2.4943372E-2,-8.297614E-3,9.771719E-3,-1.8161153E-2,7.924802E-3,-2.0470884E-2,5.833249E-3,1.6132072E-2,8.704241E-3,1.8677898E-2,2.9386103E-2],"categories":[],"categories_nodes":[],"categories_segments":[],"categories_sizes":[],"default_left":[0,0,0,0,0,0,0,0,0,0,0,0,0,0,0,0,0,0,0,0,0,0,0,0,0,0,0,0,0,0,0,0,0,0,0,0,0,0,0,0,0,0,0,0,0,0,0,0,0,0,0],"id":7,"left_children":[1,3,5,-1,-1,7,9,11,13,15,17,19,-1,21,23,-1,25,27,29,31,33,35,37,39,41,-1,-1,43,45,47,49,-1,-1,-1,-1,-1,-1,-1,-1,-1,-1,-1,-1,-1,-1,-1,-1,-1,-1,-1,-1],"loss_changes":[1.3029503E2,1.841629E0,3.271568E1,0E0,0E0,6.1677427E0,9.181076E0,2.6946135E0,9.6442395E-1,1.8129354E0,3.569418E0,2.8488207E0,0E0,7.5004786E-1,1.4096938E0,0E0,2.2926211E-2,1.1276919E0,1.6536388E0,1.5976648E0,2.8663645E0,3.8019824E-1,9.606389E-1,2.2177315E-1,5.127524E-1,0E0,0E0,4.9622762E-1,1.4231983E0,1.3592873E0,3.0736256E-1,0E0,0E0,0E0,0E0,0E0,0E0,0E0,0E0,0E0,0E0,0E0,0E0,0E0,0E0,0E0,0E0,0E0,0E0,0E0,0E0],"parents":[2147483647,0,0,1,1,2,2,5,5,6,6,7,7,8,8,9,9,10,10,11,11,13,13,14,14,16,16,17,17,18,18,19,19,20,20,21,21,22,22,23,23,24,24,27,27,28,28,29,29,30,30],"right_children":[2,4,6,-1,-1,8,10,12,14,16,18,20,-1,22,24,-1,26,28,30,32,34,36,38,40,42,-1,-1,44,46,48,50,-1,-1,-1,-1,-1,-1,-1,-1,-1,-1,-1,-1,-1,-1,-1,-1,-1,-1,-1,-1],"split_conditions":[1.1452243E1,1.2510093E1,4E0,-2.8176495E-1,-7.229002E-2,1.29102545E1,1.1726787E1,7.563241E-1,4.9310702E-1,1.3089232E1,1.2572242E1,2E0,-3.781361E-2,3.7923428E-1,1.2615465E1,-9.07644E-2,1.1140049E1,6E0,1.3074406E1,1.1971704E1,3E0,1.2990699E1,1.3178272E1,1.2746953E1,6.0216767E-1,-6.196475E-3,-2.5340354E-2,3.7001735E-1,1.3079006E1,6E0,1.3280982E1,-2.6979137E-2,-1.242055E-2,1.4624826E-3,-1.1550694E-2,4.56798E-3,-3.1549719E-3,3.6843866E-3,1.9358631E-2,-6.155968E-5,-2.4943372E-2,-8.297614E-3,9.771719E-3,-1.8161153E-2,7.924802E-3,-2.0470884E-2,5.833249E-3,1.6132072E-2,8.704241E-3,1.8677898E-2,2.9386103E-2],"split_indices":[7,4,0,0,0,7,3,10,10,5,7,0,0,10,3,0,3,0,7,6,0,7,7,8,10,0,0,12,3,0,5,0,0,0,0,0,0,0,0,0,0,0,0,0,0,0,0,0,0,0,0],"split_type":[0,0,0,0,0,0,0,0,0,0,0,0,0,0,0,0,0,0,0,0,0,0,0,0,0,0,0,0,0,0,0,0,0,0,0,0,0,0,0,0,0,0,0,0,0,0,0,0,0,0,0],"sum_hessian":[9.03E2,4E0,8.99E2,3E0,1E0,5.05E2,3.94E2,3.41E2,1.64E2,5E0,3.89E2,3.33E2,8E0,1.41E2,2.3E1,1E0,4E0,5.2E1,3.37E2,1.65E2,1.68E2,7.3E1,6.8E1,9E0,1.4E1,1E0,3E0,3.3E1,1.9E1,2.92E2,4.5E1,2.2E1,1.43E2,8.2E1,8.6E1,2.2E1,5.1E1,5.7E1,1.1E1,1E0,8E0,6E0,8E0,1E0,3.2E1,1E1,9E0,1.96E2,9.6E1,2.4E1,2.1E1],"tree_param":{"num_deleted":"0","num_feature":"13","num_nodes":"51","size_leaf_vector":"1"}},{"base_weights":[-9.491733E-3,2.1574784E-2,-4.636821E0,-1.3281792E-1,2.3365396E-1,-2.7119878E-1,-1.02083735E-1,-2.075831E-1,2.417846E-2,-9.819747E-1,2.5596055E-1,-7.5375754E-1,-1.8935582E-1,4.251323E-2,-3.0445945E-1,-8.849531E-2,-5.5566853E-1,1.5184063E-1,3.413808E-1,-2.4120846E-1,-1.0121844E0,-2.747761E-1,-1.0079332E-1,1.8707307E-2,3.6327457E-1,-5.4676247E-1,-9.2180885E-2,-3.392774E-2,-1.0329867E-2,1.7701034E-1,-3.1528875E-1,3.7206477E-1,2.0281066E-1,-1.5800381E-2,1.4497042E-3,-5.399805E-2,-1.5138126E-2,1.7463326E-2,-1.4392157E-2,1.3337493E-3,-1.1206261E-2,-1.7486736E-3,8.360189E-3,2.3755899E-2,-1.8878985E-2,-8.256865E-3,-3.0946255E-2,3.713401E-3,-9.698617E-3,7.2462164E-4,1.2194311E-2,4.1406443E-3,-3.2516632E-2,1.6532227E-2,2.4463555E-2,1.32756485E-2,-2.7886868E-4],"categories":[],"categories_nodes":[],"categories_segments":[],"categories_sizes":[],"default_left":[0,0,0,0,0,0,0,0,0,0,0,0,0,0,0,0,0,0,0,0,0,0,0,0,0,0,0,0,0,0,0,0,0,0,0,0,0,0,0,0,0,0,0,0,0,0,0,0,0,0,0,0,0,0,0,0,0],"id":8,"left_children":[1,3,5,7,9,-1,-1,11,13,15,17,19,21,23,25,-1,27,29,31,33,35,37,39,41,43,45,47,-1,-1,49,51,53,55,-1,-1,-1,-1,-1,-1,-1,-1,-1,-1,-1,-1,-1,-1,-1,-1,-1,-1,-1,-1,-1,-1,-1,-1],"loss_changes":[1.293358E2,2.9303705E1,1.1826782E0,6.085232E0,1.0474279E1,0E0,0E0,3.351572E0,1.0252275E0,1.3678193E0,3.24782E0,1.212873E0,2.551981E0,1.2149673E0,4.1252053E-1,0E0,1.1718869E-1,2.0428288E0,7.8767395E-1,1.10216975E-1,9.6035E-3,1.5112419E0,2.6628122E0,1.2015586E0,1.090851E0,7.948756E-3,1.16064414E-1,0E0,0E0,1.7462983E0,1.2542895E0,6.392517E-1,5.1107097E-1,0E0,0E0,0E0,0E0,0E0,0E0,0E0,0E0,0E0,0E0,0E0,0E0,0E0,0E0,0E0,0E0,0E0,0E0,0E0,0E0,0E0,0E0,0E0,0E0],"parents":[2147483647,0,0,1,1,2,2,3,3,4,4,7,7,8,8,9,9,10,10,11,11,12,12,13,13,14,14,16,16,17,17,18,18,19,19,20,20,21,21,22,22,23,23,24,24,25,25,26,26,29,29,30,30,31,31,32,32],"right_children":[2,4,6,8,10,-1,-1,12,14,16,18,20,22,24,26,-1,28,30,32,34,36,38,40,42,44,46,48,-1,-1,50,52,54,56,-1,-1,-1,-1,-1,-1,-1,-1,-1,-1,-1,-1,-1,-1,-1,-1,-1,-1,-1,-1,-1,-1,-1,-1],"split_conditions":[1.2730744E0,4E0,1.2510093E1,1.29102545E1,1.1726787E1,-2.7119878E-1,-1.02083735E-1,1.2157235E1,1.3523841E1,1.3089232E1,1.2787492E1,1.2056694E1,2E0,1.3273347E1,1.3657958E1,-8.849531E-2,5.887821E-1,1.2778305E1,5.041415E-1,1.2786584E1,1.2126892E1,1.2285751E1,3E0,1.2897667E1,1.3302601E1,1E0,1.2711065E1,-3.392774E-2,-1.0329867E-2,1.2572242E1,1.2751907E1,1.3074406E1,1.2968247E1,-1.5800381E-2,1.4497042E-3,-5.399805E-2,-1.5138126E-2,1.7463326E-2,-1.4392157E-2,1.3337493E-3,-1.1206261E-2,-1.7486736E-3,8.360189E-3,2.3755899E-2,-1.8878985E-2,-8.256865E-3,-3.0946255E-2,3.713401E-3,-9.698617E-3,7.2462164E-4,1.2194311E-2,4.1406443E-3,-3.2516632E-2,1.6532227E-2,2.4463555E-2,1.32756485E-2,-2.7886868E-4],"split_indices":[11,0,4,7,3,0,0,7,4,5,7,8,0,7,4,0,12,7,11,5,3,7,0,5,4,0,5,0,0,7,8,7,7,0,0,0,0,0,0,0,0,0,0,0,0,0,0,0,0,0,0,0,0,0,0,0,0],"split_type":[0,0,0,0,0,0,0,0,0,0,0,0,0,0,0,0,0,0,0,0,0,0,0,0,0,0,0,0,0,0,0,0,0,0,0,0,0,0,0,0,0,0,0,0,0,0,0,0,0,0,0,0,0,0,0,0,0],"sum_hessian":[8.98E2,8.93E2,5E0,5.17E2,3.76E2,3E0,2E0,3.5E2,1.67E2,6E0,3.7E2,1E1,3.4E2,1.59E2,8E0,1E0,5E0,1.68E2,2.02E2,4E0,6E0,1.72E2,1.68E2,1.49E2,1E1,3E0,5E0,3E0,2E0,1.6E2,8E0,1.64E2,3.8E1,3E0,1E0,5E0,1E0,3E0,1.69E2,8.3E1,8.5E1,1.1E2,3.9E1,9E0,1E0,1E0,2E0,2E0,3E0,4.7E1,1.13E2,4E0,4E0,1.24E2,4E1,2.9E1,9E0],"tree_param":{"num_deleted":"0","num_feature":"13","num_nodes":"57","size_leaf_vector":"1"}},{"base_weights":[2.9260365E-3,2.849572E-2,-4.5234933E0,-1.1467407E-1,2.1906261E-1,-2.7827683E-1,-9.868093E-2,-2.6111233E-1,-5.4559905E-2,-9.518405E-1,2.4039218E-1,-1.2308641E-1,-3.3993292E-1,-1.0892844E0,-4.2813525E-2,-8.6282924E-2,-5.3526115E-1,2.6872411E-2,2.702551E-1,-3.495946E-2,-5.149235E-2,-3.6173898E-1,3.65448E-2,-6.409447E-2,-1.2786746E-2,-3.554016E-1,-2.4190519E-2,-3.2655444E-2,-9.985527E-3,1.5759273E-1,-1.04967594E-1,3.3860773E-1,1.9178016E-1,3.9381813E-2,-4.2345817E-3,-2.7665013E-2,-1.5901033E-2,1.647094E-2,-9.612346E-3,-2.4865557E-2,-1.0405473E-3,-2.8505838E-3,6.9306116E-3,-1.455307E-4,1.1901316E-2,-1.0731354E-2,5.082284E-3,1.5338197E-2,2.7800232E-2,4.532452E-3,1.3002385E-2],"categories":[],"categories_nodes":[],"categories_segments":[],"categories_sizes":[],"default_left":[0,0,0,0,0,0,0,0,0,0,0,0,0,0,0,0,0,0,0,0,0,0,0,0,0,0,0,0,0,0,0,0,0,0,0,0,0,0,0,0,0,0,0,0,0,0,0,0,0,0,0],"id":9,"left_children":[1,3,5,7,9,-1,-1,11,13,15,17,19,21,23,25,-1,27,29,31,-1,33,35,37,-1,-1,39,41,-1,-1,43,45,47,49,-1,-1,-1,-1,-1,-1,-1,-1,-1,-1,-1,-1,-1,-1,-1,-1,-1,-1],"loss_changes":[1.03020966E2,2.4170948E1,2.301155E0,4.440079E0,9.719263E0,0E0,0E0,1.5574131E0,4.328901E0,1.332818E0,2.3774815E0,2.2325017E0,7.767029E-1,3.143587E-1,2.0696173E0,0E0,1.0683048E-1,8.26548E-1,1.6944447E0,0E0,1.4596297E0,5.6101704E-1,4.6537268E-1,0E0,0E0,9.3928266E-1,1.8139633E0,0E0,0E0,3.105294E-1,5.6558645E-1,1.0339947E0,1.0465426E0,0E0,0E0,0E0,0E0,0E0,0E0,0E0,0E0,0E0,0E0,0E0,0E0,0E0,0E0,0E0,0E0,0E0,0E0],"parents":[2147483647,0,0,1,1,2,2,3,3,4,4,7,7,8,8,9,9,10,10,11,11,12,12,13,13,14,14,16,16,17,17,18,18,20,20,21,21,22,22,25,25,26,26,29,29,30,30,31,31,32,32],"right_children":[2,4,6,8,10,-1,-1,12,14,16,18,20,22,24,26,-1,28,30,32,-1,34,36,38,-1,-1,40,42,-1,-1,44,46,48,50,-1,-1,-1,-1,-1,-1,-1,-1,-1,-1,-1,-1,-1,-1,-1,-1,-1,-1],"split_conditions":[1.5004313E0,4E0,1.2510093E1,1.2330389E1,1.1726787E1,-2.7827683E-1,-9.868093E-2,6E0,1.1467133E1,1.3089232E1,1.2569608E1,1.15714655E1,1.3104777E1,1.27853775E1,1.2592363E1,-8.6282924E-2,1.3178084E1,1.248481E1,4.4191042E-1,-3.495946E-2,1.1726787E1,1.1863932E1,1E0,-6.409447E-2,-1.2786746E-2,1.2464902E1,1.3038639E1,-3.2655444E-2,-9.985527E-3,1.3038639E1,5.748356E-1,1.351076E1,1.30747E1,3.9381813E-2,-4.2345817E-3,-2.7665013E-2,-1.5901033E-2,1.647094E-2,-9.612346E-3,-2.4865557E-2,-1.0405473E-3,-2.8505838E-3,6.9306116E-3,-1.455307E-4,1.1901316E-2,-1.0731354E-2,5.082284E-3,1.5338197E-2,2.7800232E-2,4.532452E-3,1.3002385E-2],"split_indices":[10,0,4,4,3,0,0,1,3,5,8,3,3,4,8,0,6,9,10,0,3,4,0,0,0,3,6,0,0,6,10,4,6,0,0,0,0,0,0,0,0,0,0,0,0,0,0,0,0,0,0],"split_type":[0,0,0,0,0,0,0,0,0,0,0,0,0,0,0,0,0,0,0,0,0,0,0,0,0,0,0,0,0,0,0,0,0,0,0,0,0,0,0,0,0,0,0,0,0,0,0,0,0,0,0],"sum_hessian":[8.88E2,8.84E2,4E0,5.05E2,3.79E2,2E0,2E0,1.46E2,3.59E2,6E0,3.73E2,5.4E1,9.2E1,3E0,3.56E2,1E0,5E0,4.6E1,3.27E2,5E0,4.9E1,8.7E1,5E0,2E0,1E0,1.9E1,3.37E2,3E0,2E0,2.3E1,2.3E1,1.73E2,1.54E2,1E0,4.8E1,1.4E1,7.3E1,2E0,3E0,1.3E1,6E0,2.81E2,5.6E1,8E0,1.5E1,1.5E1,8E0,1.53E2,2E1,6.3E1,9.1E1],"tree_param":{"num_deleted":"0","num_feature":"13","num_nodes":"51","size_leaf_vector":"1"}},{"base_weights":[-8.6604925E-3,2.0149885E-2,-4.2951612E0,-1.2106069E-1,2.0258573E-1,-2.5059342E-1,-9.539158E-2,-2.06317E-1,-2.0215733E-2,-9.22666E-1,2.2257057E-1,-2.520412E-1,-3.247654E-2,-1.5434203E-1,7.226407E-2,-8.4125854E-2,-5.156047E-1,-8.388211E-3,2.4430853E-1,-3.901535E-1,-2.1341425E-1,-3.9860513E-2,-5.074016E-3,-1.2492389E-1,-5.0742835E-2,1.4864625E-1,-9.994414E-2,-3.143085E-2,-9.652662E-3,6.8731084E-2,-4.6942633E-1,3.0352673E-1,1.3747074E-1,-2.248933E-2,-2.5336563E-3,3.8397264E-2,-1.1185214E-2,1.1748322E-2,-3.379148E-3,-1.226834E-2,-2.0481995E-3,-2.7608483E-3,1.1257784E-2,-6.709372E-3,2.0068122E-2,-1.7456962E-2,4.758985E-3,-4.131136E-2,2.1924973E-3,1.2204409E-2,2.0210253E-2,-3.4341663E-3,9.823536E-3],"categories":[],"categories_nodes":[],"categories_segments":[],"categories_sizes":[],"default_left":[0,0,0,0,0,0,0,0,0,0,0,0,0,0,0,0,0,0,0,0,0,0,0,0,0,0,0,0,0,0,0,0,0,0,0,0,0,0,0,0,0,0,0,0,0,0,0,0,0,0,0,0,0],"id":10,"left_children":[1,3,5,7,9,-1,-1,11,13,15,17,19,21,23,25,-1,27,29,31,33,35,-1,37,39,-1,41,43,-1,-1,45,47,49,51,-1,-1,-1,-1,-1,-1,-1,-1,-1,-1,-1,-1,-1,-1,-1,-1,-1,-1,-1,-1],"loss_changes":[1.1098569E2,2.3029875E1,7.042999E-1,4.329054E0,8.975666E0,0E0,0E0,2.1618137E0,2.888875E0,1.2976289E0,1.9299507E0,1.0690641E0,1.2113817E0,2.278119E0,1.8300583E0,0E0,9.735727E-2,1.241132E0,2.1789608E0,9.084439E-1,1.8985882E0,0E0,8.7114614E-1,9.303999E-1,0E0,1.5097885E0,7.920128E-1,0E0,0E0,3.6479354E-1,9.519172E-1,1.247776E0,1.5582058E0,0E0,0E0,0E0,0E0,0E0,0E0,0E0,0E0,0E0,0E0,0E0,0E0,0E0,0E0,0E0,0E0,0E0,0E0,0E0,0E0],"parents":[2147483647,0,0,1,1,2,2,3,3,4,4,7,7,8,8,9,9,10,10,11,11,12,12,13,13,14,14,16,16,17,17,18,18,19,19,20,20,22,22,23,23,25,25,26,26,29,29,30,30,31,31,32,32],"right_children":[2,4,6,8,10,-1,-1,12,14,16,18,20,22,24,26,-1,28,30,32,34,36,-1,38,40,-1,42,44,-1,-1,46,48,50,52,-1,-1,-1,-1,-1,-1,-1,-1,-1,-1,-1,-1,-1,-1,-1,-1,-1,-1,-1,-1],"split_conditions":[1.5004313E0,4E0,1.2510093E1,1.2614216E1,1.1726787E1,-2.5059342E-1,-9.539158E-2,1.2853156E1,2E0,1.3089232E1,1.2236423E1,1.2524364E1,1.1467133E1,6.8205774E-1,3E0,-8.4125854E-2,1.3178084E1,1.3441668E1,6E0,1.2822418E1,1.1726787E1,-3.9860513E-2,3.7001735E-1,1.28868065E1,-5.0742835E-2,1.2264646E1,1.3540968E1,-3.143085E-2,-9.652662E-3,2.8276527E-1,1.351803E1,1.3092442E1,1.3123085E1,-2.248933E-2,-2.5336563E-3,3.8397264E-2,-1.1185214E-2,1.1748322E-2,-3.379148E-3,-1.226834E-2,-2.0481995E-3,-2.7608483E-3,1.1257784E-2,-6.709372E-3,2.0068122E-2,-1.7456962E-2,4.758985E-3,-4.131136E-2,2.1924973E-3,1.2204409E-2,2.0210253E-2,-3.4341663E-3,9.823536E-3],"split_indices":[10,0,4,4,3,0,0,8,0,5,3,8,3,10,0,0,6,4,0,3,3,0,12,8,0,3,3,0,0,10,4,3,3,0,0,0,0,0,0,0,0,0,0,0,0,0,0,0,0,0,0,0,0],"split_type":[0,0,0,0,0,0,0,0,0,0,0,0,0,0,0,0,0,0,0,0,0,0,0,0,0,0,0,0,0,0,0,0,0,0,0,0,0,0,0,0,0,0,0,0,0,0,0,0,0,0,0,0,0],"sum_hessian":[8.97E2,8.92E2,5E0,5.03E2,3.89E2,3E0,2E0,2.72E2,2.31E2,6E0,3.83E2,2.15E2,5.7E1,9.4E1,1.37E2,1E0,5E0,3.3E1,3.5E2,4.5E1,1.7E2,1E0,5.6E1,9.2E1,2E0,9.5E1,4.2E1,3E0,2E0,2.9E1,4E0,2.24E2,1.26E2,3.8E1,7E0,1E0,1.69E2,1.1E1,4.5E1,3.7E1,5.5E1,2.6E1,6.9E1,4E1,2E0,1E0,2.8E1,2E0,2E0,1.43E2,8.1E1,2.8E1,9.8E1],"tree_param":{"num_deleted":"0","num_feature":"13","num_nodes":"53","size_leaf_vector":"1"}},{"base_weights":[1.359749E-2,-1.5009184E-1,3.0580098E-2,-1.3379866E-1,1.7087308E-1,-1.1076543E0,-1.1408562E-1,-1.3341291E-1,2.0585778E-1,-4.028384E-2,-1.4567305E0,-1.32416E-1,2.247853E-1,-3.8876925E-2,-3.1463706E-1,-7.859768E-2,2.3363306E-1,7.6797963E-3,-1.07010845E-2,-3.0543327E-2,-8.63473E-2,-3.3441228E-1,-1.1043253E-1,1.2292372E-1,3.7494493E-1,-3.4954944E-1,2.6740732E-2,-1.904557E-1,-3.353063E-2,-2.1772303E-2,-4.6065578E-1,8.503116E-2,2.60762E-1,-1.0183438E-2,-2.5629578E-2,-1.2142872E-2,-4.1736895E-3,1.2309388E-2,-1.488924E-5,2.433308E-2,1.3264974E-3,-7.5583304E-3,-2.0547463E-2,1.4802917E-2,-2.0851435E-3,-1.9725377E-2,3.4977165E-3,-9.747214E-3,1.8379035E-3,-3.6512136E-3,-2.696538E-2,-2.3384893E-3,1.1831215E-2,1.3449212E-2,-1.1471923E-2],"categories":[],"categories_nodes":[],"categories_segments":[],"categories_sizes":[],"default_left":[0,0,0,0,0,0,0,0,0,0,0,0,0,0,0,0,0,0,0,0,0,0,0,0,0,0,0,0,0,0,0,0,0,0,0,0,0,0,0,0,0,0,0,0,0,0,0,0,0,0,0,0,0,0,0],"id":11,"left_children":[1,-1,3,5,7,9,11,13,15,17,19,21,23,25,27,29,31,-1,-1,-1,-1,33,35,37,39,41,43,45,-1,47,49,51,53,-1,-1,-1,-1,-1,-1,-1,-1,-1,-1,-1,-1,-1,-1,-1,-1,-1,-1,-1,-1,-1,-1],"loss_changes":[4.5719852E1,0E0,2.0478134E1,7.7254753E0,5.1265907E0,2.9220667E0,2.5268412E0,8.4437823E-1,3.415718E0,1.3392562E-1,3.164587E-1,1.6593704E0,2.7511573E-1,7.024577E-1,6.237718E-1,8.3668363E-1,1.5581436E0,0E0,0E0,0E0,0E0,7.57545E-1,1.214951E0,2.1271625E-1,2.9847908E-1,1.0962188E-2,5.469054E-1,7.715175E-1,0E0,3.619195E-1,1.1305714E-1,1.2498343E0,1.3958187E0,0E0,0E0,0E0,0E0,0E0,0E0,0E0,0E0,0E0,0E0,0E0,0E0,0E0,0E0,0E0,0E0,0E0,0E0,0E0,0E0,0E0,0E0],"parents":[2147483647,0,0,2,2,3,3,4,4,5,5,6,6,7,7,8,8,9,9,10,10,11,11,12,12,13,13,14,14,15,15,16,16,21,21,22,22,23,23,24,24,25,25,26,26,27,27,29,29,30,30,31,31,32,32],"right_children":[2,-1,4,6,8,10,12,14,16,18,20,22,24,26,28,30,32,-1,-1,-1,-1,34,36,38,40,42,44,46,-1,48,50,52,54,-1,-1,-1,-1,-1,-1,-1,-1,-1,-1,-1,-1,-1,-1,-1,-1,-1,-1,-1,-1,-1,-1],"split_conditions":[8.669502E0,-1.5009184E-1,1.2795454E1,1.1467133E1,1.224494E1,1.2505181E1,1.3090256E1,9E0,2E0,2E0,1.2168212E1,1.1971704E1,4.3989998E-1,2E0,5E0,1.2980002E1,1.2786584E1,7.6797963E-3,-1.07010845E-2,-3.0543327E-2,-8.63473E-2,8E0,1.2524364E1,1.314751E1,1.2826266E1,5.009901E-1,1.2718676E1,1.2779692E1,-3.353063E-2,1.2872267E1,3E0,1.3023661E1,6.894781E-1,-1.0183438E-2,-2.5629578E-2,-1.2142872E-2,-4.1736895E-3,1.2309388E-2,-1.488924E-5,2.433308E-2,1.3264974E-3,-7.5583304E-3,-2.0547463E-2,1.4802917E-2,-2.0851435E-3,-1.9725377E-2,3.4977165E-3,-9.747214E-3,1.8379035E-3,-3.6512136E-3,-2.696538E-2,-2.3384893E-3,1.1831215E-2,1.3449212E-2,-1.1471923E-2],"split_indices":[3,0,4,3,3,5,7,1,0,0,4,6,11,0,0,5,5,0,0,0,0,1,8,7,5,10,5,6,0,8,1,6,10,0,0,0,0,0,0,0,0,0,0,0,0,0,0,0,0,0,0,0,0,0,0],"split_type":[0,0,0,0,0,0,0,0,0,0,0,0,0,0,0,0,0,0,0,0,0,0,0,0,0,0,0,0,0,0,0,0,0,0,0,0,0,0,0,0,0,0,0,0,0,0,0,0,0,0,0,0,0,0,0],"sum_hessian":[8.9E2,4E0,8.86E2,4.08E2,4.78E2,7E0,4.01E2,4.9E1,4.29E2,2E0,5E0,3.81E2,2E1,3.3E1,1.6E1,3.8E1,3.91E2,1E0,1E0,2E0,3E0,3.6E1,3.45E2,1.3E1,7E0,5E0,2.8E1,1.3E1,3E0,3.4E1,4E0,6.1E1,3.3E2,2.2E1,1.4E1,5.7E1,2.88E2,6E0,7E0,5E0,2E0,2E0,3E0,5E0,2.3E1,7E0,6E0,8E0,2.6E1,1E0,3E0,3.3E1,2.8E1,3.25E2,5E0],"tree_param":{"num_deleted":"0","num_feature":"13","num_nodes":"55","size_leaf_vector":"1"}},{"base_weights":[-6.380364E-3,2.0855486E-2,-4.036223E0,-1.3399084E-1,1.3964242E-1,-2.3731013E-1,-8.72088E-2,-1.9331224E-1,-8.581245E-3,-1.6684386E-1,1.7841215E-1,-3.6588567E-1,-1.6149049E-1,6.9884464E-2,-1.276775E-1,-7.4091834E-1,-1.095379E-1,-4.3326855E-2,2.1490404E-1,-4.095472E-1,2.1654319E-2,-1.942831E-1,3.320281E-2,-6.19636E-2,1.2827067E-1,2.0346387E-1,-1.689924E-1,-4.9926043E-2,-1.1817154E-2,-4.0489793E-2,-2.9899406E-1,1.554466E-1,-1.2448705E-1,2.2089916E-1,-1.9960468E-1,-6.257595E-3,-2.3112727E-2,3.7541676E-2,-1.7417444E-2,-1.6693052E-2,-7.871729E-3,7.420273E-3,-1.4524688E-2,2.4456812E-2,-5.3595626E-3,1.576492E-2,4.4007334E-3,1.4572366E-2,4.330516E-3,-1.0622758E-2,4.8649516E-3,-2.6934696E-4,-3.523753E-2,4.0861132E-4,-2.113389E-2,-1.1825442E-2,9.518065E-3,-1.0149822E-3,-1.1861167E-2,1.0356929E-2,2.3536189E-2,-1.269106E-2,1.7869473E-3],"categories":[],"categories_nodes":[],"categories_segments":[],"categories_sizes":[],"default_left":[0,0,0,0,0,0,0,0,0,0,0,0,0,0,0,0,0,0,0,0,0,0,0,0,0,0,0,0,0,0,0,0,0,0,0,0,0,0,0,0,0,0,0,0,0,0,0,0,0,0,0,0,0,0,0,0,0,0,0,0,0,0,0],"id":12,"left_children":[1,3,5,7,9,-1,-1,11,13,15,17,19,21,23,25,27,29,31,33,35,37,39,41,43,45,47,49,-1,-1,51,53,55,57,59,61,-1,-1,-1,-1,-1,-1,-1,-1,-1,-1,-1,-1,-1,-1,-1,-1,-1,-1,-1,-1,-1,-1,-1,-1,-1,-1,-1,-1],"loss_changes":[9.809646E1,1.6352333E1,1.4856186E0,2.8699775E0,6.006612E0,0E0,0E0,1.3797102E0,1.1770442E0,1.7940214E0,3.6262903E0,6.8569136E-1,1.4301944E0,5.9300435E-1,7.1843755E-1,4.1390586E-1,6.8121797E-1,1.0518306E0,9.983425E-1,4.8177814E-1,1.6105452E0,9.297981E-1,1.273704E0,6.5062994E-1,3.7128556E-1,3.644471E-2,5.4149103E-1,0E0,0E0,9.289015E-1,5.353348E-1,3.0503708E-1,5.3548664E-1,1.2053928E0,8.5628375E-2,0E0,0E0,0E0,0E0,0E0,0E0,0E0,0E0,0E0,0E0,0E0,0E0,0E0,0E0,0E0,0E0,0E0,0E0,0E0,0E0,0E0,0E0,0E0,0E0,0E0,0E0,0E0,0E0],"parents":[2147483647,0,0,1,1,2,2,3,3,4,4,7,7,8,8,9,9,10,10,11,11,12,12,13,13,14,14,15,15,16,16,17,17,18,18,19,19,20,20,21,21,22,22,23,23,24,24,25,25,26,26,29,29,30,30,31,31,32,32,33,33,34,34],"right_children":[2,4,6,8,10,-1,-1,12,14,16,18,20,22,24,26,28,30,32,34,36,38,40,42,44,46,48,50,-1,-1,52,54,56,58,60,62,-1,-1,-1,-1,-1,-1,-1,-1,-1,-1,-1,-1,-1,-1,-1,-1,-1,-1,-1,-1,-1,-1,-1,-1,-1,-1,-1,-1],"split_conditions":[1.5004313E0,1.276641E1,1.2510093E1,1.2979675E1,1.2236423E1,-2.3731013E-1,-8.72088E-2,1.2438903E1,4.9313366E-1,1.1467133E1,1.2645524E1,1.2524364E1,1.2923601E1,1.2795099E1,1.1721393E1,1.2446605E1,1.2824296E1,1.2709803E1,1.31775675E1,1.1973281E1,1.1726787E1,4.044107E-1,9E0,1.1653103E1,1.2832288E1,5.367672E-1,1.3348885E1,-4.9926043E-2,-1.1817154E-2,1.2231124E1,4.447605E-1,1.1310081E1,4.429422E-1,1.3217447E1,1.3053599E1,-6.257595E-3,-2.3112727E-2,3.7541676E-2,-1.7417444E-2,-1.6693052E-2,-7.871729E-3,7.420273E-3,-1.4524688E-2,2.4456812E-2,-5.3595626E-3,1.576492E-2,4.4007334E-3,1.4572366E-2,4.330516E-3,-1.0622758E-2,4.8649516E-3,-2.6934696E-4,-3.523753E-2,4.0861132E-4,-2.113389E-2,-1.1825442E-2,9.518065E-3,-1.0149822E-3,-1.1861167E-2,1.0356929E-2,2.3536189E-2,-1.269106E-2,1.7869473E-3],"split_indices":[10,4,4,3,3,0,0,7,12,3,5,8,5,8,5,7,7,9,9,8,3,12,1,5,8,11,3,0,0,3,10,5,11,7,3,0,0,0,0,0,0,0,0,0,0,0,0,0,0,0,0,0,0,0,0,0,0,0,0,0,0,0,0],"split_type":[0,0,0,0,0,0,0,0,0,0,0,0,0,0,0,0,0,0,0,0,0,0,0,0,0,0,0,0,0,0,0,0,0,0,0,0,0,0,0,0,0,0,0,0,0,0,0,0,0,0,0,0,0,0,0,0,0,0,0,0,0,0,0],"sum_hessian":[8.92E2,8.87E2,5E0,3.85E2,5.02E2,3E0,2E0,2.61E2,1.24E2,5.6E1,4.46E2,3.9E1,2.22E2,7.5E1,4.9E1,4E0,5.2E1,6.3E1,3.83E2,3.5E1,4E0,1.9E2,3.2E1,2.3E1,5.2E1,5E0,4.4E1,2E0,2E0,3.9E1,1.3E1,1.8E1,4.5E1,3.78E2,5E0,6E0,2.9E1,1E0,3E0,3.8E1,1.52E2,2.4E1,8E0,1E0,2.2E1,8E0,4.4E1,2E0,3E0,3.8E1,6E0,3.8E1,1E0,4E0,9E0,1E0,1.7E1,2.4E1,2.1E1,3.6E2,1.8E1,4E0,1E0],"tree_param":{"num_deleted":"0","num_feature":"13","num_nodes":"63","size_leaf_vector":"1"}},{"base_weights":[-4.8770877E-3,2.1134745E-2,-3.888498E0,-1.2513418E-1,1.377558E-1,-2.2841099E-1,-8.430184E-2,-8.266457E-1,-1.1591416E-1,-1.1146053E-1,1.6824825E-1,-4.4474285E-2,-6.666343E-2,-1.4831908E-1,4.4454917E-2,-6.0853805E-2,-5.146065E-1,-6.6391984E-3,2.1701469E-1,-1.1401176E-2,8.065606E-3,-1.9134602E-1,-5.110894E-2,-2.6322145E-3,1.9470966E-1,5.5236584E-3,-3.2691604E-1,-8.108998E-3,-3.2513738E-2,-9.722827E-2,1.7474012E-1,2.3686686E-1,5.3650856E-2,-1.1082743E-2,-3.191898E-3,-3.7687474E-3,5.3402088E-3,-8.417002E-3,5.3097904E-3,1.9602586E-2,1.8549633E-3,-4.176605E-3,9.162031E-3,-1.9926585E-2,7.940627E-3,-1.4813791E-2,-2.1407586E-3,1.3227962E-2,-1.9057943E-2,1.2053087E-2,-1.3638146E-2,4.4160727E-3,-1.959184E-2],"categories":[],"categories_nodes":[],"categories_segments":[],"categories_sizes":[],"default_left":[0,0,0,0,0,0,0,0,0,0,0,0,0,0,0,0,0,0,0,0,0,0,0,0,0,0,0,0,0,0,0,0,0,0,0,0,0,0,0,0,0,0,0,0,0,0,0,0,0,0,0,0,0],"id":13,"left_children":[1,3,5,7,9,-1,-1,11,13,15,17,19,-1,21,23,25,27,29,31,-1,-1,33,35,37,39,41,43,-1,-1,45,47,49,51,-1,-1,-1,-1,-1,-1,-1,-1,-1,-1,-1,-1,-1,-1,-1,-1,-1,-1,-1,-1],"loss_changes":[9.1101295E1,1.5301239E1,1.2801743E0,2.478427E0,3.8107615E0,0E0,0E0,1.9220333E0,2.0541115E0,1.0907886E0,3.7966843E0,1.5009877E-1,0E0,1.3621316E0,4.7454187E-1,8.8483256E-1,1.8141699E-1,1.627226E0,1.115902E0,0E0,0E0,8.631191E-1,3.9890626E-1,9.5562714E-1,4.8310572E-1,6.642019E-1,4.1114962E-1,0E0,0E0,7.021474E-1,1.7485408E0,7.284794E-1,6.3697517E-1,0E0,0E0,0E0,0E0,0E0,0E0,0E0,0E0,0E0,0E0,0E0,0E0,0E0,0E0,0E0,0E0,0E0,0E0,0E0,0E0],"parents":[2147483647,0,0,1,1,2,2,3,3,4,4,7,7,8,8,9,9,10,10,11,11,13,13,14,14,15,15,16,16,17,17,18,18,21,21,22,22,23,23,24,24,25,25,26,26,29,29,30,30,31,31,32,32],"right_children":[2,4,6,8,10,-1,-1,12,14,16,18,20,-1,22,24,26,28,30,32,-1,-1,34,36,38,40,42,44,-1,-1,46,48,50,52,-1,-1,-1,-1,-1,-1,-1,-1,-1,-1,-1,-1,-1,-1,-1,-1,-1,-1,-1,-1],"split_conditions":[1.2730744E0,1.2783882E1,1.2510093E1,1.1411285E1,1.224494E1,-2.2841099E-1,-8.430184E-2,1.266151E1,1.3150031E1,1.2E1,1.2786584E1,2E0,-6.666343E-2,1.2540027E1,1E0,5.8925897E-1,1.3177803E1,1.3023661E1,5.4986393E-1,-1.1401176E-2,8.065606E-3,1.2901889E1,1.2753511E1,1.2845418E1,4.686187E-1,5.1734704E-1,5.887821E-1,-8.108998E-3,-3.2513738E-2,3.9918706E-1,1.3294615E1,1.3196786E1,1.2E1,-1.1082743E-2,-3.191898E-3,-3.7687474E-3,5.3402088E-3,-8.417002E-3,5.3097904E-3,1.9602586E-2,1.8549633E-3,-4.176605E-3,9.162031E-3,-1.9926585E-2,7.940627E-3,-1.4813791E-2,-2.1407586E-3,1.3227962E-2,-1.9057943E-2,1.2053087E-2,-1.3638146E-2,4.4160727E-3,-1.959184E-2],"split_indices":[11,4,4,3,3,0,0,5,3,1,5,1,0,4,2,11,5,6,11,0,0,6,4,8,12,11,12,0,0,12,4,9,1,0,0,0,0,0,0,0,0,0,0,0,0,0,0,0,0,0,0,0,0],"split_type":[0,0,0,0,0,0,0,0,0,0,0,0,0,0,0,0,0,0,0,0,0,0,0,0,0,0,0,0,0,0,0,0,0,0,0,0,0,0,0,0,0,0,0,0,0,0,0,0,0,0,0,0,0],"sum_hessian":[9E2,8.95E2,5E0,3.97E2,4.98E2,3E0,2E0,4E0,3.93E2,5.4E1,4.44E2,2E0,2E0,3.27E2,6.6E1,4.9E1,5E0,9.7E1,3.47E2,1E0,1E0,2.26E2,1.01E2,5.1E1,1.5E1,4E1,9E0,2E0,3E0,6.5E1,3.2E1,3.09E2,3.8E1,1.82E2,4.4E1,8.8E1,1.3E1,2E1,3.1E1,6E0,9E0,2.7E1,1.3E1,8E0,1E0,1.3E1,5.2E1,2.8E1,4E0,3.07E2,2E0,3.6E1,2E0],"tree_param":{"num_deleted":"0","num_feature":"13","num_nodes":"53","size_leaf_vector":"1"}},{"base_weights":[-9.43826E-3,1.5877722E-2,-3.746192E0,-1.2186148E-1,1.466194E-1,-2.1984558E-1,-8.1491776E-2,-9.538108E-1,-1.0391477E-1,-1.214341E-1,1.7417309E-1,-3.5218096E-1,-8.089014E-2,-1.5923844E-1,3.3234907E-4,-3.929228E-2,-3.8857287E-1,-2.4344571E-2,2.0283587E-1,-2.4276448E-2,7.863975E-3,-1.8785965E-1,5.376884E-3,-1.1583948E-1,3.7339903E-2,-3.2816374E-1,4.7754534E-2,-2.7062083E-2,-2.4582317E-1,2.4380589E-1,-1.00379355E-1,1.8178333E-1,3.4663185E-1,-1.823007E-2,-8.017533E-3,5.9116143E-3,-3.4309991E-3,-1.5195659E-2,1.8383317E-4,-2.248653E-3,5.2887164E-3,4.892707E-3,-2.015013E-2,-7.89033E-3,4.518273E-3,6.5864087E-3,-1.6535155E-2,5.260833E-3,1.6388362E-2,-1.1529922E-3,-1.3554375E-2,9.51408E-3,-1.1087574E-2,-5.6135654E-3,1.9707061E-2],"categories":[],"categories_nodes":[],"categories_segments":[],"categories_sizes":[],"default_left":[0,0,0,0,0,0,0,0,0,0,0,0,0,0,0,0,0,0,0,0,0,0,0,0,0,0,0,0,0,0,0,0,0,0,0,0,0,0,0,0,0,0,0,0,0,0,0,0,0,0,0,0,0,0,0],"id":14,"left_children":[1,3,5,7,9,-1,-1,11,13,15,17,19,-1,21,23,25,27,29,31,-1,-1,33,35,37,39,41,43,-1,45,47,49,51,53,-1,-1,-1,-1,-1,-1,-1,-1,-1,-1,-1,-1,-1,-1,-1,-1,-1,-1,-1,-1,-1,-1],"loss_changes":[8.4347725E1,1.5973181E1,1.0966873E0,6.3509707E0,3.3817196E0,0E0,0E0,3.0255384E0,2.4454021E0,9.282926E-1,2.3549366E0,4.8397684E-1,0E0,1.3060927E0,6.4061224E-1,8.706129E-1,8.4884405E-2,1.1050774E0,1.0298319E0,0E0,0E0,1.0889645E0,3.5885283E-1,8.103198E-1,6.4129055E-1,2.9449695E-1,2.5075725E-1,0E0,2.6788864E-1,1.0514712E-1,5.481097E-1,1.1292982E0,1.0253501E0,0E0,0E0,0E0,0E0,0E0,0E0,0E0,0E0,0E0,0E0,0E0,0E0,0E0,0E0,0E0,0E0,0E0,0E0,0E0,0E0,0E0,0E0],"parents":[2147483647,0,0,1,1,2,2,3,3,4,4,7,7,8,8,9,9,10,10,11,11,13,13,14,14,15,15,16,16,17,17,18,18,21,21,22,22,23,23,24,24,25,25,26,26,28,28,29,29,30,30,31,31,32,32],"right_children":[2,4,6,8,10,-1,-1,12,14,16,18,20,-1,22,24,26,28,30,32,-1,-1,34,36,38,40,42,44,-1,46,48,50,52,54,-1,-1,-1,-1,-1,-1,-1,-1,-1,-1,-1,-1,-1,-1,-1,-1,-1,-1,-1,-1,-1,-1],"split_conditions":[1.2730744E0,1.2817042E1,1.2510093E1,1.1467133E1,1.2205474E1,-2.1984558E-1,-8.1491776E-2,1.2168212E1,1.255973E1,1.2824296E1,1.2645524E1,2E0,-8.089014E-2,1.3145237E1,3.793422E-1,1.2516508E1,4.1683993E-1,1.2511034E1,1.34739E1,-2.4276448E-2,7.863975E-3,1.1863932E1,1.2797991E1,1.2695392E1,1.2561E1,1.2496334E1,1.2178688E1,-2.7062083E-2,4.2145166E-1,4.8448244E-1,1.2526942E1,1.3282675E1,1.2102124E1,-1.823007E-2,-8.017533E-3,5.9116143E-3,-3.4309991E-3,-1.5195659E-2,1.8383317E-4,-2.248653E-3,5.2887164E-3,4.892707E-3,-2.015013E-2,-7.89033E-3,4.518273E-3,6.5864087E-3,-1.6535155E-2,5.260833E-3,1.6388362E-2,-1.1529922E-3,-1.3554375E-2,9.51408E-3,-1.1087574E-2,-5.6135654E-3,1.9707061E-2],"split_indices":[11,4,4,3,3,0,0,4,4,7,5,1,0,3,11,7,11,3,3,0,0,4,9,3,5,9,6,0,11,12,5,8,6,0,0,0,0,0,0,0,0,0,0,0,0,0,0,0,0,0,0,0,0,0,0],"split_type":[0,0,0,0,0,0,0,0,0,0,0,0,0,0,0,0,0,0,0,0,0,0,0,0,0,0,0,0,0,0,0,0,0,0,0,0,0,0,0,0,0,0,0,0,0,0,0,0,0,0,0,0,0,0,0],"sum_hessian":[8.9E2,8.85E2,5E0,4.31E2,4.54E2,3E0,2E0,8E0,4.23E2,4.2E1,4.12E2,5E0,3E0,2.76E2,1.47E2,3.3E1,9E0,5.2E1,3.6E2,4E0,1E0,2.35E2,4.1E1,3.5E1,1.12E2,7E0,2.6E1,3E0,6E0,1.1E1,4.1E1,3.16E2,4.4E1,3E1,2.05E2,1.6E1,2.5E1,1.3E1,2.2E1,5.1E1,6.1E1,1E0,6E0,4E0,2.2E1,1E0,5E0,5E0,6E0,2.9E1,1.2E1,3.1E2,6E0,4E0,4E1],"tree_param":{"num_deleted":"0","num_feature":"13","num_nodes":"55","size_leaf_vector":"1"}},{"base_weights":[-1.2060983E-2,1.1986151E-2,-1.8045527E-1,-1.0702952E-1,1.6658455E-1,-2.0927565E-1,-3.5441294E-2,-4.4566512E-1,1.8548037E-1,-1.8483736E-1,-5.950678E-1,-9.4881654E-2,2.0776343E-2,-1.0052603E0,9.765434E-2,1.1015989E-1,2.4924098E-1,-2.180573E-1,-2.9290438E-2,-3.471136E-1,-5.020989E-2,-2.0203505E-1,-1.4473154E-3,1.19684584E-1,-7.344619E-2,-2.4994374E-3,-1.1863168E0,2.2194996E-1,-7.1028234E-3,1.23296194E-1,-2.8258467E-1,2.3051718E-1,4.309541E-1,-1.5583226E-2,-8.097821E-3,1.0629855E-2,-1.2845273E-2,-1.0064102E-2,-2.3954129E-2,-2.1597338E-3,-1.3137235E-2,-3.4136549E-3,8.739777E-3,9.021178E-3,1.3861127E-4,-4.6307854E-3,1.569643E-2,-1.5999699E-2,-6.614496E-2,1.3502519E-2,4.9933116E-3,1.4454387E-4,8.313757E-3,7.364142E-3,-3.807732E-2,9.379196E-3,1.51761575E-2,2.5657177E-2,5.73164E-3],"categories":[],"categories_nodes":[],"categories_segments":[],"categories_sizes":[],"default_left":[0,0,0,0,0,0,0,0,0,0,0,0,0,0,0,0,0,0,0,0,0,0,0,0,0,0,0,0,0,0,0,0,0,0,0,0,0,0,0,0,0,0,0,0,0,0,0,0,0,0,0,0,0,0,0,0,0,0,0],"id":15,"left_children":[1,3,-1,5,7,9,11,13,15,17,19,21,23,25,27,29,31,33,35,37,-1,39,41,43,45,-1,47,49,-1,51,53,55,57,-1,-1,-1,-1,-1,-1,-1,-1,-1,-1,-1,-1,-1,-1,-1,-1,-1,-1,-1,-1,-1,-1,-1,-1,-1,-1],"loss_changes":[7.8151505E1,1.65407E1,0E0,3.710949E0,4.606125E0,1.8604832E0,1.0044502E0,3.7466357E0,1.7974863E0,1.0167303E0,8.6877537E-1,1.4614314E0,1.4532952E0,9.784465E-1,2.4009444E-1,9.4286275E-1,5.981407E-1,8.0550957E-1,2.0366778E0,7.6776505E-2,0E0,6.443844E-1,9.423617E-1,5.3918636E-1,6.231378E-1,0E0,1.6830206E-1,2.3924708E-3,0E0,8.8442636E-1,1.3475034E0,5.3232956E-1,4.0914583E-1,0E0,0E0,0E0,0E0,0E0,0E0,0E0,0E0,0E0,0E0,0E0,0E0,0E0,0E0,0E0,0E0,0E0,0E0,0E0,0E0,0E0,0E0,0E0,0E0,0E0,0E0],"parents":[2147483647,0,0,1,1,3,3,4,4,5,5,6,6,7,7,8,8,9,9,10,10,11,11,12,12,13,13,14,14,15,15,16,16,17,17,18,18,19,19,21,21,22,22,23,23,24,24,26,26,27,27,29,29,30,30,31,31,32,32],"right_children":[2,4,-1,6,8,10,12,14,16,18,20,22,24,26,28,30,32,34,36,38,-1,40,42,44,46,-1,48,50,-1,52,54,56,58,-1,-1,-1,-1,-1,-1,-1,-1,-1,-1,-1,-1,-1,-1,-1,-1,-1,-1,-1,-1,-1,-1,-1,-1,-1,-1],"split_conditions":[1.5004313E0,4E0,-1.8045527E-1,1.2763559E1,1.2268418E1,7.563241E-1,2E0,1.3064189E1,1.2787492E1,1.2914394E1,1.2686032E1,1.288303E1,3E0,1.1797689E1,1.3340067E1,1.2783813E1,1.3194496E1,4.3596965E-1,5.0352937E-1,1.2786584E1,-5.020989E-2,1.2142321E1,4.2300496E-1,1.3099482E1,1.3273347E1,-2.4994374E-3,5E0,1.1850478E1,-7.1028234E-3,1.2572242E1,1.2755011E1,1.3302601E1,4.1758433E-1,-1.5583226E-2,-8.097821E-3,1.0629855E-2,-1.2845273E-2,-1.0064102E-2,-2.3954129E-2,-2.1597338E-3,-1.3137235E-2,-3.4136549E-3,8.739777E-3,9.021178E-3,1.3861127E-4,-4.6307854E-3,1.569643E-2,-1.5999699E-2,-6.614496E-2,1.3502519E-2,4.9933116E-3,1.4454387E-4,8.313757E-3,7.364142E-3,-3.807732E-2,9.379196E-3,1.51761575E-2,2.5657177E-2,5.73164E-3],"split_indices":[10,0,0,7,7,10,0,6,7,6,9,8,0,7,5,7,7,10,12,5,0,5,10,5,7,0,0,5,0,7,8,6,10,0,0,0,0,0,0,0,0,0,0,0,0,0,0,0,0,0,0,0,0,0,0,0,0,0,0],"split_type":[0,0,0,0,0,0,0,0,0,0,0,0,0,0,0,0,0,0,0,0,0,0,0,0,0,0,0,0,0,0,0,0,0,0,0,0,0,0,0,0,0,0,0,0,0,0,0,0,0,0,0,0,0,0,0,0,0,0,0],"sum_hessian":[9.02E2,8.97E2,5E0,5.07E2,3.9E2,2.08E2,2.99E2,1.1E1,3.79E2,1.97E2,1.1E1,1.45E2,1.54E2,5E0,6E0,1.75E2,2.04E2,1.62E2,3.5E1,8E0,3E0,6.7E1,7.8E1,7.5E1,7.9E1,1E0,4E0,4E0,2E0,1.7E2,5E0,1.87E2,1.7E1,5.9E1,1.03E2,1.7E1,1.8E1,5E0,3E0,1.9E1,4.8E1,5.7E1,2.1E1,4.9E1,2.6E1,7.6E1,3E0,1E0,3E0,2E0,2E0,4.5E1,1.25E2,3E0,2E0,1.2E2,6.7E1,1.3E1,4E0],"tree_param":{"num_deleted":"0","num_feature":"13","num_nodes":"59","size_leaf_vector":"1"}},{"base_weights":[-1.5345648E-2,8.283641E-3,-3.458726E0,-9.878967E-2,1.499847E-1,-2.048343E-1,-7.276022E-2,-2.5563216E-1,-4.2840734E-2,-8.7268287E-1,1.6607615E-1,-6.0862625E-1,-2.2772501E-1,-9.508407E-2,5.168014E-2,-7.327342E-2,-4.610321E-1,2.1397215E-1,7.310274E-2,-1.4398026E-1,-4.0847626E-2,-3.086098E-1,-1.457933E-1,-1.8003942E-1,-8.615798E-3,1.01518715E-2,2.7070326E-1,-2.662375E-2,-4.3815137E-3,5.095491E-2,2.6773897E-1,-5.649257E-1,9.293483E-2,3.142953E-3,-1.1693987E-2,-1.6498445E-2,3.9124847E-3,-1.3370873E-2,-2.0426752E-3,-8.047543E-3,-2.3259524E-2,6.5658386E-3,-7.1909586E-3,-1.4855486E-2,1.6732797E-3,3.4134176E-3,1.950136E-2,5.865076E-3,-2.0577371E-2,1.1610845E-2,1.96927E-2,-3.603708E-2,-2.4369478E-3,-7.4208635E-3,6.1137034E-3],"categories":[],"categories_nodes":[],"categories_segments":[],"categories_sizes":[],"default_left":[0,0,0,0,0,0,0,0,0,0,0,0,0,0,0,0,0,0,0,0,0,0,0,0,0,0,0,0,0,0,0,0,0,0,0,0,0,0,0,0,0,0,0,0,0,0,0,0,0,0,0,0,0,0,0],"id":16,"left_children":[1,3,5,7,9,-1,-1,11,13,15,17,19,21,23,25,-1,27,29,31,33,-1,35,37,39,41,43,45,-1,-1,47,49,51,53,-1,-1,-1,-1,-1,-1,-1,-1,-1,-1,-1,-1,-1,-1,-1,-1,-1,-1,-1,-1,-1,-1],"loss_changes":[7.1629524E1,1.32906685E1,1.707489E0,4.3678584E0,6.348922E0,0E0,0E0,1.1518888E0,1.8270676E0,7.8849554E-1,1.6408949E0,7.535567E-1,7.701316E-1,1.746783E0,1.1978776E0,0E0,8.6723566E-2,2.1337633E0,1.6721411E0,8.908042E-2,0E0,5.29861E-1,7.931576E-1,5.783024E-1,2.270289E0,8.12245E-1,4.8063564E-1,0E0,0E0,1.9507738E0,7.3283577E-1,2.8659225E-1,9.0328336E-1,0E0,0E0,0E0,0E0,0E0,0E0,0E0,0E0,0E0,0E0,0E0,0E0,0E0,0E0,0E0,0E0,0E0,0E0,0E0,0E0,0E0,0E0],"parents":[2147483647,0,0,1,1,2,2,3,3,4,4,7,7,8,8,9,9,10,10,11,11,12,12,13,13,14,14,16,16,17,17,18,18,19,19,21,21,22,22,23,23,24,24,25,25,26,26,29,29,30,30,31,31,32,32],"right_children":[2,4,6,8,10,-1,-1,12,14,16,18,20,22,24,26,-1,28,30,32,34,-1,36,38,40,42,44,46,-1,-1,48,50,52,54,-1,-1,-1,-1,-1,-1,-1,-1,-1,-1,-1,-1,-1,-1,-1,-1,-1,-1,-1,-1,-1,-1],"split_conditions":[1.5004313E0,4E0,1.2510093E1,1.26783905E1,1.1726787E1,-2.048343E-1,-7.276022E-2,1.2157235E1,1.2939792E1,1.3089232E1,6E0,1.2120998E1,2E0,2E0,1.3004883E1,-7.327342E-2,1.3249999E1,1.2464902E1,1.2268418E1,3E0,-4.0847626E-2,6.483608E-1,4.4649172E-1,6.710862E-1,3E0,1.2335078E1,3.6938128E-1,-2.662375E-2,-4.3815137E-3,1.3441668E1,1.3455399E1,1.3053599E1,1.3003674E1,3.142953E-3,-1.1693987E-2,-1.6498445E-2,3.9124847E-3,-1.3370873E-2,-2.0426752E-3,-8.047543E-3,-2.3259524E-2,6.5658386E-3,-7.1909586E-3,-1.4855486E-2,1.6732797E-3,3.4134176E-3,1.950136E-2,5.865076E-3,-2.0577371E-2,1.1610845E-2,1.96927E-2,-3.603708E-2,-2.4369478E-3,-7.4208635E-3,6.1137034E-3],"split_indices":[10,0,4,7,3,0,0,7,8,5,0,4,0,0,6,0,4,3,7,0,0,10,10,10,0,3,10,0,0,4,4,3,3,0,0,0,0,0,0,0,0,0,0,0,0,0,0,0,0,0,0,0,0,0,0],"split_type":[0,0,0,0,0,0,0,0,0,0,0,0,0,0,0,0,0,0,0,0,0,0,0,0,0,0,0,0,0,0,0,0,0,0,0,0,0,0,0,0,0,0,0,0,0,0,0,0,0,0,0,0,0,0,0],"sum_hessian":[8.79E2,8.74E2,5E0,4.98E2,3.76E2,3E0,2E0,1.3E2,3.68E2,5E0,3.71E2,8E0,1.22E2,2.37E2,1.31E2,1E0,4E0,2.44E2,1.27E2,3E0,5E0,6E1,6.2E1,1.19E2,1.18E2,1.11E2,2E1,3E0,1E0,6.1E1,1.83E2,3E0,1.24E2,1E0,2E0,5.7E1,3E0,2.8E1,3.4E1,1.13E2,6E0,5.8E1,6E1,7E0,1.04E2,8E0,1.2E1,5.4E1,7E0,1.45E2,3.8E1,2E0,1E0,1.3E1,1.11E2],"tree_param":{"num_deleted":"0","num_feature":"13","num_nodes":"55","size_leaf_vector":"1"}},{"base_weights":[-1.4418991E-2,8.346994E-3,-3.3320556E0,-8.332644E-2,1.3137297E-1,-3.9224033E0,-7.1712E-2,-1.2901585E-1,3.5734843E-2,-7.623324E-1,1.4801581E-1,-5.8831193E-2,-2.2227275E-1,-1.18296064E-1,-5.89919E-1,7.06257E-2,-1.7714158E-1,-7.144158E-2,-4.1311058E-1,-6.980678E-2,1.675557E-1,-1.6595154E-1,-6.805839E-2,-6.276632E-1,-8.142734E-3,2.7333202E-2,2.6419953E-1,-2.5067592E-2,-9.043671E-2,-2.5625361E-2,-7.143911E-3,1.4620813E-3,-3.6773507E-2,2.1929611E-1,6.794952E-2,-1.49425985E-2,-6.259361E-3,2.3722367E-3,-8.759902E-3,-3.373866E-2,-8.625078E-3,-6.1282766E-4,1.0418373E-2,3.6507543E-2,9.054842E-3,-9.25895E-3,5.7060323E-3,1.5871134E-3,-2.1159578E-2,9.745818E-3,1.9407649E-2,6.0036004E-4,1.2698959E-2],"categories":[],"categories_nodes":[],"categories_segments":[],"categories_sizes":[],"default_left":[0,0,0,0,0,0,0,0,0,0,0,0,0,0,0,0,0,0,0,0,0,0,0,0,0,0,0,0,0,0,0,0,0,0,0,0,0,0,0,0,0,0,0,0,0,0,0,0,0,0,0,0,0],"id":17,"left_children":[1,3,5,7,9,11,-1,13,15,17,19,-1,-1,21,23,25,27,-1,29,31,33,35,37,39,-1,41,43,-1,45,-1,-1,47,-1,49,51,-1,-1,-1,-1,-1,-1,-1,-1,-1,-1,-1,-1,-1,-1,-1,-1,-1,-1],"loss_changes":[6.649357E1,9.879384E0,1.0965576E0,2.7354093E0,5.6756363E0,5.1411057E-1,0E0,1.7237182E0,1.0523523E0,1.0390267E0,1.5779905E0,0E0,0E0,8.410053E-1,2.6736021E-2,1.0067941E0,5.168715E-1,0E0,8.793497E-2,1.4717484E0,1.7270374E0,9.485903E-1,2.173931E0,3.3699036E-2,0E0,7.1926403E-1,7.196517E-1,0E0,3.5059667E-1,0E0,0E0,3.8633218E-1,0E0,8.3824635E-1,1.2145612E0,0E0,0E0,0E0,0E0,0E0,0E0,0E0,0E0,0E0,0E0,0E0,0E0,0E0,0E0,0E0,0E0,0E0,0E0],"parents":[2147483647,0,0,1,1,2,2,3,3,4,4,5,5,7,7,8,8,9,9,10,10,13,13,14,14,15,15,16,16,18,18,19,19,20,20,21,21,22,22,23,23,25,25,26,26,28,28,31,31,33,33,34,34],"right_children":[2,4,6,8,10,12,-1,14,16,18,20,-1,-1,22,24,26,28,-1,30,32,34,36,38,40,-1,42,44,-1,46,-1,-1,48,-1,50,52,-1,-1,-1,-1,-1,-1,-1,-1,-1,-1,-1,-1,-1,-1,-1,-1,-1,-1],"split_conditions":[1.5004313E0,4E0,1.2369749E1,1.2939792E1,1.1726787E1,1E0,-7.1712E-2,7.563241E-1,5.13586E-1,1.3089232E1,1.2236423E1,-5.8831193E-2,-2.2227275E-1,2E0,1.3540968E1,4.5193127E-1,4.3513623E-1,-7.144158E-2,1.3178084E1,1.2231124E1,6E0,1.2088614E1,3E0,1.3097029E1,-8.142734E-3,1.2950344E1,4.5382503E-1,-2.5067592E-2,1.2767007E1,-2.5625361E-2,-7.143911E-3,1.2E1,-3.6773507E-2,1.3380267E1,1.3478035E1,-1.49425985E-2,-6.259361E-3,2.3722367E-3,-8.759902E-3,-3.373866E-2,-8.625078E-3,-6.1282766E-4,1.0418373E-2,3.6507543E-2,9.054842E-3,-9.25895E-3,5.7060323E-3,1.5871134E-3,-2.1159578E-2,9.745818E-3,1.9407649E-2,6.0036004E-4,1.2698959E-2],"split_indices":[10,0,5,8,3,0,0,10,10,5,3,0,0,0,5,10,12,0,6,3,0,6,0,6,0,6,10,0,6,0,0,1,0,3,3,0,0,0,0,0,0,0,0,0,0,0,0,0,0,0,0,0,0],"split_type":[0,0,0,0,0,0,0,0,0,0,0,0,0,0,0,0,0,0,0,0,0,0,0,0,0,0,0,0,0,0,0,0,0,0,0,0,0,0,0,0,0,0,0,0,0,0,0,0,0,0,0,0,0],"sum_hessian":[8.79E2,8.74E2,5E0,5.01E2,3.73E2,3E0,2E0,3.62E2,1.39E2,6E0,3.67E2,1E0,2E0,3.55E2,7E0,1.2E2,1.9E1,1E0,5E0,3E1,3.37E2,1.81E2,1.74E2,6E0,1E0,9.9E1,2.1E1,3E0,1.6E1,3E0,2E0,2.8E1,2E0,2.21E2,1.16E2,4.1E1,1.4E2,8.4E1,9E1,5E0,1E0,8.2E1,1.7E1,2E0,1.9E1,1.1E1,5E0,2.7E1,1E0,1.95E2,2.6E1,9E1,2.6E1],"tree_param":{"num_deleted":"0","num_feature":"13","num_nodes":"53","size_leaf_vector":"1"}},{"base_weights":[-1.4700974E-2,6.688624E-3,-3.2242556E0,-9.2731975E-2,1.3660483E-1,-3.8139958E0,-6.8159156E-2,-8.098945E-2,-5.742764E-1,-7.39103E-1,1.5217198E-1,-2.1486366E-1,-5.910411E-2,-2.0746513E-1,-4.8851863E-2,-3.8757926E-1,-5.0258733E-2,-6.965554E-2,-3.9791664E-1,1.2037108E-1,2.8419507E-1,-3.057152E-1,-7.8404725E-2,-9.9522255E-2,1.3078369E-3,-2.6725293E-3,-4.187657E-1,-2.4664415E-2,-6.905779E-3,1.6298036E-1,3.8377814E-2,1.198101E-2,2.99579E-1,-1.8392442E-2,-4.4300626E-3,9.644064E-3,-9.144953E-3,-8.236803E-3,-2.2875667E-5,4.5774463E-3,-4.064181E-3,-2.2433866E-2,-4.486823E-3,4.5371153E-3,1.2536061E-2,-2.3662098E-2,3.3904153E-3,-3.670454E-4,9.3233585E-4,1.7977072E-2,9.538344E-3],"categories":[],"categories_nodes":[],"categories_segments":[],"categories_sizes":[],"default_left":[0,0,0,0,0,0,0,0,0,0,0,0,0,0,0,0,0,0,0,0,0,0,0,0,0,0,0,0,0,0,0,0,0,0,0,0,0,0,0,0,0,0,0,0,0,0,0,0,0,0,0],"id":18,"left_children":[1,3,5,7,9,11,-1,13,15,17,19,-1,-1,21,23,25,-1,-1,27,29,31,33,35,37,39,-1,41,-1,-1,43,45,47,49,-1,-1,-1,-1,-1,-1,-1,-1,-1,-1,-1,-1,-1,-1,-1,-1,-1,-1],"loss_changes":[6.2219444E1,1.1650297E1,1.3861237E0,2.8429642E0,5.442689E0,8.0451965E-3,0E0,2.0221763E0,5.757849E-1,1.0076277E0,1.5821953E0,0E0,0E0,1.2567301E0,1.0167749E0,8.181965E-2,0E0,0E0,8.0535114E-2,1.0837717E0,3.0630255E-1,7.3634243E-1,1.3109313E0,1.285542E0,1.5129763E0,0E0,4.831338E-2,0E0,0E0,1.2765856E0,1.6582698E0,7.808551E-4,3.881364E-1,0E0,0E0,0E0,0E0,0E0,0E0,0E0,0E0,0E0,0E0,0E0,0E0,0E0,0E0,0E0,0E0,0E0,0E0],"parents":[2147483647,0,0,1,1,2,2,3,3,4,4,5,5,7,7,8,8,9,9,10,10,13,13,14,14,15,15,18,18,19,19,20,20,21,21,22,22,23,23,24,24,26,26,29,29,30,30,31,31,32,32],"right_children":[2,4,6,8,10,12,-1,14,16,18,20,-1,-1,22,24,26,-1,-1,28,30,32,34,36,38,40,-1,42,-1,-1,44,46,48,50,-1,-1,-1,-1,-1,-1,-1,-1,-1,-1,-1,-1,-1,-1,-1,-1,-1,-1],"split_conditions":[1.5004313E0,4E0,1.2510093E1,7.563241E-1,1.1726787E1,4E0,-6.8159156E-2,1.2638645E1,1.2219205E1,1.3089232E1,1.2988519E1,-2.1486366E-1,-5.910411E-2,1.2449014E1,2E0,1.1937949E1,-5.0258733E-2,-6.965554E-2,1.3178084E1,6E0,1.2387767E1,5.814141E-1,1.2120998E1,1.2892761E1,3E0,-2.6725293E-3,1.2168212E1,-2.4664415E-2,-6.905779E-3,1.2822418E1,1.2361896E1,1.3335231E1,6E0,-1.8392442E-2,-4.4300626E-3,9.644064E-3,-9.144953E-3,-8.236803E-3,-2.2875667E-5,4.5774463E-3,-4.064181E-3,-2.2433866E-2,-4.486823E-3,4.5371153E-3,1.2536061E-2,-2.3662098E-2,3.3904153E-3,-3.670454E-4,9.3233585E-4,1.7977072E-2,9.538344E-3],"split_indices":[10,0,4,10,3,0,0,7,4,5,8,0,0,5,0,8,0,0,6,0,3,10,4,8,0,0,4,0,0,3,7,4,0,0,0,0,0,0,0,0,0,0,0,0,0,0,0,0,0,0,0],"split_type":[0,0,0,0,0,0,0,0,0,0,0,0,0,0,0,0,0,0,0,0,0,0,0,0,0,0,0,0,0,0,0,0,0,0,0,0,0,0,0,0,0,0,0,0,0,0,0,0,0,0,0],"sum_hessian":[9.05E2,9E2,5E0,5.1E2,3.9E2,3E0,2E0,4.99E2,1.1E1,6E0,3.84E2,2E0,1E0,1E2,3.99E2,9E0,2E0,1E0,5E0,3.11E2,7.3E1,5.6E1,4.4E1,1.98E2,2.01E2,1E0,8E0,3E0,2E0,2.04E2,1.07E2,4E0,6.9E1,4.3E1,1.3E1,1.2E1,3.2E1,1.19E2,7.9E1,9.6E1,1.05E2,7E0,1E0,1.13E2,9.1E1,5E0,1.02E2,1E0,3E0,4.3E1,2.6E1],"tree_param":{"num_deleted":"0","num_feature":"13","num_nodes":"51","size_leaf_vector":"1"}},{"base_weights":[-9.990259E-3,1.1178031E-2,-3.1200638E0,-1.0217021E-1,1.05886586E-1,-1.8458942E-1,-6.588718E-2,-7.515639E-1,-9.0433024E-2,-1.5287387E-1,1.3760784E-1,9.345372E-3,-1.0577967E0,-1.3278951E-1,2.3747144E-2,-5.415377E-2,-2.895179E-1,-1.1151326E-1,1.6351107E-1,8.549499E-3,-7.848597E-3,-2.2424126E-2,-6.5725595E-2,-3.130636E-1,-1.0912479E-1,-5.1739006E-3,1.7886414E-1,-3.42732E-1,2.5623212E-2,-1.1973063E-1,-5.7167935E-1,-2.6648733E-1,-3.819683E-2,1.9341974E-1,7.968998E-2,-7.832289E-4,-1.9626504E-2,-7.447244E-3,-2.0395822E-3,1.1412836E-2,-1.3541485E-3,-1.47897E-3,1.1282171E-2,-4.068756E-3,-1.8636448E-2,-3.251648E-3,7.757867E-3,-2.2401841E-2,-1.7378808E-3,-3.6709547E-2,-2.8048197E-3,9.047159E-3,-1.8214388E-2,6.87871E-3,-6.2086247E-3,3.976894E-3,1.11334305E-2,1.0619783E-3,1.18791275E-2],"categories":[],"categories_nodes":[],"categories_segments":[],"categories_sizes":[],"default_left":[0,0,0,0,0,0,0,0,0,0,0,0,0,0,0,0,0,0,0,0,0,0,0,0,0,0,0,0,0,0,0,0,0,0,0,0,0,0,0,0,0,0,0,0,0,0,0,0,0,0,0,0,0,0,0,0,0,0,0],"id":19,"left_children":[1,3,5,7,9,-1,-1,11,13,15,17,19,21,23,25,27,29,31,33,-1,-1,-1,-1,35,37,39,41,43,45,47,49,51,53,55,57,-1,-1,-1,-1,-1,-1,-1,-1,-1,-1,-1,-1,-1,-1,-1,-1,-1,-1,-1,-1,-1,-1,-1,-1],"loss_changes":[5.843047E1,9.47913E0,1.3177452E0,2.9961E0,3.969184E0,0E0,0E0,1.6409926E0,1.9183168E0,6.992657E-1,2.7865887E0,1.0749352E-1,1.9256592E-1,1.19875E0,4.854291E-1,7.4548274E-1,9.8551583E-1,4.5566905E-1,9.598007E-1,0E0,0E0,0E0,0E0,7.7374864E-1,6.932297E-1,4.7669262E-1,1.7243874E-1,2.454853E-2,3.1541017E-1,4.0288478E-1,6.291201E-1,6.3478076E-1,4.5533183E-1,9.349308E-1,9.54758E-1,0E0,0E0,0E0,0E0,0E0,0E0,0E0,0E0,0E0,0E0,0E0,0E0,0E0,0E0,0E0,0E0,0E0,0E0,0E0,0E0,0E0,0E0,0E0,0E0],"parents":[2147483647,0,0,1,1,2,2,3,3,4,4,7,7,8,8,9,9,10,10,11,11,12,12,13,13,14,14,15,15,16,16,17,17,18,18,23,23,24,24,25,25,26,26,27,27,28,28,29,29,30,30,31,31,32,32,33,33,34,34],"right_children":[2,4,6,8,10,-1,-1,12,14,16,18,20,22,24,26,28,30,32,34,-1,-1,-1,-1,36,38,40,42,44,46,48,50,52,54,56,58,-1,-1,-1,-1,-1,-1,-1,-1,-1,-1,-1,-1,-1,-1,-1,-1,-1,-1,-1,-1,-1,-1,-1,-1],"split_conditions":[1.5004313E0,1.2783882E1,1.2510093E1,1.1467133E1,1.2236423E1,-1.8458942E-1,-6.588718E-2,1.2505181E1,1.304813E1,1.3123085E1,2E0,2E0,3E0,1.1972054E1,1.3090256E1,1.2359386E1,1E1,1.2872267E1,6E0,8.549499E-3,-7.848597E-3,-2.2424126E-2,-6.5725595E-2,1.153864E1,1.2749205E1,1.1750692E1,3.1940466E-1,1.19740095E1,3E0,1.2617759E1,1.3540968E1,1.2387767E1,1.2903892E1,1.2798108E1,1.3478035E1,-7.832289E-4,-1.9626504E-2,-7.447244E-3,-2.0395822E-3,1.1412836E-2,-1.3541485E-3,-1.47897E-3,1.1282171E-2,-4.068756E-3,-1.8636448E-2,-3.251648E-3,7.757867E-3,-2.2401841E-2,-1.7378808E-3,-3.6709547E-2,-2.8048197E-3,9.047159E-3,-1.8214388E-2,6.87871E-3,-6.2086247E-3,3.976894E-3,1.11334305E-2,1.0619783E-3,1.18791275E-2],"split_indices":[10,4,4,3,3,0,0,5,3,4,0,0,0,4,7,6,1,8,0,0,0,0,0,4,6,5,10,5,0,5,4,3,9,6,3,0,0,0,0,0,0,0,0,0,0,0,0,0,0,0,0,0,0,0,0,0,0,0,0],"split_type":[0,0,0,0,0,0,0,0,0,0,0,0,0,0,0,0,0,0,0,0,0,0,0,0,0,0,0,0,0,0,0,0,0,0,0,0,0,0,0,0,0,0,0,0,0,0,0,0,0,0,0,0,0,0,0,0,0,0,0],"sum_hessian":[8.86E2,8.81E2,5E0,4.01E2,4.8E2,3E0,2E0,6E0,3.95E2,5.2E1,4.28E2,2E0,4E0,2.88E2,1.07E2,3.1E1,2.1E1,4E1,3.88E2,1E0,1E0,2E0,2E0,3.2E1,2.56E2,9.1E1,1.6E1,6E0,2.5E1,1.4E1,7E0,1.2E1,2.8E1,2.85E2,1.03E2,7E0,2.5E1,1.61E2,9.5E1,7E0,8.4E1,3E0,1.3E1,1E0,5E0,1.5E1,1E1,2E0,1.2E1,5E0,2E0,2E0,1E1,9E0,1.9E1,5.9E1,2.26E2,7.6E1,2.7E1],"tree_param":{"num_deleted":"0","num_feature":"13","num_nodes":"59","size_leaf_vector":"1"}},{"base_weights":[-4.3982168E-4,1.7143173E-2,-3.1828737E0,-7.036281E-2,1.3287635E-1,-2.0154856E-1,-6.369093E-2,-5.963702E-2,-5.158759E-1,-1.2033073E-1,1.5817939E-1,-1.5446913E-1,-2.138136E-2,-2.5548518E-1,-4.1466292E-2,-6.68972E-2,-3.4290027E-2,2.0179635E-1,8.113622E-2,-2.0034578E-2,-2.3169737E-1,-1.5091553E-1,6.5098098E-3,-2.922768E-1,5.1403047E-5,-3.0197653E-1,1.7049385E-2,1.644153E-1,3.2371724E-1,3.8796443E-2,2.2725762E-1,2.9555613E-3,-1.2519384E-2,-1.2508066E-2,3.732316E-3,-2.1149749E-2,-5.5040657E-3,1.530078E-3,-5.5384934E-3,-1.618743E-2,-2.5861503E-3,1.3181806E-3,-2.3527026E-2,4.9660844E-3,-7.469479E-3,1.1386167E-2,6.8270424E-3,2.0102479E-2,7.6710037E-3,2.6052748E-3,-2.0888535E-2,1.283171E-2,-5.64421E-3],"categories":[],"categories_nodes":[],"categories_segments":[],"categories_sizes":[],"default_left":[0,0,0,0,0,0,0,0,0,0,0,0,0,0,0,0,0,0,0,0,0,0,0,0,0,0,0,0,0,0,0,0,0,0,0,0,0,0,0,0,0,0,0,0,0,0,0,0,0,0,0,0,0],"id":20,"left_children":[1,3,5,7,9,-1,-1,11,13,15,17,19,21,23,-1,25,-1,27,29,31,33,35,37,39,-1,41,43,45,47,49,51,-1,-1,-1,-1,-1,-1,-1,-1,-1,-1,-1,-1,-1,-1,-1,-1,-1,-1,-1,-1,-1,-1],"loss_changes":[5.0919224E1,9.174596E0,2.960598E0,2.4349282E0,2.5177274E0,0E0,0E0,1.8287693E0,7.675531E-1,1.0418638E0,1.1765661E0,1.5007687E0,1.3052247E0,7.580078E-2,0E0,6.761082E-1,0E0,9.7677803E-1,7.9546034E-1,9.993006E-1,5.390544E-1,6.6448617E-1,8.4538054E-1,3.624934E-2,0E0,5.105221E-1,3.7086385E-1,2.7772522E-1,6.319852E-1,6.415686E-1,3.1874382E-1,0E0,0E0,0E0,0E0,0E0,0E0,0E0,0E0,0E0,0E0,0E0,0E0,0E0,0E0,0E0,0E0,0E0,0E0,0E0,0E0,0E0,0E0],"parents":[2147483647,0,0,1,1,2,2,3,3,4,4,7,7,8,8,9,9,10,10,11,11,12,12,13,13,15,15,17,17,18,18,19,19,20,20,21,21,22,22,23,23,25,25,26,26,27,27,28,28,29,29,30,30],"right_children":[2,4,6,8,10,-1,-1,12,14,16,18,20,22,24,-1,26,-1,28,30,32,34,36,38,40,-1,42,44,46,48,50,52,-1,-1,-1,-1,-1,-1,-1,-1,-1,-1,-1,-1,-1,-1,-1,-1,-1,-1,-1,-1,-1,-1],"split_conditions":[1.5004313E0,4E0,1.2510093E1,7.563241E-1,1.2236423E1,-2.0154856E-1,-6.369093E-2,1.2330389E1,1.2786584E1,1.2231124E1,6E0,6E0,1.2264646E1,1.3130858E1,-4.1466292E-2,1.1860079E1,-3.4290027E-2,1.3441668E1,1.3478035E1,1.2248532E1,1.3104777E1,3.9838895E-1,5.181372E-1,1.2526942E1,5.1403047E-5,1.3177803E1,1.2205474E1,3.8252625E-1,4.932622E-1,8.175084E-1,1.3364596E1,2.9555613E-3,-1.2519384E-2,-1.2508066E-2,3.732316E-3,-2.1149749E-2,-5.5040657E-3,1.530078E-3,-5.5384934E-3,-1.618743E-2,-2.5861503E-3,1.3181806E-3,-2.3527026E-2,4.9660844E-3,-7.469479E-3,1.1386167E-2,6.8270424E-3,2.0102479E-2,7.6710037E-3,2.6052748E-3,-2.0888535E-2,1.283171E-2,-5.64421E-3],"split_indices":[10,0,4,10,3,0,0,4,5,3,0,1,3,3,0,3,0,4,3,4,3,10,11,5,0,5,3,10,11,10,6,0,0,0,0,0,0,0,0,0,0,0,0,0,0,0,0,0,0,0,0,0,0],"split_type":[0,0,0,0,0,0,0,0,0,0,0,0,0,0,0,0,0,0,0,0,0,0,0,0,0,0,0,0,0,0,0,0,0,0,0,0,0,0,0,0,0,0,0,0,0,0,0,0,0,0,0,0,0],"sum_hessian":[9.08E2,9.04E2,4E0,5.15E2,3.89E2,2E0,2E0,5.04E2,1.1E1,3.5E1,3.54E2,1.44E2,3.6E2,7E0,4E0,3.3E1,2E0,2.25E2,1.29E2,5.3E1,9.1E1,6.3E1,2.97E2,6E0,1E0,8E0,2.5E1,1.74E2,5.1E1,1.01E2,2.8E1,4E1,1.3E1,8.6E1,5E0,7E0,5.6E1,2.47E2,5E1,5E0,1E0,3E0,5E0,1.7E1,8E0,5.1E1,1.23E2,3.4E1,1.7E1,9.9E1,2E0,2.6E1,2E0],"tree_param":{"num_deleted":"0","num_feature":"13","num_nodes":"53","size_leaf_vector":"1"}},{"base_weights":[-6.91578E-3,1.2356802E-2,-2.883802E0,-7.420506E-2,1.23335995E-1,-3.4466238E0,-5.860529E-2,-1.9938558E-1,-3.1060135E-2,-6.776549E-1,1.375055E-1,-5.241697E-2,-1.9483027E-1,-4.94024E-1,-1.7047457E-1,-4.804464E-2,1.1693531E-1,-6.630397E-2,-3.4857097E-1,1.7204337E-1,6.790339E-2,-1.4993589E-1,-3.778874E-2,5.0813533E-2,-2.1302746E-1,2.7046071E-2,-7.337964E-2,1.7370933E-1,-1.24777675E-1,-2.1694137E-2,-5.931584E-3,5.654841E-2,2.0751871E-1,-3.7098852E-1,8.842698E-2,-1.0316229E-2,-3.5080195E-3,2.41606E-2,-2.6958156E-3,-1.1147301E-2,9.099404E-3,2.7713913E-3,-8.57524E-3,-7.0669054E-4,-6.093404E-3,3.4268596E-3,1.8413093E-2,8.667088E-3,-9.606464E-3,1.3675595E-2,9.670319E-4,8.496922E-3,1.3663619E-2,-2.2106258E-2,-3.8263798E-4,2.5118636E-3,1.1259042E-2],"categories":[],"categories_nodes":[],"categories_segments":[],"categories_sizes":[],"default_left":[0,0,0,0,0,0,0,0,0,0,0,0,0,0,0,0,0,0,0,0,0,0,0,0,0,0,0,0,0,0,0,0,0,0,0,0,0,0,0,0,0,0,0,0,0,0,0,0,0,0,0,0,0,0,0,0,0],"id":21,"left_children":[1,3,5,7,9,11,-1,13,15,17,19,-1,-1,21,23,25,27,-1,29,31,33,35,-1,37,39,41,43,45,47,-1,-1,49,51,53,55,-1,-1,-1,-1,-1,-1,-1,-1,-1,-1,-1,-1,-1,-1,-1,-1,-1,-1,-1,-1,-1,-1],"loss_changes":[4.99916E1,8.616635E0,1.7404709E0,2.7158625E0,4.553594E0,2.3176956E-1,0E0,1.0146408E0,9.5074284E-1,1.0314696E0,9.1862965E-1,0E0,0E0,8.774009E-1,1.1313818E0,6.4500374E-1,5.568727E-1,0E0,6.62269E-2,1.0453486E0,1.203798E0,1.25148E-2,0E0,9.317535E-1,4.323721E-1,4.941353E-1,7.2508013E-1,6.2952846E-1,1.9393459E-1,0E0,0E0,4.9521917E-1,4.403553E-1,1.5169531E-1,6.4151126E-1,0E0,0E0,0E0,0E0,0E0,0E0,0E0,0E0,0E0,0E0,0E0,0E0,0E0,0E0,0E0,0E0,0E0,0E0,0E0,0E0,0E0,0E0],"parents":[2147483647,0,0,1,1,2,2,3,3,4,4,5,5,7,7,8,8,9,9,10,10,13,13,14,14,15,15,16,16,18,18,19,19,20,20,21,21,23,23,24,24,25,25,26,26,27,27,28,28,31,31,32,32,33,33,34,34],"right_children":[2,4,6,8,10,12,-1,14,16,18,20,-1,-1,22,24,26,28,-1,30,32,34,36,-1,38,40,42,44,46,48,-1,-1,50,52,54,56,-1,-1,-1,-1,-1,-1,-1,-1,-1,-1,-1,-1,-1,-1,-1,-1,-1,-1,-1,-1,-1,-1],"split_conditions":[1.2730744E0,4E0,1.224707E1,1.2675106E1,1.1726787E1,1E0,-5.860529E-2,1.2157235E1,1.314751E1,1.2706787E1,6E0,-5.241697E-2,-1.9483027E-1,1.2119383E1,1.1939593E1,4E0,1.3302601E1,-6.630397E-2,1.3178084E1,1.239878E1,1.2801071E1,1.1467133E1,-3.778874E-2,1.2285751E1,1.2840124E1,1.3096924E1,4.5038363E-1,1.3273347E1,3E0,-2.1694137E-2,-5.931584E-3,1.2437985E1,1.33187065E1,1.3371877E1,1.3478035E1,-1.0316229E-2,-3.5080195E-3,2.41606E-2,-2.6958156E-3,-1.1147301E-2,9.099404E-3,2.7713913E-3,-8.57524E-3,-7.0669054E-4,-6.093404E-3,3.4268596E-3,1.8413093E-2,8.667088E-3,-9.606464E-3,1.3675595E-2,9.670319E-4,8.496922E-3,1.3663619E-2,-2.2106258E-2,-3.8263798E-4,2.5118636E-3,1.1259042E-2],"split_indices":[11,0,6,7,3,0,0,7,7,6,0,0,0,8,3,1,4,0,6,3,3,3,0,7,4,4,12,7,1,0,0,8,6,6,3,0,0,0,0,0,0,0,0,0,0,0,0,0,0,0,0,0,0,0,0,0,0],"split_type":[0,0,0,0,0,0,0,0,0,0,0,0,0,0,0,0,0,0,0,0,0,0,0,0,0,0,0,0,0,0,0,0,0,0,0,0,0,0,0,0,0,0,0,0,0,0,0,0,0,0,0,0,0,0,0,0,0],"sum_hessian":[9E2,8.95E2,5E0,5.03E2,3.92E2,3E0,2E0,1.28E2,3.75E2,6E0,3.86E2,1E0,2E0,1E1,1.18E2,3.37E2,3.8E1,1E0,5E0,2.57E2,1.29E2,5E0,5E0,1.9E1,9.9E1,8.5E1,2.52E2,3.1E1,7E0,3E0,2E0,6.1E1,1.96E2,5E0,1.24E2,2E0,3E0,3E0,1.6E1,9.7E1,2E0,7.5E1,1E1,1.14E2,1.38E2,2.1E1,1E1,1E0,6E0,8E0,5.3E1,1.27E2,6.9E1,4E0,1E0,9.8E1,2.6E1],"tree_param":{"num_deleted":"0","num_feature":"13","num_nodes":"57","size_leaf_vector":"1"}},{"base_weights":[-1.3107271E-2,5.6320415E-3,-2.7905874E0,-7.601808E-2,1.12439506E-1,-3.3361044E0,-5.6651782E-2,-6.7377485E-2,-4.9698973E-1,-8.5126054E-1,1.2475903E-1,-5.110655E-2,-1.8833593E-1,-9.768924E-2,2.9473104E-2,-2.2940895E-1,-4.2050432E-2,-6.464636E-2,-2.0880604E-2,1.0022899E-1,2.272187E-1,-1.6296993E-1,-3.2922447E-2,-2.2293043E-1,5.2150942E-2,-2.698358E-1,3.2880306E-4,1.3216543E-1,3.5699442E-2,7.7514924E-2,2.5836262E-1,-1.1257298E-2,-3.3144709E-3,3.3987183E-3,-6.4682537E-3,-1.943003E-2,-4.820728E-3,2.1734469E-2,1.2950856E-3,-2.4338008E-3,-1.5216628E-2,7.290695E-3,-6.214064E-3,-6.533909E-3,5.088725E-3,-1.1236191E-4,1.1076813E-2,-3.319931E-4,1.3870497E-2],"categories":[],"categories_nodes":[],"categories_segments":[],"categories_sizes":[],"default_left":[0,0,0,0,0,0,0,0,0,0,0,0,0,0,0,0,0,0,0,0,0,0,0,0,0,0,0,0,0,0,0,0,0,0,0,0,0,0,0,0,0,0,0,0,0,0,0,0,0],"id":22,"left_children":[1,3,5,7,9,11,-1,13,15,17,19,-1,-1,21,23,25,-1,-1,-1,27,29,31,33,35,37,39,-1,41,43,45,47,-1,-1,-1,-1,-1,-1,-1,-1,-1,-1,-1,-1,-1,-1,-1,-1,-1,-1],"loss_changes":[4.659874E1,7.7700973E0,1.6454086E0,1.8034239E0,4.6889234E0,1.3563919E-1,0E0,1.458992E0,7.2759366E-1,4.1769838E-1,9.373226E-1,0E0,0E0,1.5928268E0,6.9277805E-1,6.8555355E-2,0E0,0E0,0E0,6.341436E-1,3.2032514E-1,1.1151829E0,1.8673674E0,1.7213231E-1,1.0932882E0,3.096208E-2,0E0,7.426436E-1,1.1566143E0,1.6132218E-1,3.0469656E-1,0E0,0E0,0E0,0E0,0E0,0E0,0E0,0E0,0E0,0E0,0E0,0E0,0E0,0E0,0E0,0E0,0E0,0E0],"parents":[2147483647,0,0,1,1,2,2,3,3,4,4,5,5,7,7,8,8,9,9,10,10,13,13,14,14,15,15,19,19,20,20,21,21,22,22,23,23,24,24,25,25,27,27,28,28,29,29,30,30],"right_children":[2,4,6,8,10,12,-1,14,16,18,20,-1,-1,22,24,26,-1,-1,-1,28,30,32,34,36,38,40,-1,42,44,46,48,-1,-1,-1,-1,-1,-1,-1,-1,-1,-1,-1,-1,-1,-1,-1,-1,-1,-1],"split_conditions":[1.5004313E0,4E0,1.224707E1,7.563241E-1,1.1726787E1,1E0,-5.6651782E-2,1.2959679E1,1.2686032E1,1.2706787E1,1.2988519E1,-5.110655E-2,-1.8833593E-1,2E0,1.2335078E1,2E0,-4.2050432E-2,-6.464636E-2,-2.0880604E-2,6E0,3.4654996E-1,1.2838446E1,3E0,3.9820698E-1,1.2455528E1,1.1937949E1,3.2880306E-4,1.2954052E1,1.3123085E1,1.3329471E1,1.2387767E1,-1.1257298E-2,-3.3144709E-3,3.3987183E-3,-6.4682537E-3,-1.943003E-2,-4.820728E-3,2.1734469E-2,1.2950856E-3,-2.4338008E-3,-1.5216628E-2,7.290695E-3,-6.214064E-3,-6.533909E-3,5.088725E-3,-1.1236191E-4,1.1076813E-2,-3.319931E-4,1.3870497E-2],"split_indices":[10,0,6,10,3,0,0,8,9,6,8,0,0,0,3,0,0,0,0,0,11,3,0,11,3,8,0,8,3,4,3,0,0,0,0,0,0,0,0,0,0,0,0,0,0,0,0,0,0],"split_type":[0,0,0,0,0,0,0,0,0,0,0,0,0,0,0,0,0,0,0,0,0,0,0,0,0,0,0,0,0,0,0,0,0,0,0,0,0,0,0,0,0,0,0,0,0,0,0,0,0],"sum_hessian":[8.94E2,8.89E2,5E0,5.04E2,3.85E2,3E0,2E0,4.95E2,9E0,4E0,3.81E2,1E0,2E0,3.77E2,1.18E2,6E0,3E0,1E0,3E0,3.09E2,7.2E1,1.87E2,1.9E2,9E0,1.09E2,5E0,1E0,2.06E2,1.03E2,1.3E1,5.9E1,1.13E2,7.4E1,9.3E1,9.7E1,3E0,6E0,6E0,1.03E2,1E0,4E0,1.96E2,1E1,2.9E1,7.4E1,9E0,4E0,4E0,5.5E1],"tree_param":{"num_deleted":"0","num_feature":"13","num_nodes":"49","size_leaf_vector":"1"}},{"base_weights":[-1.3546E-2,4.5828894E-3,-2.700407E0,-6.851467E-2,1.0377459E-1,-3.2291598E0,-5.4763388E-2,-1.12765014E-1,1.9103143E-2,-8.474374E-1,1.1364412E-1,-4.9828887E-2,-1.8205807E-1,-3.0051368E-1,-9.234925E-2,5.1295606E-4,2.014873E-1,-3.2132627E-3,-5.435365E-2,5.756416E-2,1.6456631E-1,-4.099756E-1,-1.8651898E-1,-8.1534654E-2,-3.5321593E-1,1.3982317E-2,-3.4304127E-1,-1.555001E-2,2.969141E-1,7.39082E-2,-3.0307126E-1,2.3670349E-1,1.2612203E-1,-2.4859954E-2,-5.932207E-3,8.1635313E-4,-1.3289632E-2,-6.3120746E-3,-1.7062938E-3,-1.9324612E-2,3.2057762E-4,2.6623039E-3,-3.1651973E-3,-1.3528188E-3,-2.471348E-2,1.824901E-2,1.7751933E-3,6.3929954E-3,-1.3623362E-3,4.430664E-3,-2.7790232E-2,-1.5517712E-3,1.2486934E-2,1.128869E-2,4.2777834E-3],"categories":[],"categories_nodes":[],"categories_segments":[],"categories_sizes":[],"default_left":[0,0,0,0,0,0,0,0,0,0,0,0,0,0,0,0,0,0,0,0,0,0,0,0,0,0,0,0,0,0,0,0,0,0,0,0,0,0,0,0,0,0,0,0,0,0,0,0,0,0,0,0,0,0,0],"id":23,"left_children":[1,3,5,7,9,11,-1,13,15,17,19,-1,-1,21,23,25,27,-1,-1,29,31,33,35,37,39,41,43,-1,45,47,49,51,53,-1,-1,-1,-1,-1,-1,-1,-1,-1,-1,-1,-1,-1,-1,-1,-1,-1,-1,-1,-1,-1,-1],"loss_changes":[4.3607655E1,6.4602075E0,1.5555344E0,1.9911158E0,3.6449757E0,5.060959E-2,0E0,1.2793117E0,5.8646274E-1,6.8084264E-1,1.06142E0,0E0,0E0,3.353083E-1,8.429415E-1,7.3593456E-1,8.7482107E-1,0E0,0E0,1.0833627E0,5.1370525E-1,3.475852E-1,2.937858E-1,6.273018E-1,1.4608288E-1,4.6765673E-1,2.7334213E-1,0E0,2.3614621E-1,9.47628E-1,8.411858E-1,2.4158263E-1,5.062101E-1,0E0,0E0,0E0,0E0,0E0,0E0,0E0,0E0,0E0,0E0,0E0,0E0,0E0,0E0,0E0,0E0,0E0,0E0,0E0,0E0,0E0,0E0],"parents":[2147483647,0,0,1,1,2,2,3,3,4,4,5,5,7,7,8,8,9,9,10,10,13,13,14,14,15,15,16,16,19,19,20,20,21,21,22,22,23,23,24,24,25,25,26,26,28,28,29,29,30,30,31,31,32,32],"right_children":[2,4,6,8,10,12,-1,14,16,18,20,-1,-1,22,24,26,28,-1,-1,30,32,34,36,38,40,42,44,-1,46,48,50,52,54,-1,-1,-1,-1,-1,-1,-1,-1,-1,-1,-1,-1,-1,-1,-1,-1,-1,-1,-1,-1,-1,-1],"split_conditions":[1.5004313E0,4E0,1.224707E1,1.29102545E1,1.1411285E1,1E0,-5.4763388E-2,1.1971704E1,1.3273347E1,5E0,1.2787492E1,-4.9828887E-2,-1.8205807E-1,5.110677E-1,7.563241E-1,1.3478035E1,1.2289248E1,-3.2132627E-3,-5.435365E-2,1.2783813E1,4E0,1.2773964E1,4.278231E-1,4.531449E-1,1.3130858E1,1.2984525E1,3E0,-1.555001E-2,1.31775675E1,6E0,1.2741717E1,2.9304397E-1,3.682992E-1,-2.4859954E-2,-5.932207E-3,8.1635313E-4,-1.3289632E-2,-6.3120746E-3,-1.7062938E-3,-1.9324612E-2,3.2057762E-4,2.6623039E-3,-3.1651973E-3,-1.3528188E-3,-2.471348E-2,1.824901E-2,1.7751933E-3,6.3929954E-3,-1.3623362E-3,4.430664E-3,-2.7790232E-2,-1.5517712E-3,1.2486934E-2,1.128869E-2,4.2777834E-3],"split_indices":[10,0,6,7,3,0,0,6,7,0,7,0,0,12,10,4,6,0,0,7,1,3,11,10,3,9,1,0,9,0,9,11,10,0,0,0,0,0,0,0,0,0,0,0,0,0,0,0,0,0,0,0,0,0,0],"split_type":[0,0,0,0,0,0,0,0,0,0,0,0,0,0,0,0,0,0,0,0,0,0,0,0,0,0,0,0,0,0,0,0,0,0,0,0,0,0,0,0,0,0,0,0,0,0,0,0,0,0,0,0,0,0,0],"sum_hessian":[8.94E2,8.89E2,5E0,5.12E2,3.77E2,3E0,2E0,3.4E2,1.72E2,3E0,3.74E2,1E0,2E0,3.2E1,3.08E2,1.57E2,1.5E1,1E0,2E0,1.79E2,1.95E2,1.5E1,1.7E1,2.97E2,1.1E1,1.52E2,5E0,2E0,1.3E1,1.72E2,7E0,6.6E1,1.29E2,1.1E1,4E0,5E0,1.2E1,1.52E2,1.45E2,1E1,1E0,1.01E2,5.1E1,2E0,3E0,1E1,3E0,1.12E2,6E1,3E0,4E0,3E0,6.3E1,3.6E1,9.3E1],"tree_param":{"num_deleted":"0","num_feature":"13","num_nodes":"55","size_leaf_vector":"1"}},{"base_weights":[-8.090752E-3,7.4547795E-3,-2.7860136E0,-6.4709467E-1,1.5591192E-2,-1.7598946E-1,-5.617835E-2,-5.675888E-2,-8.613757E-1,-8.4689334E-2,6.699045E-2,-9.362952E-3,8.36854E-3,-6.329149E-2,-3.6553726E-1,-1.2016805E-1,5.9228323E-2,-9.784281E-3,1.0224316E-1,-2.1279609E-2,-3.1329393E-3,-3.2474813E-1,-9.916383E-2,2.399675E-1,9.04421E-3,-2.4731976E-1,1.2629554E-2,8.991457E-2,3.2105038E-1,-2.3184132E-2,-8.516459E-3,-7.8467996E-4,-7.630858E-3,5.2046343E-3,3.29093E-2,-4.443824E-3,6.440425E-3,-1.3376536E-2,-3.528102E-3,-8.34407E-3,2.0925775E-3,-8.153347E-3,4.929176E-3,2.0510962E-2,1.4879148E-3],"categories":[],"categories_nodes":[],"categories_segments":[],"categories_sizes":[],"default_left":[0,0,0,0,0,0,0,0,0,0,0,0,0,0,0,0,0,0,0,0,0,0,0,0,0,0,0,0,0,0,0,0,0,0,0,0,0,0,0,0,0,0,0,0,0],"id":24,"left_children":[1,3,5,7,9,-1,-1,11,13,15,17,-1,-1,-1,19,21,23,25,27,-1,-1,29,31,33,35,37,39,41,43,-1,-1,-1,-1,-1,-1,-1,-1,-1,-1,-1,-1,-1,-1,-1,-1],"loss_changes":[3.8800262E1,4.7712502E0,2.1445923E0,1.3425846E0,4.5621147E0,0E0,0E0,1.4833753E-1,1.141643E0,1.5389214E0,1.5843132E0,0E0,0E0,0E0,6.4279675E-2,1.0033851E0,5.4204375E-1,9.880785E-1,1.052865E0,0E0,0E0,3.930118E-1,9.7919226E-1,6.702173E-1,5.7436335E-1,3.828168E-2,8.987479E-1,8.5164094E-1,5.332506E-1,0E0,0E0,0E0,0E0,0E0,0E0,0E0,0E0,0E0,0E0,0E0,0E0,0E0,0E0,0E0,0E0],"parents":[2147483647,0,0,1,1,2,2,3,3,4,4,7,7,8,8,9,9,10,10,14,14,15,15,16,16,17,17,18,18,21,21,22,22,23,23,24,24,25,25,26,26,27,27,28,28],"right_children":[2,4,6,8,10,-1,-1,12,14,16,18,-1,-1,-1,20,22,24,26,28,-1,-1,30,32,34,36,38,40,42,44,-1,-1,-1,-1,-1,-1,-1,-1,-1,-1,-1,-1,-1,-1,-1,-1],"split_conditions":[1.5004313E0,1.1467133E1,1.2510093E1,1.2586525E1,1.2614216E1,-1.7598946E-1,-5.617835E-2,2E0,1.2706787E1,1.2853156E1,1.2779692E1,-9.362952E-3,8.36854E-3,-6.329149E-2,1.1E1,3.286241E-1,3.7001735E-1,3.7217018E-1,1.3194496E1,-2.1279609E-2,-3.1329393E-3,7E0,6E0,3.888E-1,1.30747E1,3.8118842E-1,1.2250002E1,1.241245E1,1.3161215E1,-2.3184132E-2,-8.516459E-3,-7.8467996E-4,-7.630858E-3,5.2046343E-3,3.29093E-2,-4.443824E-3,6.440425E-3,-1.3376536E-2,-3.528102E-3,-8.34407E-3,2.0925775E-3,-8.153347E-3,4.929176E-3,2.0510962E-2,1.4879148E-3],"split_indices":[10,3,4,9,4,0,0,1,6,8,6,0,0,0,1,10,12,12,7,0,0,1,1,10,3,11,3,7,9,0,0,0,0,0,0,0,0,0,0,0,0,0,0,0,0],"split_type":[0,0,0,0,0,0,0,0,0,0,0,0,0,0,0,0,0,0,0,0,0,0,0,0,0,0,0,0,0,0,0,0,0,0,0,0,0,0,0,0,0,0,0,0,0],"sum_hessian":[8.97E2,8.93E2,4E0,1E1,8.83E2,2E0,2E0,3E0,7E0,2.99E2,5.84E2,2E0,1E0,3E0,4E0,2.4E2,5.9E1,1.84E2,4E2,3E0,1E0,2.1E1,2.19E2,1.2E1,4.7E1,1.5E1,1.69E2,3.8E2,2E1,1E1,1.1E1,8.6E1,1.33E2,1E1,2E0,2.6E1,2.1E1,1.3E1,2E0,2.3E1,1.46E2,1.2E1,3.68E2,1.5E1,5E0],"tree_param":{"num_deleted":"0","num_feature":"13","num_nodes":"45","size_leaf_vector":"1"}},{"base_weights":[-6.294418E-3,8.773469E-3,-2.6931467E0,-6.265189E-2,1.02138996E-1,-1.7012314E-1,-5.4305743E-2,-5.348713E-2,-4.3547726E-1,-6.002351E-1,1.1477542E-1,-8.68176E-2,2.9164221E-2,-2.4222565E-1,-3.8071204E-2,-6.0089063E-2,-2.9968056E-1,9.025819E-2,2.1698157E-1,-1.4457314E-1,-2.922326E-2,-1.7866218E-2,3.9998434E-2,-2.7380514E-1,2.6025772E-4,-1.898687E-2,-4.65223E-3,1.17672145E-1,3.003354E-2,2.595543E-1,1.3929136E-1,-5.8954675E-3,-1.7934723E-2,3.5113976E-3,-6.1475937E-3,7.3865673E-4,8.383807E-3,-1.8702269E-3,-1.5111658E-2,3.6083392E-3,8.595302E-3,-1.7428583E-2,2.706837E-3,1.4156872E-2,-2.9426576E-3,1.0903791E-2,2.2465026E-3],"categories":[],"categories_nodes":[],"categories_segments":[],"categories_sizes":[],"default_left":[0,0,0,0,0,0,0,0,0,0,0,0,0,0,0,0,0,0,0,0,0,0,0,0,0,0,0,0,0,0,0,0,0,0,0,0,0,0,0,0,0,0,0,0,0,0,0],"id":25,"left_children":[1,3,5,7,9,-1,-1,11,13,15,17,19,21,23,-1,-1,25,27,29,31,33,-1,35,37,-1,-1,-1,39,41,43,45,-1,-1,-1,-1,-1,-1,-1,-1,-1,-1,-1,-1,-1,-1,-1,-1],"loss_changes":[3.6298355E1,5.9548492E0,2.0040016E0,1.7056361E0,3.5037107E0,0E0,0E0,1.3661622E0,5.714407E-1,9.0543175E-1,9.351301E-1,1.1699917E0,6.1307645E-1,7.174885E-2,0E0,0E0,6.392318E-2,5.066235E-1,2.0529246E-1,9.6254015E-1,1.6678481E0,0E0,4.484221E-1,4.2458355E-2,0E0,0E0,0E0,5.107956E-1,9.1317886E-1,3.6207986E-1,1.9835949E-1,0E0,0E0,0E0,0E0,0E0,0E0,0E0,0E0,0E0,0E0,0E0,0E0,0E0,0E0,0E0,0E0],"parents":[2147483647,0,0,1,1,2,2,3,3,4,4,7,7,8,8,9,9,10,10,11,11,12,12,13,13,16,16,17,17,18,18,19,19,20,20,22,22,23,23,27,27,28,28,29,29,30,30],"right_children":[2,4,6,8,10,-1,-1,12,14,16,18,20,22,24,-1,-1,26,28,30,32,34,-1,36,38,-1,-1,-1,40,42,44,46,-1,-1,-1,-1,-1,-1,-1,-1,-1,-1,-1,-1,-1,-1,-1,-1],"split_conditions":[1.5004313E0,4E0,1.2510093E1,7.563241E-1,1.1726787E1,-1.7012314E-1,-5.4305743E-2,1.2927538E1,1.2686032E1,1.3089232E1,1.2988519E1,2E0,1.216874E1,1.2955516E1,-3.8071204E-2,-6.0089063E-2,1.3178084E1,6E0,6E0,1.2852556E1,3E0,-1.7866218E-2,1.3004883E1,1.1937949E1,2.6025772E-4,-1.898687E-2,-4.65223E-3,1.2822418E1,1.2801071E1,1.3168111E1,1.3113385E1,-5.8954675E-3,-1.7934723E-2,3.5113976E-3,-6.1475937E-3,7.3865673E-4,8.383807E-3,-1.8702269E-3,-1.5111658E-2,3.6083392E-3,8.595302E-3,-1.7428583E-2,2.706837E-3,1.4156872E-2,-2.9426576E-3,1.0903791E-2,2.2465026E-3],"split_indices":[10,0,4,10,3,0,0,8,9,5,8,0,3,3,0,0,6,0,0,5,0,0,6,8,0,0,0,3,3,9,5,0,0,0,0,0,0,0,0,0,0,0,0,0,0,0,0],"split_type":[0,0,0,0,0,0,0,0,0,0,0,0,0,0,0,0,0,0,0,0,0,0,0,0,0,0,0,0,0,0,0,0,0,0,0,0,0,0,0,0,0,0,0,0,0,0,0],"sum_hessian":[8.95E2,8.91E2,4E0,5.05E2,3.86E2,2E0,2E0,4.94E2,1.1E1,6E0,3.8E2,3.52E2,1.42E2,8E0,3E0,1E0,5E0,3.08E2,7.2E1,1.75E2,1.77E2,3E0,1.39E2,7E0,1E0,3E0,2E0,2.11E2,9.7E1,4.5E1,2.7E1,1.57E2,1.8E1,8.6E1,9.1E1,1.17E2,2.2E1,1E0,6E0,1.16E2,9.5E1,5E0,9.2E1,4.2E1,3E0,1.4E1,1.3E1],"tree_param":{"num_deleted":"0","num_feature":"13","num_nodes":"47","size_leaf_vector":"1"}},{"base_weights":[-1.0754581E-2,5.4780645E-3,-2.4032774E0,-7.392873E-2,7.1120635E-2,-1.4624982E-1,-4.5327988E-2,-6.0598963E-1,-5.8771186E-2,-9.082863E-2,9.419777E-2,-8.794022E-3,-9.45988E-1,-1.0987853E-1,-9.414272E-3,-3.86542E-2,-3.530528E-1,-1.1960293E-2,1.2862892E-1,-8.70072E-3,7.967886E-3,-1.6229313E-2,-5.648157E-2,-1.9580509E-1,-2.7181828E-2,3.7469715E-2,-9.3283996E-2,2.0272896E-1,-7.4546106E-2,-3.2532897E-2,-1.9731927E-1,-2.3467535E-1,3.3730973E-2,-3.508873E-1,1.3273525E-1,-1.1217854E-2,2.0014374E-3,1.1691878E-2,-2.6349116E-3,1.0486569E-3,2.7387226E-2,-2.4933496E-3,-1.2106341E-2,-1.2455782E-3,1.4938374E-2,-1.5999747E-2,-1.4864457E-3,-1.5560846E-2,-2.8086902E-4,6.323147E-3,-1.4386079E-2,3.0728078E-3,-1.0823149E-2,2.4576427E-3,-2.877419E-2,6.8361047E-3,-1.663925E-2],"categories":[],"categories_nodes":[],"categories_segments":[],"categories_sizes":[],"default_left":[0,0,0,0,0,0,0,0,0,0,0,0,0,0,0,0,0,0,0,0,0,0,0,0,0,0,0,0,0,0,0,0,0,0,0,0,0,0,0,0,0,0,0,0,0,0,0,0,0,0,0,0,0,0,0,0,0],"id":26,"left_children":[1,3,5,7,9,-1,-1,11,13,15,17,19,21,23,25,27,29,31,33,-1,-1,-1,-1,35,37,39,41,43,45,-1,47,49,51,53,55,-1,-1,-1,-1,-1,-1,-1,-1,-1,-1,-1,-1,-1,-1,-1,-1,-1,-1,-1,-1,-1,-1],"loss_changes":[3.457807E1,4.61829E0,2.033512E0,3.1983442E0,1.8211586E0,0E0,0E0,2.2251816E0,9.8526335E-1,8.209182E-1,1.5549748E0,1.6664101E-1,4.321518E-1,1.3589995E0,7.8992474E-1,4.656252E-1,3.3508372E-1,1.0764097E0,6.7864084E-1,0E0,0E0,0E0,0E0,6.41932E-1,6.716901E-1,1.0744069E0,4.5321214E-1,1.6047853E-1,4.9650198E-1,0E0,1.7292693E-1,3.812126E-1,6.237303E-1,2.9782957E-1,6.375475E-1,0E0,0E0,0E0,0E0,0E0,0E0,0E0,0E0,0E0,0E0,0E0,0E0,0E0,0E0,0E0,0E0,0E0,0E0,0E0,0E0,0E0,0E0],"parents":[2147483647,0,0,1,1,2,2,3,3,4,4,7,7,8,8,9,9,10,10,11,11,12,12,13,13,14,14,15,15,16,16,17,17,18,18,23,23,24,24,25,25,26,26,27,27,28,28,30,30,31,31,32,32,33,33,34,34],"right_children":[2,4,6,8,10,-1,-1,12,14,16,18,20,22,24,26,28,30,32,34,-1,-1,-1,-1,36,38,40,42,44,46,-1,48,50,52,54,56,-1,-1,-1,-1,-1,-1,-1,-1,-1,-1,-1,-1,-1,-1,-1,-1,-1,-1,-1,-1,-1,-1],"split_conditions":[1.2730744E0,1.2788461E1,1.2369749E1,1.15714655E1,1.2264646E1,-1.4624982E-1,-4.5327988E-2,1.266151E1,1.2510093E1,1.3455399E1,1.2833294E1,2E0,1.2168212E1,1.2695392E1,4.9228314E-1,1.2496334E1,1.351803E1,3.9918706E-1,1.2268418E1,-8.70072E-3,7.967886E-3,-1.6229313E-2,-5.648157E-2,1.2690201E1,1.1721393E1,1.2779546E1,1.3225528E1,1.2900528E1,1.2535894E1,-3.2532897E-2,1.2978329E1,1.2850023E1,1.34104805E1,1.2330539E1,1.3196786E1,-1.1217854E-2,2.0014374E-3,1.1691878E-2,-2.6349116E-3,1.0486569E-3,2.7387226E-2,-2.4933496E-3,-1.2106341E-2,-1.2455782E-3,1.4938374E-2,-1.5999747E-2,-1.4864457E-3,-1.5560846E-2,-2.8086902E-4,6.323147E-3,-1.4386079E-2,3.0728078E-3,-1.0823149E-2,2.4576427E-3,-2.877419E-2,6.8361047E-3,-1.663925E-2],"split_indices":[11,4,5,3,3,0,0,5,5,4,5,1,4,3,12,9,4,12,7,0,0,0,0,4,5,4,5,4,7,0,6,4,4,3,9,0,0,0,0,0,0,0,0,0,0,0,0,0,0,0,0,0,0,0,0,0,0],"split_type":[0,0,0,0,0,0,0,0,0,0,0,0,0,0,0,0,0,0,0,0,0,0,0,0,0,0,0,0,0,0,0,0,0,0,0,0,0,0,0,0,0,0,0,0,0,0,0,0,0,0,0,0,0,0,0,0,0],"sum_hessian":[8.89E2,8.84E2,5E0,4E2,4.84E2,3E0,2E0,1E1,3.9E2,6E1,4.24E2,4E0,6E0,1.91E2,1.99E2,5.1E1,9E0,1.04E2,3.2E2,2E0,2E0,2E0,4E0,9.3E1,9.8E1,1.28E2,7.1E1,6E0,4.5E1,2E0,7E0,1.7E1,8.7E1,2E0,3.18E2,8.3E1,1E1,8E0,9E1,1.25E2,3E0,5.6E1,1.5E1,2E0,4E0,6E0,3.9E1,4E0,3E0,2E0,1.5E1,7.9E1,8E0,1E0,1E0,3.16E2,2E0],"tree_param":{"num_deleted":"0","num_feature":"13","num_nodes":"57","size_leaf_vector":"1"}},{"base_weights":[-2.5385325E-3,-8.837368E-1,1.2518999E-2,-3.6548615E-1,-1.2915204E0,-5.148645E-2,9.653532E-2,-4.6402714E-1,8.10752E-3,-7.767039E-2,-3.3723894E-1,-9.748787E-2,-3.779764E-3,-4.605466E-2,1.19281456E-1,-8.410708E-3,-2.7435476E-2,-2.2361636E-2,-2.931285E-3,-1.4629035E-1,-1.699014E-2,8.487349E-2,-9.6065134E-2,-2.9261175E-1,-1.4275551E-2,1.0072014E-1,2.3088084E-1,-6.7527923E-3,-1.8890305E-1,-1.2100387E-1,2.697201E-2,-8.013063E-2,1.1134322E-1,-3.1839743E-2,-1.6527824E-1,-2.1737207E-2,-2.7823448E-4,1.5914408E-2,-3.503437E-1,1.637551E-1,7.283263E-2,1.6995838E-1,3.0850968E-1,-7.6675415E-3,1.4348136E-2,-7.554309E-3,-1.469101E-2,1.5134645E-2,-7.347318E-3,3.9988253E-3,-2.9220758E-3,-1.4045625E-2,1.0298038E-2,4.3762843E-3,1.2738237E-2,2.9049967E-3,-5.645355E-3,-3.653879E-3,-1.1410586E-2,-1.6927039E-3,7.051281E-3,2.3962022E-3,-2.4953716E-2,4.2391247E-3,1.186056E-2,5.198646E-3,-8.2995987E-4,1.1082888E-2,-8.402552E-4,9.778183E-3,2.0613797E-2],"categories":[],"categories_nodes":[],"categories_segments":[],"categories_sizes":[],"default_left":[0,0,0,0,0,0,0,0,0,0,0,0,0,0,0,0,0,0,0,0,0,0,0,0,0,0,0,0,0,0,0,0,0,0,0,0,0,0,0,0,0,0,0,0,0,0,0,0,0,0,0,0,0,0,0,0,0,0,0,0,0,0,0,0,0,0,0,0,0,0,0],"id":27,"left_children":[1,3,5,7,9,11,13,15,-1,-1,17,19,21,23,25,-1,-1,-1,-1,27,29,31,33,35,37,39,41,43,45,47,49,51,53,55,57,-1,-1,59,61,63,65,67,69,-1,-1,-1,-1,-1,-1,-1,-1,-1,-1,-1,-1,-1,-1,-1,-1,-1,-1,-1,-1,-1,-1,-1,-1,-1,-1,-1,-1],"loss_changes":[1.1846718E1,2.697978E0,4.7264175E0,4.911927E-1,1.4754438E0,1.0947247E0,1.2379749E0,8.305025E-2,0E0,0E0,6.571782E-2,9.9535084E-1,2.0207775E0,4.1109714E-1,6.5617514E-1,0E0,0E0,0E0,0E0,9.382036E-1,4.4681245E-1,5.592414E-1,5.3261137E-1,2.4237287E-1,4.9257794E-1,4.855559E-1,1.6511583E-1,1.6802145E0,4.3569183E-1,3.6324027E-1,3.1705767E-1,1.0918123E0,3.5003984E-1,4.7319487E-1,3.1986833E-1,0E0,0E0,2.8497112E-1,2.6085606E-1,4.7877622E-1,5.5314255E-1,2.740804E-1,1.4205348E-1,0E0,0E0,0E0,0E0,0E0,0E0,0E0,0E0,0E0,0E0,0E0,0E0,0E0,0E0,0E0,0E0,0E0,0E0,0E0,0E0,0E0,0E0,0E0,0E0,0E0,0E0,0E0,0E0],"parents":[2147483647,0,0,1,1,2,2,3,3,4,4,5,5,6,6,7,7,10,10,11,11,12,12,13,13,14,14,19,19,20,20,21,21,22,22,23,23,24,24,25,25,26,26,27,27,28,28,29,29,30,30,31,31,32,32,33,33,34,34,37,37,38,38,39,39,40,40,41,41,42,42],"right_children":[2,4,6,8,10,12,14,16,-1,-1,18,20,22,24,26,-1,-1,-1,-1,28,30,32,34,36,38,40,42,44,46,48,50,52,54,56,58,-1,-1,60,62,64,66,68,70,-1,-1,-1,-1,-1,-1,-1,-1,-1,-1,-1,-1,-1,-1,-1,-1,-1,-1,-1,-1,-1,-1,-1,-1,-1,-1,-1,-1],"split_conditions":[1.1467133E1,9E0,4E0,7E0,1.1E1,2E0,1.2572242E1,1.266151E1,8.10752E-3,-7.767039E-2,4E0,1.2881066E1,3E0,2.9533216E-1,1.34739E1,-8.410708E-3,-2.7435476E-2,-2.2361636E-2,-2.931285E-3,4.3513623E-1,4.0202275E-1,1.2620599E1,7E0,1.2236423E1,1.1E1,3.9210716E-1,1.3094914E1,4.5099613E-1,1.2813448E1,1.2886543E1,4.475665E-1,4.9571896E-1,1.2895735E1,4.6338138E-1,1.2739733E1,-2.1737207E-2,-2.7823448E-4,5.305533E-1,6E0,4.188363E-1,1.3348885E1,1.2998624E1,1.3216088E1,-7.6675415E-3,1.4348136E-2,-7.554309E-3,-1.469101E-2,1.5134645E-2,-7.347318E-3,3.9988253E-3,-2.9220758E-3,-1.4045625E-2,1.0298038E-2,4.3762843E-3,1.2738237E-2,2.9049967E-3,-5.645355E-3,-3.653879E-3,-1.1410586E-2,-1.6927039E-3,7.051281E-3,2.3962022E-3,-2.4953716E-2,4.2391247E-3,1.186056E-2,5.198646E-3,-8.2995987E-4,1.1082888E-2,-8.402552E-4,9.778183E-3,2.0613797E-2],"split_indices":[3,1,0,1,1,0,7,5,0,0,0,7,0,10,3,0,0,0,0,12,12,9,1,3,1,10,7,10,9,7,11,11,3,12,9,0,0,10,0,12,5,7,5,0,0,0,0,0,0,0,0,0,0,0,0,0,0,0,0,0,0,0,0,0,0,0,0,0,0,0,0],"split_type":[0,0,0,0,0,0,0,0,0,0,0,0,0,0,0,0,0,0,0,0,0,0,0,0,0,0,0,0,0,0,0,0,0,0,0,0,0,0,0,0,0,0,0,0,0,0,0,0,0,0,0,0,0,0,0,0,0,0,0,0,0,0,0,0,0,0,0,0,0,0,0],"sum_hessian":[8.91E2,1.4E1,8.77E2,7E0,7E0,4.98E2,3.79E2,6E0,1E0,5E0,2E0,2.53E2,2.45E2,5.2E1,3.27E2,2E0,4E0,1E0,1E0,1.57E2,9.6E1,1.25E2,1.2E2,5E0,4.7E1,2.82E2,4.5E1,3.7E1,1.2E2,2.8E1,6.8E1,1.7E1,1.08E2,6.3E1,5.7E1,3E0,2E0,4.4E1,3E0,8.5E1,1.97E2,2.7E1,1.8E1,2.5E1,1.2E1,9E1,3E1,1E0,2.7E1,4.2E1,2.6E1,1E1,7E0,9.4E1,1.4E1,3E1,3.3E1,2.4E1,3.3E1,3.2E1,1.2E1,1E0,2E0,4.2E1,4.3E1,1.46E2,5.1E1,2.1E1,6E0,1E1,8E0],"tree_param":{"num_deleted":"0","num_feature":"13","num_nodes":"71","size_leaf_vector":"1"}},{"base_weights":[-1.2447633E-2,2.8073823E-3,-2.2503178E0,-5.7547055E-2,8.402158E-2,-2.7570562E0,-4.122804E-2,-1.7833027E-1,-2.3545835E-2,-5.339902E-1,9.3789905E-2,-4.0223073E-2,-1.5698837E-1,-4.0255097E-1,-1.4447904E-1,-3.3557173E-2,2.3297927E-1,-5.523305E-2,-1.9892387E-1,6.883512E-2,2.0011215E-1,-1.9622457E-1,-5.808453E-1,3.5184002E-1,-1.6385585E-1,4.9248165E-3,-8.8145085E-2,2.919033E-1,-1.0001787E-1,-1.2363355E-2,-4.2136353E-3,9.867045E-2,1.0234129E-2,1.0716423E-1,2.4331722E-1,3.2469034E-3,-1.2140519E-2,-3.1168167E-2,-8.143425E-3,3.708744E-2,-1.268959E-3,-1.1636602E-2,-3.7575678E-3,-3.679828E-3,1.5380856E-3,-1.743029E-2,-2.608362E-3,2.0362107E-2,8.445561E-3,-6.3725947E-3,-1.1287451E-3,1.4307391E-3,7.355535E-3,-2.2684062E-2,1.4344201E-3,7.987291E-3,8.893543E-5,-8.6107256E-4,1.3073631E-2],"categories":[],"categories_nodes":[],"categories_segments":[],"categories_sizes":[],"default_left":[0,0,0,0,0,0,0,0,0,0,0,0,0,0,0,0,0,0,0,0,0,0,0,0,0,0,0,0,0,0,0,0,0,0,0,0,0,0,0,0,0,0,0,0,0,0,0,0,0,0,0,0,0,0,0,0,0,0,0],"id":28,"left_children":[1,3,5,7,9,11,-1,13,15,17,19,-1,-1,21,23,25,27,-1,29,31,33,35,37,39,41,43,45,47,49,-1,-1,51,53,55,57,-1,-1,-1,-1,-1,-1,-1,-1,-1,-1,-1,-1,-1,-1,-1,-1,-1,-1,-1,-1,-1,-1,-1,-1],"loss_changes":[3.0253244E1,4.3231773E0,2.0615559E0,2.07383E0,2.3199725E0,4.632988E-1,0E0,7.843461E-1,1.0248092E0,9.275321E-1,9.705806E-1,0E0,0E0,4.010396E-1,1.0001249E0,8.0288297E-1,3.2351834E-1,0E0,6.8751723E-3,5.270009E-1,2.5503254E-1,1.13099426E-1,2.2874594E-2,6.0714924E-1,5.629244E-1,4.5873243E-1,1.462403E0,1.1562729E-1,3.4965035E-3,0E0,0E0,6.7449355E-1,8.948211E-1,1.3270795E-1,2.2682166E-1,0E0,0E0,0E0,0E0,0E0,0E0,0E0,0E0,0E0,0E0,0E0,0E0,0E0,0E0,0E0,0E0,0E0,0E0,0E0,0E0,0E0,0E0,0E0,0E0],"parents":[2147483647,0,0,1,1,2,2,3,3,4,4,5,5,7,7,8,8,9,9,10,10,13,13,14,14,15,15,16,16,18,18,19,19,20,20,21,21,22,22,23,23,24,24,25,25,26,26,27,27,28,28,31,31,32,32,33,33,34,34],"right_children":[2,4,6,8,10,12,-1,14,16,18,20,-1,-1,22,24,26,28,-1,30,32,34,36,38,40,42,44,46,48,50,-1,-1,52,54,56,58,-1,-1,-1,-1,-1,-1,-1,-1,-1,-1,-1,-1,-1,-1,-1,-1,-1,-1,-1,-1,-1,-1,-1,-1],"split_conditions":[1.5004313E0,4E0,1.2369749E1,1.2638645E1,1.1726787E1,1E0,-4.122804E-2,1.2220963E1,1.3273347E1,1.3089232E1,1.2988519E1,-4.0223073E-2,-1.5698837E-1,1.1904619E1,1.2285751E1,4.455756E-1,5.298269E-1,-5.523305E-2,1.3178084E1,6E0,3.6066067E-1,3.5469133E-1,2E0,2E0,1.2447172E1,3.3183303E-1,3.888E-1,1.2689688E1,1E0,-1.2363355E-2,-4.2136353E-3,1.2600376E1,1.2268418E1,1.2993772E1,1.2387767E1,3.2469034E-3,-1.2140519E-2,-3.1168167E-2,-8.143425E-3,3.708744E-2,-1.268959E-3,-1.1636602E-2,-3.7575678E-3,-3.679828E-3,1.5380856E-3,-1.743029E-2,-2.608362E-3,2.0362107E-2,8.445561E-3,-6.3725947E-3,-1.1287451E-3,1.4307391E-3,7.355535E-3,-2.2684062E-2,1.4344201E-3,7.987291E-3,8.893543E-5,-8.6107256E-4,1.3073631E-2],"split_indices":[10,0,5,7,3,0,0,7,7,5,8,0,0,7,7,11,11,0,6,0,11,10,1,0,5,10,10,5,0,0,0,3,7,9,3,0,0,0,0,0,0,0,0,0,0,0,0,0,0,0,0,0,0,0,0,0,0,0,0],"split_type":[0,0,0,0,0,0,0,0,0,0,0,0,0,0,0,0,0,0,0,0,0,0,0,0,0,0,0,0,0,0,0,0,0,0,0,0,0,0,0,0,0,0,0,0,0,0,0,0,0,0,0,0,0,0,0,0,0,0,0],"sum_hessian":[8.85E2,8.8E2,5E0,5.05E2,3.75E2,3E0,2E0,1.1E2,3.95E2,5E0,3.7E2,1E0,2E0,1.3E1,9.7E1,3.81E2,1.4E1,1E0,4E0,3.01E2,6.9E1,7E0,6E0,3E0,9.4E1,2.24E2,1.57E2,1.2E1,2E0,