{"learner":{"attributes":{},"feature_names":[],"feature_types":[],"gradient_booster":{"model":{"cats":{"enc":[],"feature_segments":[],"sorted_idx":[]},"gbtree_model_param":{"num_parallel_tree":"1","num_trees":"800"},"iteration_indptr":[0,1,2,3,4,5,6,7,8,9,10,11,12,13,14,15,16,17,18,19,20,21,22,23,24,25,26,27,28,29,30,31,32,33,34,35,36,37,38,39,40,41,42,43,44,45,46,47,48,49,50,51,52,53,54,55,56,57,58,59,60,61,62,63,64,65,66,67,68,69,70,71,72,73,74,75,76,77,78,79,80,81,82,83,84,85,86,87,88,89,90,91,92,93,94,95,96,97,98,99,100,101,102,103,104,105,106,107,108,109,110,111,112,113,114,115,116,117,118,119,120,121,122,123,124,125,126,127,128,129,130,131,132,133,134,135,136,137,138,139,140,141,142,143,144,145,146,147,148,149,150,151,152,153,154,155,156,157,158,159,160,161,162,163,164,165,166,167,168,169,170,171,172,173,174,175,176,177,178,179,180,181,182,183,184,185,186,187,188,189,190,191,192,193,194,195,196,197,198,199,200,201,202,203,204,205,206,207,208,209,210,211,212,213,214,215,216,217,218,219,220,221,222,223,224,225,226,227,228,229,230,231,232,233,234,235,236,237,238,239,240,241,242,243,244,245,246,247,248,249,250,251,252,253,254,255,256,257,258,259,260,261,262,263,264,265,266,267,268,269,270,271,272,273,274,275,276,277,278,279,280,281,282,283,284,285,286,287,288,289,290,291,292,293,294,295,296,297,298,299,300,301,302,303,304,305,306,307,308,309,310,311,312,313,314,315,316,317,318,319,320,321,322,323,324,325,326,327,328,329,330,331,332,333,334,335,336,337,338,339,340,341,342,343,344,345,346,347,348,349,350,351,352,353,354,355,356,357,358,359,360,361,362,363,364,365,366,367,368,369,370,371,372,373,374,375,376,377,378,379,380,381,382,383,384,385,386,387,388,389,390,391,392,393,394,395,396,397,398,399,400,401,402,403,404,405,406,407,408,409,410,411,412,413,414,415,416,417,418,419,420,421,422,423,424,425,426,427,428,429,430,431,432,433,434,435,436,437,438,439,440,441,442,443,444,445,446,447,448,449,450,451,452,453,454,455,456,457,458,459,460,461,462,463,464,465,466,467,468,469,470,471,472,473,474,475,476,477,478,479,480,481,482,483,484,485,486,487,488,489,490,491,492,493,494,495,496,497,498,499,500,501,502,503,504,505,506,507,508,509,510,511,512,513,514,515,516,517,518,519,520,521,522,523,524,525,526,527,528,529,530,531,532,533,534,535,536,537,538,539,540,541,542,543,544,545,546,547,548,549,550,551,552,553,554,555,556,557,558,559,560,561,562,563,564,565,566,567,568,569,570,571,572,573,574,575,576,577,578,579,580,581,582,583,584,585,586,587,588,589,590,591,592,593,594,595,596,597,598,599,600,601,602,603,604,605,606,607,608,609,610,611,612,613,614,615,616,617,618,619,620,621,622,623,624,625,626,627,628,629,630,631,632,633,634,635,636,637,638,639,640,641,642,643,644,645,646,647,648,649,650,651,652,653,654,655,656,657,658,659,660,661,662,663,664,665,666,667,668,669,670,671,672,673,674,675,676,677,678,679,680,681,682,683,684,685,686,687,688,689,690,691,692,693,694,695,696,697,698,699,700,701,702,703,704,705,706,707,708,709,710,711,712,713,714,715,716,717,718,719,720,721,722,723,724,725,726,727,728,729,730,731,732,733,734,735,736,737,738,739,740,741,742,743,744,745,746,747,748,749,750,751,752,753,754,755,756,757,758,759,760,761,762,763,764,765,766,767,768,769,770,771,772,773,774,775,776,777,778,779,780,781,782,783,784,785,786,787,788,789,790,791,792,793,794,795,796,797,798,799,800],"tree_info":[0,0,0,0,0,0,0,0,0,0,0,0,0,0,0,0,0,0,0,0,0,0,0,0,0,0,0,0,0,0,0,0,0,0,0,0,0,0,0,0,0,0,0,0,0,0,0,0,0,0,0,0,0,0,0,0,0,0,0,0,0,0,0,0,0,0,0,0,0,0,0,0,0,0,0,0,0,0,0,0,0,0,0,0,0,0,0,0,0,0,0,0,0,0,0,0,0,0,0,0,0,0,0,0,0,0,0,0,0,0,0,0,0,0,0,0,0,0,0,0,0,0,0,0,0,0,0,0,0,0,0,0,0,0,0,0,0,0,0,0,0,0,0,0,0,0,0,0,0,0,0,0,0,0,0,0,0,0,0,0,0,0,0,0,0,0,0,0,0,0,0,0,0,0,0,0,0,0,0,0,0,0,0,0,0,0,0,0,0,0,0,0,0,0,0,0,0,0,0,0,0,0,0,0,0,0,0,0,0,0,0,0,0,0,0,0,0,0,0,0,0,0,0,0,0,0,0,0,0,0,0,0,0,0,0,0,0,0,0,0,0,0,0,0,0,0,0,0,0,0,0,0,0,0,0,0,0,0,0,0,0,0,0,0,0,0,0,0,0,0,0,0,0,0,0,0,0,0,0,0,0,0,0,0,0,0,0,0,0,0,0,0,0,0,0,0,0,0,0,0,0,0,0,0,0,0,0,0,0,0,0,0,0,0,0,0,0,0,0,0,0,0,0,0,0,0,0,0,0,0,0,0,0,0,0,0,0,0,0,0,0,0,0,0,0,0,0,0,0,0,0,0,0,0,0,0,0,0,0,0,0,0,0,0,0,0,0,0,0,0,0,0,0,0,0,0,0,0,0,0,0,0,0,0,0,0,0,0,0,0,0,0,0,0,0,0,0,0,0,0,0,0,0,0,0,0,0,0,0,0,0,0,0,0,0,0,0,0,0,0,0,0,0,0,0,0,0,0,0,0,0,0,0,0,0,0,0,0,0,0,0,0,0,0,0,0,0,0,0,0,0,0,0,0,0,0,0,0,0,0,0,0,0,0,0,0,0,0,0,0,0,0,0,0,0,0,0,0,0,0,0,0,0,0,0,0,0,0,0,0,0,0,0,0,0,0,0,0,0,0,0,0,0,0,0,0,0,0,0,0,0,0,0,0,0,0,0,0,0,0,0,0,0,0,0,0,0,0,0,0,0,0,0,0,0,0,0,0,0,0,0,0,0,0,0,0,0,0,0,0,0,0,0,0,0,0,0,0,0,0,0,0,0,0,0,0,0,0,0,0,0,0,0,0,0,0,0,0,0,0,0,0,0,0,0,0,0,0,0,0,0,0,0,0,0,0,0,0,0,0,0,0,0,0,0,0,0,0,0,0,0,0,0,0,0,0,0,0,0,0,0,0,0,0,0,0,0,0,0,0,0,0,0,0,0,0,0,0,0,0,0,0,0,0,0,0,0,0,0,0,0,0,0,0,0,0,0,0,0,0,0,0,0,0,0,0,0,0,0,0,0,0,0,0,0,0,0,0,0,0,0,0,0,0,0,0,0,0,0,0,0,0,0,0,0,0,0,0,0,0,0,0,0,0,0,0,0,0,0,0,0,0,0,0,0,0,0,0,0,0,0,0,0,0,0,0,0,0,0,0,0,0,0,0,0,0,0,0,0,0,0,0,0,0,0,0,0,0,0,0,0,0,0,0,0,0,0,0,0,0,0,0,0,0,0,0,0,0,0,0,0,0,0,0,0,0,0,0,0,0,0,0,0,0,0,0,0,0,0,0,0,0,0,0,0,0,0,0,0,0],"trees":[{"base_weights":[-5.6494214E-3,-5.227992E0,5.3634435E-2,-1.9121123E-2,-3.195791E-1,-1.7872463E-1,1.4342484E-1,-2.7773696E-1,-9.9224135E-2,7.4438594E-2,2.1304876E-1,-2.9646567E-1,3.7519317E-2,-1.2286687E-1,2.53307E-1,2.0715958E-1,4.9767684E-2,3.833515E-1,1.8409039E-1,-7.2775126E-2,-3.2242024E-1,-2.048254E-2,9.638262E-3,-8.15646E-2,-1.8731922E-1,8.258549E-2,2.2303129E-2,2.5557938E-1,-7.899189E-2,-8.6405985E-3,8.948097E-2,3.9317414E-1,-1.2210846E-3,8.1852995E-2,2.045376E-1,-1.0152179E-2,7.5104716E-3,-3.6200185E-3,-1.6951082E-2,-3.490607E-3,1.0817647E-3,-3.3406576E-3,-1.7441332E-2,-1.2946206E-2,-3.348284E-3,-3.7150385E-4,5.103731E-3,3.2351352E-3,1.5210128E-2,-9.663999E-3,1.4118481E-3,1.1000452E-3,-1.3163321E-2,5.6277863E-3,-2.0735476E-3,1.2699119E-2,2.1085484E-2,-8.066559E-3,5.1050177E-3,1.21727735E-2,7.0370384E-3],"categories":[],"categories_nodes":[],"categories_segments":[],"categories_sizes":[],"default_left":[0,0,0,0,0,0,0,0,0,0,0,0,0,0,0,0,0,0,0,0,0,0,0,0,0,0,0,0,0,0,0,0,0,0,0,0,0,0,0,0,0,0,0,0,0,0,0,0,0,0,0,0,0,0,0,0,0,0,0,0,0],"id":0,"left_children":[1,3,5,-1,-1,7,9,11,13,15,17,19,21,23,25,27,29,31,33,35,37,39,-1,41,43,45,-1,47,49,51,53,55,-1,57,59,-1,-1,-1,-1,-1,-1,-1,-1,-1,-1,-1,-1,-1,-1,-1,-1,-1,-1,-1,-1,-1,-1,-1,-1,-1,-1],"loss_changes":[2.7582495E2,5.3938263E1,1.8406477E1,0E0,0E0,1.9088378E0,3.038908E0,6.546974E-1,1.1813258E0,1.0407559E0,1.4878435E0,5.745325E-1,6.698019E-2,3.3078527E-1,2.5932932E-1,7.129586E-1,6.317003E-1,1.8984509E-1,5.518646E-1,3.790733E-1,3.5731697E-1,1.3976341E-2,0E0,2.9603642E-1,4.135561E-1,1.1284377E-2,0E0,3.7940168E-1,1.0349748E-1,8.718271E-1,4.9418056E-1,6.765747E-2,0E0,2.4789229E-1,5.268574E-1,0E0,0E0,0E0,0E0,0E0,0E0,0E0,0E0,0E0,0E0,0E0,0E0,0E0,0E0,0E0,0E0,0E0,0E0,0E0,0E0,0E0,0E0,0E0,0E0,0E0,0E0],"parents":[2147483647,0,0,1,1,2,2,5,5,6,6,7,7,8,8,9,9,10,10,11,11,12,12,13,13,14,14,15,15,16,16,17,17,18,18,19,19,20,20,21,21,23,23,24,24,25,25,27,27,28,28,29,29,30,30,31,31,33,33,34,34],"right_children":[2,4,6,-1,-1,8,10,12,14,16,18,20,22,24,26,28,30,32,34,36,38,40,-1,42,44,46,-1,48,50,52,54,56,-1,58,60,-1,-1,-1,-1,-1,-1,-1,-1,-1,-1,-1,-1,-1,-1,-1,-1,-1,-1,-1,-1,-1,-1,-1,-1,-1,-1],"split_conditions":[1.1535715E1,1.2342768E1,1.2501395E1,-1.9121123E-2,-3.195791E-1,1.2252894E1,1.2680868E1,1.2478926E1,4.3939272E-1,1E0,1E0,2.2879158E-1,1.3006189E1,2.8214866E-1,1.2326041E1,3.1022558E-1,1.251884E1,3.552077E-1,2E0,1.2328652E1,1E0,1.1901351E1,9.638262E-3,1.2510975E1,3.1597716E-1,1E0,2.2303129E-2,1.2549977E1,1.2701037E1,1.2496687E1,6E0,1.2702347E1,-1.2210846E-3,1.26421585E1,5E0,-1.0152179E-2,7.5104716E-3,-3.6200185E-3,-1.6951082E-2,-3.490607E-3,1.0817647E-3,-3.3406576E-3,-1.7441332E-2,-1.2946206E-2,-3.348284E-3,-3.7150385E-4,5.103731E-3,3.2351352E-3,1.5210128E-2,-9.663999E-3,1.4118481E-3,1.1000452E-3,-1.3163321E-2,5.6277863E-3,-2.0735476E-3,1.2699119E-2,2.1085484E-2,-8.066559E-3,5.1050177E-3,1.21727735E-2,7.0370384E-3],"split_indices":[3,5,8,0,0,4,7,7,12,0,0,12,3,12,5,10,4,10,0,9,0,5,0,9,10,0,0,8,5,4,0,7,0,8,0,0,0,0,0,0,0,0,0,0,0,0,0,0,0,0,0,0,0,0,0,0,0,0,0,0,0],"split_type":[0,0,0,0,0,0,0,0,0,0,0,0,0,0,0,0,0,0,0,0,0,0,0,0,0,0,0,0,0,0,0,0,0,0,0,0,0,0,0,0,0,0,0,0,0,0,0,0,0,0,0,0,0,0,0,0,0,0,0,0,0],"sum_hessian":[8.89E2,9E0,8.8E2,2E0,7E0,2.45E2,6.35E2,1.08E2,1.37E2,3.2E2,3.15E2,1.02E2,6E0,1.29E2,8E0,4.9E1,2.71E2,4.4E1,2.71E2,1.1E1,9.1E1,5E0,1E0,8E1,4.9E1,5E0,3E0,4.2E1,7E0,1.1E2,1.61E2,4.3E1,1E0,4.6E1,2.25E2,7E0,4E0,6E0,8.5E1,2E0,3E0,7.7E1,3E0,3E1,1.9E1,1E0,4E0,9E0,3.3E1,3E0,4E0,9.9E1,1.1E1,1.37E2,2.4E1,9E0,3.4E1,3E0,4.3E1,1.38E2,8.7E1],"tree_param":{"num_deleted":"0","num_feature":"13","num_nodes":"61","size_leaf_vector":"1"}},{"base_weights":[9.938311E-3,-4.595608E0,5.137187E-2,-1.9502878E-3,-2.6204896E-1,-1.73615E-1,1.3531546E-1,-2.8124422E-1,-8.179334E-2,7.580523E-2,2.1325819E-1,-4.3572947E-1,-2.2886367E-1,-1.0419123E-1,1.7405535E-1,4.934478E-2,2.0113479E-1,3.101559E-1,1.819245E-1,-2.8767183E-1,-5.349975E-1,-2.6200253E-1,-2.517128E-2,-9.531502E-2,-2.9455304E-2,2.2974357E-1,-9.57067E-3,1.4115879E-2,1.3113685E-1,-1.7428875E-2,2.1995254E-1,3.3259943E-1,-1.2647939E-1,8.6586386E-2,2.1277131E-1,9.116411E-4,-1.5734164E-2,-3.663261E-2,-1.6091099E-2,-1.1843256E-2,-2.5161315E-2,-7.524258E-3,7.3054554E-3,-2.7554089E-3,-7.7657425E-3,1.6209079E-2,3.520608E-4,3.1735923E-3,-2.628041E-3,-6.3323677E-3,7.692805E-3,3.5280704E-3,-6.4469813E-3,7.897377E-3,1.3731289E-2,1.7260836E-2,5.733595E-3,-7.638248E-3,-1.190567E-3,5.2241483E-3,-1.2624152E-2,1.2867241E-2,7.557469E-3],"categories":[],"categories_nodes":[],"categories_segments":[],"categories_sizes":[],"default_left":[0,0,0,0,0,0,0,0,0,0,0,0,0,0,0,0,0,0,0,0,0,0,0,0,0,0,0,0,0,0,0,0,0,0,0,0,0,0,0,0,0,0,0,0,0,0,0,0,0,0,0,0,0,0,0,0,0,0,0,0,0,0,0],"id":1,"left_children":[1,3,5,-1,-1,7,9,11,13,15,17,19,21,23,25,27,29,31,33,35,37,39,41,43,-1,45,-1,47,49,51,53,55,57,59,61,-1,-1,-1,-1,-1,-1,-1,-1,-1,-1,-1,-1,-1,-1,-1,-1,-1,-1,-1,-1,-1,-1,-1,-1,-1,-1,-1,-1],"loss_changes":[1.7121455E2,2.3321152E1,1.681333E1,0E0,0E0,2.368607E0,2.9895115E0,7.9849243E-1,7.745571E-1,1.2137809E0,7.9369926E-1,2.4292612E-1,5.671668E-1,4.6896243E-1,2.6785138E-1,8.7987095E-1,2.6705766E-1,6.9864273E-1,6.109247E-1,1.131556E-1,3.962431E-1,3.234563E-1,3.0101678E-1,2.8334165E-1,0E0,2.0803297E-1,0E0,7.1087813E-1,5.582987E-1,6.7969345E-2,1.5663457E-1,1.3639116E-1,7.1572214E-3,3.5406196E-1,4.0332222E-1,0E0,0E0,0E0,0E0,0E0,0E0,0E0,0E0,0E0,0E0,0E0,0E0,0E0,0E0,0E0,0E0,0E0,0E0,0E0,0E0,0E0,0E0,0E0,0E0,0E0,0E0,0E0,0E0],"parents":[2147483647,0,0,1,1,2,2,5,5,6,6,7,7,8,8,9,9,10,10,11,11,12,12,13,13,14,14,15,15,16,16,17,17,18,18,19,19,20,20,21,21,22,22,23,23,25,25,27,27,28,28,29,29,30,30,31,31,32,32,33,33,34,34],"right_children":[2,4,6,-1,-1,8,10,12,14,16,18,20,22,24,26,28,30,32,34,36,38,40,42,44,-1,46,-1,48,50,52,54,56,58,60,62,-1,-1,-1,-1,-1,-1,-1,-1,-1,-1,-1,-1,-1,-1,-1,-1,-1,-1,-1,-1,-1,-1,-1,-1,-1,-1,-1,-1],"split_conditions":[1.2012448E1,8E0,1.2496875E1,-1.9502878E-3,-2.6204896E-1,1.226924E1,1.2698939E1,1.217475E1,4.118148E-1,1.2821203E1,1E0,1.21932E1,3.6581683E-1,1.1E1,1.26783695E1,1.2700755E1,1.256827E1,3.2361373E-1,1.2666968E1,2.6586562E-1,2E0,3.3569562E-1,1.2369377E1,1.23885565E1,-2.9455304E-2,1.2444589E1,-9.57067E-3,2.1721347E-1,1.2290951E1,1.2627103E1,2.4195081E-1,1.3184127E1,1.2554454E1,6E0,2.0677085E-1,9.116411E-4,-1.5734164E-2,-3.663261E-2,-1.6091099E-2,-1.1843256E-2,-2.5161315E-2,-7.524258E-3,7.3054554E-3,-2.7554089E-3,-7.7657425E-3,1.6209079E-2,3.520608E-4,3.1735923E-3,-2.628041E-3,-6.3323677E-3,7.692805E-3,3.5280704E-3,-6.4469813E-3,7.897377E-3,1.3731289E-2,1.7260836E-2,5.733595E-3,-7.638248E-3,-1.190567E-3,5.2241483E-3,-1.2624152E-2,1.2867241E-2,7.557469E-3],"split_indices":[7,1,8,0,0,4,4,7,11,5,0,9,11,1,3,7,8,10,7,11,0,11,9,9,0,7,0,10,5,3,11,4,3,0,10,0,0,0,0,0,0,0,0,0,0,0,0,0,0,0,0,0,0,0,0,0,0,0,0,0,0,0,0],"split_type":[0,0,0,0,0,0,0,0,0,0,0,0,0,0,0,0,0,0,0,0,0,0,0,0,0,0,0,0,0,0,0,0,0,0,0,0,0,0,0,0,0,0,0,0,0,0,0,0,0,0,0,0,0,0,0,0,0,0,0,0,0,0,0],"sum_hessian":[8.95E2,7E0,8.88E2,1E0,6E0,2.41E2,6.47E2,1.1E2,1.31E2,3.68E2,2.79E2,2.6E1,8.4E1,1.21E2,1E1,3.05E2,6.3E1,6.6E1,2.13E2,1.2E1,1.4E1,7.2E1,1.2E1,1.2E2,1E0,9E0,1E0,2.14E2,9.1E1,5E0,5.8E1,6.3E1,3E0,5.3E1,1.6E2,1E0,1.1E1,6E0,8E0,6.7E1,5E0,7E0,5E0,7.3E1,4.7E1,6E0,3E0,1.23E2,9.1E1,7E0,8.4E1,3E0,2E0,2.9E1,2.9E1,5.9E1,4E0,2E0,1E0,5.1E1,2E0,9.1E1,6.9E1],"tree_param":{"num_deleted":"0","num_feature":"13","num_nodes":"63","size_leaf_vector":"1"}},{"base_weights":[-5.773354E-4,-4.8091407E0,4.837928E-2,-1.782729E-2,-6.0303755E0,-1.5592177E-1,1.2739806E-1,-1.8049882E-1,-4.0271243E-1,-2.642664E-1,-7.394675E-2,8.396354E-2,2.142808E-1,-3.062563E-1,-1.5279874E-1,-1.09737925E-1,1.787112E-1,-9.5595226E-2,9.6322745E-2,-1.3970928E-1,2.2175997E-1,-3.6052573E-1,-2.1102566E-1,-2.0955725E-1,9.228389E-3,-9.053747E-2,-3.3395864E-2,3.5304028E-1,6.2126637E-2,-1.5156707E-1,9.397275E-2,3.5492606E-2,1.2547988E-1,-1.246554E-2,1.6462008E-2,2.6439008E-1,1.7486604E-1,-1.1631924E-2,-2.095138E-2,-3.6504157E-3,-1.8177245E-2,-1.1618721E-2,7.3105097E-3,-4.9097347E-3,5.74029E-3,-1.1389571E-2,-2.9031846E-3,4.8235655E-3,1.8986162E-2,7.5414716E-3,-4.6111583E-3,4.9065305E-3,-1.0625358E-2,-2.8925657E-3,6.4459327E-3,4.0330013E-4,8.196386E-3,1.5607736E-2,5.585135E-3,-8.3708765E-5,1.3183594E-3,1.0293531E-2,1.517717E-2,1.4241777E-2,7.780134E-3],"categories":[],"categories_nodes":[],"categories_segments":[],"categories_sizes":[],"default_left":[0,0,0,0,0,0,0,0,0,0,0,0,0,0,0,0,0,0,0,0,0,0,0,0,0,0,0,0,0,0,0,0,0,0,0,0,0,0,0,0,0,0,0,0,0,0,0,0,0,0,0,0,0,0,0,0,0,0,0,0,0,0,0,0,0],"id":2,"left_children":[1,3,5,-1,7,9,11,-1,-1,13,15,17,19,21,23,25,27,29,31,33,35,37,39,41,43,45,-1,47,49,51,53,55,57,-1,59,61,63,-1,-1,-1,-1,-1,-1,-1,-1,-1,-1,-1,-1,-1,-1,-1,-1,-1,-1,-1,-1,-1,-1,-1,-1,-1,-1,-1,-1],"loss_changes":[2.1021925E2,4.678888E1,1.4290825E1,0E0,5.214432E0,2.174202E0,2.389635E0,0E0,0E0,4.493389E-1,1.3037066E0,9.568081E-1,5.922632E-1,3.1669664E-1,2.870229E-1,1.2791905E0,3.4390032E-1,3.113363E-1,7.049992E-1,8.968723E-2,3.6957836E-1,2.5415468E-1,6.049671E-1,2.2068048E-1,1.1334637E-1,5.3054655E-1,0E0,1.1289597E-2,1.7820509E-1,3.5561854E-1,4.4597514E-2,4.6013027E-1,6.595316E-1,0E0,5.8306975E-4,1.826706E-1,1.7175388E-1,0E0,0E0,0E0,0E0,0E0,0E0,0E0,0E0,0E0,0E0,0E0,0E0,0E0,0E0,0E0,0E0,0E0,0E0,0E0,0E0,0E0,0E0,0E0,0E0,0E0,0E0,0E0,0E0],"parents":[2147483647,0,0,1,1,2,2,4,4,5,5,6,6,9,9,10,10,11,11,12,12,13,13,14,14,15,15,16,16,17,17,18,18,19,19,20,20,21,21,22,22,23,23,24,24,25,25,27,27,28,28,29,29,30,30,31,31,32,32,34,34,35,35,36,36],"right_children":[2,4,6,-1,8,10,12,-1,-1,14,16,18,20,22,24,26,28,30,32,34,36,38,40,42,44,46,-1,48,50,52,54,56,58,-1,60,62,64,-1,-1,-1,-1,-1,-1,-1,-1,-1,-1,-1,-1,-1,-1,-1,-1,-1,-1,-1,-1,-1,-1,-1,-1,-1,-1,-1,-1],"split_conditions":[1.1535715E1,1.2342768E1,1.2501395E1,-1.782729E-2,8.235625E0,1.226924E1,1.276643E1,-1.8049882E-1,-4.0271243E-1,1.2510109E1,3.8431662E-1,1.2282906E1,1.2542878E1,1.2362499E1,1.2396591E1,1.2518544E1,1.2143178E1,1.26453285E1,1.2574941E1,1.2541783E1,3E0,1.220473E1,7E0,6E0,4E0,1.2279569E1,-3.3395864E-2,1E0,4.697834E-1,1.242153E1,1.2427433E1,1.2846486E1,1E0,-1.246554E-2,1E0,1.2716514E1,1.5993375E-1,-1.1631924E-2,-2.095138E-2,-3.6504157E-3,-1.8177245E-2,-1.1618721E-2,7.3105097E-3,-4.9097347E-3,5.74029E-3,-1.1389571E-2,-2.9031846E-3,4.8235655E-3,1.8986162E-2,7.5414716E-3,-4.6111583E-3,4.9065305E-3,-1.0625358E-2,-2.8925657E-3,6.4459327E-3,4.0330013E-4,8.196386E-3,1.5607736E-2,5.585135E-3,-8.3708765E-5,1.3183594E-3,1.0293531E-2,1.517717E-2,1.4241777E-2,7.780134E-3],"split_indices":[3,5,8,0,3,4,4,0,0,3,12,5,8,6,8,9,3,9,3,3,0,3,1,0,1,8,0,0,11,9,4,5,0,0,0,6,11,0,0,0,0,0,0,0,0,0,0,0,0,0,0,0,0,0,0,0,0,0,0,0,0,0,0,0,0],"split_type":[0,0,0,0,0,0,0,0,0,0,0,0,0,0,0,0,0,0,0,0,0,0,0,0,0,0,0,0,0,0,0,0,0,0,0,0,0,0,0,0,0,0,0,0,0,0,0,0,0,0,0,0,0,0,0,0,0,0,0,0,0,0,0,0,0],"sum_hessian":[8.91E2,8E0,8.83E2,2E0,6E0,2.46E2,6.37E2,4E0,2E0,1.05E2,1.41E2,4.26E2,2.11E2,7.5E1,3E1,1.24E2,1.7E1,2.7E1,3.99E2,4E0,2.07E2,4.6E1,2.9E1,2.2E1,8E0,1.21E2,3E0,6E0,1.1E1,2.1E1,6E0,1.3E2,2.69E2,2E0,2E0,1.06E2,1.01E2,1.6E1,3E1,1.6E1,1.3E1,2.1E1,1E0,4E0,4E0,2.2E1,9.9E1,1E0,5E0,7E0,4E0,4E0,1.7E1,1E0,5E0,1.08E2,2.2E1,1.7E1,2.52E2,1E0,1E0,4.5E1,6.1E1,1.3E1,8.8E1],"tree_param":{"num_deleted":"0","num_feature":"13","num_nodes":"65","size_leaf_vector":"1"}},{"base_weights":[-8.399454E-3,-4.6656675E0,4.2901296E-2,-1.7233055E-2,-5.7028365E0,-1.5058328E-1,1.20348275E-1,-1.8554476E-1,-3.892887E-1,-2.346171E-1,-8.933152E-2,6.673296E-2,1.916596E-1,-2.4744281E-1,8.164654E-2,-1.2156773E-1,1.5740293E-1,3.5602536E-2,1.6109075E-1,1.5517142E-1,2.4940294E-1,-4.696663E-2,-2.7040315E-1,1.5270774E-1,-1.6630173E-2,-1.0335918E-1,-4.3975857E-1,3.3878994E-1,3.8476944E-2,8.511544E-2,-3.5559054E-2,1.8944602E-1,4.2175945E-2,-1.6765451E-1,1.6185457E-1,2.6283008E-1,2.1957805E-2,-8.448243E-3,7.881193E-3,-1.5992124E-2,-9.934639E-3,2.381897E-3,9.071183E-3,-1.0418177E-3,-2.0544529E-4,-1.136776E-2,-3.715476E-3,-3.2143522E-2,-6.335354E-3,1.8195089E-2,4.7029736E-3,7.4178353E-3,-4.8064473E-3,-1.1564637E-2,4.717786E-3,-5.912278E-4,-2.0172494E-2,1.1078639E-2,2.4154664E-3,-1.2267003E-3,8.002036E-3,-1.5635444E-2,-7.5333915E-4,-8.091688E-3,8.333565E-3,1.43728275E-2,7.824959E-3,5.1374435E-3,-6.0006618E-3],"categories":[],"categories_nodes":[],"categories_segments":[],"categories_sizes":[],"default_left":[0,0,0,0,0,0,0,0,0,0,0,0,0,0,0,0,0,0,0,0,0,0,0,0,0,0,0,0,0,0,0,0,0,0,0,0,0,0,0,0,0,0,0,0,0,0,0,0,0,0,0,0,0,0,0,0,0,0,0,0,0,0,0,0,0,0,0,0,0],"id":3,"left_children":[1,3,5,-1,7,9,11,-1,-1,13,15,17,19,21,23,25,27,29,31,33,35,37,39,41,43,45,47,49,51,53,55,57,59,61,63,65,67,-1,-1,-1,-1,-1,-1,-1,-1,-1,-1,-1,-1,-1,-1,-1,-1,-1,-1,-1,-1,-1,-1,-1,-1,-1,-1,-1,-1,-1,-1,-1,-1],"loss_changes":[2.1929102E2,4.28506E1,1.3624316E1,0E0,4.300537E0,1.317318E0,2.468584E0,0E0,0E0,4.623413E-1,1.2281103E0,1.0869768E0,5.470314E-1,4.706149E-1,3.7457865E-2,7.367091E-1,3.752538E-1,9.931067E-1,3.0222154E-1,4.003806E-1,3.1794596E-1,3.2614905E-1,2.697091E-1,4.0887296E-4,7.2385476E-5,4.477687E-1,3.6363518E-1,8.79097E-3,1.9174694E-1,5.071579E-1,1.0081072E0,3.2483125E-1,1.5331875E-1,8.382254E-2,2.9202318E-1,2.168684E-1,9.262117E-2,0E0,0E0,0E0,0E0,0E0,0E0,0E0,0E0,0E0,0E0,0E0,0E0,0E0,0E0,0E0,0E0,0E0,0E0,0E0,0E0,0E0,0E0,0E0,0E0,0E0,0E0,0E0,0E0,0E0,0E0,0E0,0E0],"parents":[2147483647,0,0,1,1,2,2,4,4,5,5,6,6,9,9,10,10,11,11,12,12,13,13,14,14,15,15,16,16,17,17,18,18,19,19,20,20,21,21,22,22,23,23,24,24,25,25,26,26,27,27,28,28,29,29,30,30,31,31,32,32,33,33,34,34,35,35,36,36],"right_children":[2,4,6,-1,8,10,12,-1,-1,14,16,18,20,22,24,26,28,30,32,34,36,38,40,42,44,46,48,50,52,54,56,58,60,62,64,66,68,-1,-1,-1,-1,-1,-1,-1,-1,-1,-1,-1,-1,-1,-1,-1,-1,-1,-1,-1,-1,-1,-1,-1,-1,-1,-1,-1,-1,-1,-1,-1,-1],"split_conditions":[1.1535715E1,1.2342768E1,1.2501395E1,-1.7233055E-2,8.235625E0,1.2240552E1,1.2703458E1,-1.8554476E-1,-3.892887E-1,1.2478926E1,3.85188E-1,1.2812494E1,1.2758801E1,2.2879158E-1,1.2507404E1,1.2518544E1,1.2143178E1,2.1721347E-1,1E0,1.21997385E1,1.3040335E1,1.232086E1,1.2362499E1,1.2523166E1,1E0,1.2279569E1,3.2611355E-1,1.2855655E1,4.697834E-1,1.2462141E1,1.2757853E1,2.9864368E-1,1.266096E1,1.2430215E1,1.2591638E1,1E0,1.2927685E1,-8.448243E-3,7.881193E-3,-1.5992124E-2,-9.934639E-3,2.381897E-3,9.071183E-3,-1.0418177E-3,-2.0544529E-4,-1.136776E-2,-3.715476E-3,-3.2143522E-2,-6.335354E-3,1.8195089E-2,4.7029736E-3,7.4178353E-3,-4.8064473E-3,-1.1564637E-2,4.717786E-3,-5.912278E-4,-2.0172494E-2,1.1078639E-2,2.4154664E-3,-1.2267003E-3,8.002036E-3,-1.5635444E-2,-7.5333915E-4,-8.091688E-3,8.333565E-3,1.43728275E-2,7.824959E-3,5.1374435E-3,-6.0006618E-3],"split_indices":[3,5,8,0,3,4,7,0,0,7,12,5,6,12,7,9,3,10,2,6,3,6,6,3,2,8,11,6,11,7,5,12,7,4,8,2,6,0,0,0,0,0,0,0,0,0,0,0,0,0,0,0,0,0,0,0,0,0,0,0,0,0,0,0,0,0,0,0,0],"split_type":[0,0,0,0,0,0,0,0,0,0,0,0,0,0,0,0,0,0,0,0,0,0,0,0,0,0,0,0,0,0,0,0,0,0,0,0,0,0,0,0,0,0,0,0,0,0,0,0,0,0,0,0,0,0,0,0,0,0,0,0,0,0,0,0,0,0,0,0,0],"sum_hessian":[9.16E2,9E0,9.07E2,2E0,7E0,2.59E2,6.48E2,5E0,2E0,1.08E2,1.51E2,3.71E2,2.77E2,1.04E2,4E0,1.34E2,1.7E1,2.8E2,9.1E1,1.72E2,1.05E2,1.1E1,9.3E1,2E0,2E0,1.28E2,6E0,6E0,1.1E1,1.65E2,1.15E2,7.3E1,1.8E1,3E0,1.69E2,9.9E1,6E0,7E0,4E0,5.3E1,4E1,1E0,1E0,1E0,1E0,2.3E1,1.05E2,3E0,3E0,5E0,1E0,6E0,5E0,4E0,1.61E2,1.09E2,6E0,5.9E1,1.4E1,1.2E1,6E0,1E0,2E0,2E0,1.67E2,7.9E1,2E1,4E0,2E0],"tree_param":{"num_deleted":"0","num_feature":"13","num_nodes":"69","size_leaf_vector":"1"}},{"base_weights":[-9.299414E-3,-4.6189866E0,3.7483543E-2,-1.6658625E-2,-2.8979546E-1,-1.4222269E-1,1.1510255E-1,-2.3300117E-1,-7.24676E-2,6.0012057E-2,1.8445036E-1,-2.857776E-1,-1.2948877E-1,-1.0106184E-1,1.622311E-1,3.1247858E-2,1.6216798E-1,2.8256127E-1,1.5320437E-1,-2.336788E-1,-3.6215568E-1,-2.2172959E-1,-3.108179E-2,-8.3135165E-2,-5.57699E-1,3.251216E-1,4.3825235E-2,-2.4516243E-1,4.055257E-2,1.0221093E-1,2.4141484E-1,2.0157814E-2,3.0409226E-1,6.143236E-2,1.8699242E-1,-6.890461E-3,-1.6190317E-2,-2.6614701E-2,-1.3599686E-2,-2.019585E-2,-6.9775614E-3,6.7649446E-3,-4.576597E-3,-7.561603E-3,-1.8065285E-3,-3.0938137E-2,-7.836103E-3,4.585409E-3,1.7436957E-2,6.0662925E-3,-6.106615E-3,-1.6226888E-2,-3.2404424E-3,2.6301097E-3,-8.918824E-3,-1.43065145E-2,6.3463757E-3,5.869591E-3,1.7197076E-2,7.3405425E-3,-3.993571E-3,1.575247E-2,3.5964728E-3,3.9550546E-3,-9.84354E-3,9.947422E-3,7.2825176E-4],"categories":[],"categories_nodes":[],"categories_segments":[],"categories_sizes":[],"default_left":[0,0,0,0,0,0,0,0,0,0,0,0,0,0,0,0,0,0,0,0,0,0,0,0,0,0,0,0,0,0,0,0,0,0,0,0,0,0,0,0,0,0,0,0,0,0,0,0,0,0,0,0,0,0,0,0,0,0,0,0,0,0,0,0,0,0,0],"id":4,"left_children":[1,3,5,-1,-1,7,9,11,13,15,17,19,21,23,25,27,29,31,33,35,37,39,41,43,45,47,49,51,53,55,57,59,61,63,65,-1,-1,-1,-1,-1,-1,-1,-1,-1,-1,-1,-1,-1,-1,-1,-1,-1,-1,-1,-1,-1,-1,-1,-1,-1,-1,-1,-1,-1,-1,-1,-1],"loss_changes":[1.9318419E2,4.346559E1,1.2388797E1,0E0,0E0,1.680161E0,2.357582E0,5.9670496E-1,1.0431828E0,1.014569E0,7.9667664E-1,2.1779156E-1,3.6527097E-1,1.0751159E0,3.1363368E-1,7.0950395E-1,3.3643174E-1,3.6110735E-1,6.396799E-1,3.7012005E-1,3.0007935E-1,2.580421E-1,2.2359662E-1,4.2025125E-1,2.5451899E-2,6.6064E-3,1.5629773E-1,1.07807755E-1,7.0581806E-1,4.6824875E-1,3.6652553E-1,8.774002E-2,1.299696E-1,2.8027827E-1,3.125186E-1,0E0,0E0,0E0,0E0,0E0,0E0,0E0,0E0,0E0,0E0,0E0,0E0,0E0,0E0,0E0,0E0,0E0,0E0,0E0,0E0,0E0,0E0,0E0,0E0,0E0,0E0,0E0,0E0,0E0,0E0,0E0,0E0],"parents":[2147483647,0,0,1,1,2,2,5,5,6,6,7,7,8,8,9,9,10,10,11,11,12,12,13,13,14,14,15,15,16,16,17,17,18,18,19,19,20,20,21,21,22,22,23,23,24,24,25,25,26,26,27,27,28,28,29,29,30,30,31,31,32,32,33,33,34,34],"right_children":[2,4,6,-1,-1,8,10,12,14,16,18,20,22,24,26,28,30,32,34,36,38,40,42,44,46,48,50,52,54,56,58,60,62,64,66,-1,-1,-1,-1,-1,-1,-1,-1,-1,-1,-1,-1,-1,-1,-1,-1,-1,-1,-1,-1,-1,-1,-1,-1,-1,-1,-1,-1,-1,-1,-1,-1],"split_conditions":[1.1535715E1,1.2342768E1,1.2501395E1,-1.6658625E-2,-2.8979546E-1,1.226924E1,1.2707574E1,1.2338741E1,3.8431662E-1,1.279195E1,1E0,3.1494212E-1,1.232086E1,1.2518544E1,1.2143178E1,1.2462141E1,2.4349481E-1,1.2549372E1,1.2674239E1,1.220473E1,2E0,1.2047479E1,1.2352562E1,1.2360104E1,3.2611355E-1,1E0,4.697834E-1,1.2377442E1,1.27603245E1,1.2326041E1,1.2592127E1,1.2843332E1,3.1204513E-1,1.2746613E1,3.0415207E-1,-6.890461E-3,-1.6190317E-2,-2.6614701E-2,-1.3599686E-2,-2.019585E-2,-6.9775614E-3,6.7649446E-3,-4.576597E-3,-7.561603E-3,-1.8065285E-3,-3.0938137E-2,-7.836103E-3,4.585409E-3,1.7436957E-2,6.0662925E-3,-6.106615E-3,-1.6226888E-2,-3.2404424E-3,2.6301097E-3,-8.918824E-3,-1.43065145E-2,6.3463757E-3,5.869591E-3,1.7197076E-2,7.3405425E-3,-3.993571E-3,1.575247E-2,3.5964728E-3,3.9550546E-3,-9.84354E-3,9.947422E-3,7.2825176E-4],"split_indices":[3,5,8,0,0,4,4,7,12,5,0,11,6,9,3,7,11,7,7,3,0,4,7,7,11,0,11,6,5,3,7,4,11,8,11,0,0,0,0,0,0,0,0,0,0,0,0,0,0,0,0,0,0,0,0,0,0,0,0,0,0,0,0,0,0,0,0],"split_type":[0,0,0,0,0,0,0,0,0,0,0,0,0,0,0,0,0,0,0,0,0,0,0,0,0,0,0,0,0,0,0,0,0,0,0,0,0,0,0,0,0,0,0,0,0,0,0,0,0,0,0,0,0,0,0,0,0,0,0,0,0,0,0,0,0,0,0],"sum_hessian":[8.94E2,8E0,8.86E2,2E0,6E0,2.67E2,6.19E2,1.15E2,1.52E2,3.46E2,2.73E2,7.5E1,4E1,1.36E2,1.6E1,2.71E2,7.5E1,6.4E1,2.09E2,4.7E1,2.8E1,2E1,2E1,1.32E2,4E0,6E0,1E1,8E0,2.63E2,4.4E1,3.1E1,5E0,5.9E1,5.7E1,1.52E2,2.4E1,2.3E1,8E0,2E1,5E0,1.5E1,5E0,1.5E1,5.3E1,7.9E1,3E0,1E0,1E0,5E0,7E0,3E0,5E0,3E0,2.5E2,1.3E1,2E0,4.2E1,1.5E1,1.6E1,2E0,3E0,5.6E1,3E0,5.4E1,3E0,1.42E2,1E1],"tree_param":{"num_deleted":"0","num_feature":"13","num_nodes":"67","size_leaf_vector":"1"}},{"base_weights":[-6.1467066E-3,-4.285402E0,4.1249413E-2,-3.2206663E-1,-5.235977E0,-1.4148264E-1,1.129835E-1,-1.9052124E-2,-5.102873E-3,-1.657389E-1,-3.6665252E-1,-2.2636954E-1,-7.75768E-2,6.0811788E-2,1.7616548E-1,-4.1509695E-2,-2.5097027E-1,-1.04012854E-1,1.4536923E-1,3.685757E-2,1.4329255E-1,1.8666054E-1,-3.078715E-2,-1.3563089E-1,1.5503463E-1,-2.8686005E-1,-1.4862749E-1,-8.648708E-2,-4.576397E-1,3.1201157E-1,1.4182663E-2,7.7526726E-2,-3.0888058E-2,-1.0751016E-1,1.6508074E-1,2.800643E-1,1.5582037E-1,-1.0988398E-1,1.06172085E-1,-1.022873E-2,-1.2886142E-3,1.0340787E-2,2.5787672E-3,-9.954945E-3,-1.6709697E-2,-1.0218143E-2,4.644692E-4,-9.658849E-3,-2.8554855E-3,-2.9777957E-2,-6.060028E-3,4.4707777E-3,1.6710417E-2,4.4332915E-3,-5.985427E-3,-4.7519817E-3,4.84088E-3,-3.680296E-4,-2.0893224E-2,1.406994E-3,-1.4887841E-2,5.26147E-3,1.2467753E-2,-4.1789534E-3,1.4336963E-2,6.5929475E-3,1.1540911E-2,-6.5667215E-3,-8.0273947E-4,1.1025906E-3,9.147088E-3],"categories":[],"categories_nodes":[],"categories_segments":[],"categories_sizes":[],"default_left":[0,0,0,0,0,0,0,0,0,0,0,0,0,0,0,0,0,0,0,0,0,0,0,0,0,0,0,0,0,0,0,0,0,0,0,0,0,0,0,0,0,0,0,0,0,0,0,0,0,0,0,0,0,0,0,0,0,0,0,0,0,0,0,0,0,0,0,0,0,0,0],"id":5,"left_children":[1,3,5,7,9,11,13,-1,-1,-1,-1,15,17,19,21,23,25,27,29,31,33,35,37,39,41,43,45,47,49,51,53,55,57,59,61,63,65,67,69,-1,-1,-1,-1,-1,-1,-1,-1,-1,-1,-1,-1,-1,-1,-1,-1,-1,-1,-1,-1,-1,-1,-1,-1,-1,-1,-1,-1,-1,-1,-1,-1],"loss_changes":[1.851487E2,3.598816E1,1.1852614E1,3.7431717E-5,7.9237213E0,1.3657551E0,2.1285934E0,0E0,0E0,0E0,0E0,4.8528004E-1,8.8151103E-1,7.0006573E-1,6.421375E-1,2.8001332E-1,3.099785E-1,7.785013E-1,3.4535465E-1,7.6832837E-1,4.5491076E-1,7.600441E-1,1.7416221E-1,7.046822E-2,1.6119584E-2,2.2424746E-1,2.395404E-1,3.870198E-1,2.0622683E-1,4.7029257E-3,1.1034046E-1,5.8844006E-1,9.529045E-1,1.890276E-1,3.4701157E-1,1.8902206E-1,3.5054016E-1,1.801823E-2,3.4713127E-2,0E0,0E0,0E0,0E0,0E0,0E0,0E0,0E0,0E0,0E0,0E0,0E0,0E0,0E0,0E0,0E0,0E0,0E0,0E0,0E0,0E0,0E0,0E0,0E0,0E0,0E0,0E0,0E0,0E0,0E0,0E0,0E0],"parents":[2147483647,0,0,1,1,2,2,3,3,4,4,5,5,6,6,11,11,12,12,13,13,14,14,15,15,16,16,17,17,18,18,19,19,20,20,21,21,22,22,23,23,24,24,25,25,26,26,27,27,28,28,29,29,30,30,31,31,32,32,33,33,34,34,35,35,36,36,37,37,38,38],"right_children":[2,4,6,8,10,12,14,-1,-1,-1,-1,16,18,20,22,24,26,28,30,32,34,36,38,40,42,44,46,48,50,52,54,56,58,60,62,64,66,68,70,-1,-1,-1,-1,-1,-1,-1,-1,-1,-1,-1,-1,-1,-1,-1,-1,-1,-1,-1,-1,-1,-1,-1,-1,-1,-1,-1,-1,-1,-1,-1,-1],"split_conditions":[1.1535715E1,1.2342768E1,1.2501395E1,2E0,8.235625E0,1.226924E1,1.2698939E1,-1.9052124E-2,-5.102873E-3,-1.657389E-1,-3.6665252E-1,2.2879158E-1,3.85188E-1,1.2782982E1,3.3460844E-1,1.232086E1,1.2514499E1,1.2518544E1,1.2143178E1,2.228227E-1,1.256565E1,1E0,4.0103748E-1,1.2221506E1,4E0,1.210754E1,1.2389748E1,1.2310592E1,3.2611355E-1,1E0,3.4237477E-1,1.2290951E1,1.27603245E1,2.2802533E-1,2.4195081E-1,1.21346855E1,1.295695E1,3E0,4.0640625E-1,-1.022873E-2,-1.2886142E-3,1.0340787E-2,2.5787672E-3,-9.954945E-3,-1.6709697E-2,-1.0218143E-2,4.644692E-4,-9.658849E-3,-2.8554855E-3,-2.9777957E-2,-6.060028E-3,4.4707777E-3,1.6710417E-2,4.4332915E-3,-5.985427E-3,-4.7519817E-3,4.84088E-3,-3.680296E-4,-2.0893224E-2,1.406994E-3,-1.4887841E-2,5.26147E-3,1.2467753E-2,-4.1789534E-3,1.4336963E-2,6.5929475E-3,1.1540911E-2,-6.5667215E-3,-8.0273947E-4,1.1025906E-3,9.147088E-3],"split_indices":[3,5,8,0,3,4,4,0,0,0,0,12,12,5,10,6,3,9,3,10,9,0,10,4,0,3,8,8,11,0,10,5,5,10,11,3,4,0,10,0,0,0,0,0,0,0,0,0,0,0,0,0,0,0,0,0,0,0,0,0,0,0,0,0,0,0,0,0,0,0,0],"split_type":[0,0,0,0,0,0,0,0,0,0,0,0,0,0,0,0,0,0,0,0,0,0,0,0,0,0,0,0,0,0,0,0,0,0,0,0,0,0,0,0,0,0,0,0,0,0,0,0,0,0,0,0,0,0,0,0,0,0,0,0,0,0,0,0,0,0,0,0,0,0,0],"sum_hessian":[9.11E2,9E0,9.02E2,2E0,7E0,2.54E2,6.48E2,1E0,1E0,5E0,2E0,1.08E2,1.46E2,3.56E2,2.92E2,1.3E1,9.5E1,1.31E2,1.5E1,2.77E2,7.9E1,2.78E2,1.4E1,9E0,4E0,6.9E1,2.6E1,1.26E2,5E0,6E0,9E0,1.73E2,1.04E2,6E0,7.3E1,6.7E1,2.11E2,9E0,5E0,5E0,4E0,2E0,2E0,2.6E1,4.3E1,1.9E1,7E0,2.6E1,1E2,3E0,2E0,1E0,5E0,6E0,3E0,1.7E1,1.56E2,9.9E1,5E0,4E0,2E0,4.4E1,2.9E1,1E0,6.6E1,1.62E2,4.9E1,7E0,2E0,3E0,2E0],"tree_param":{"num_deleted":"0","num_feature":"13","num_nodes":"71","size_leaf_vector":"1"}},{"base_weights":[-4.6451227E-3,-4.106243E0,3.6376018E-2,-3.1401476E-1,-5.144878E0,-1.3824277E-1,9.900482E-2,-1.8575812E-2,-4.975295E-3,-1.4748299E-1,-3.5443076E-1,-2.3266675E-1,-6.5713994E-2,4.546632E-2,1.4762932E-1,-3.512025E-2,-2.559047E-1,-9.5936716E-2,2.2761917E-1,-1.1287216E-2,7.917589E-2,2.6473266E-1,1.251436E-1,-1.4634717E-1,1.4986686E-1,-6.4724445E-2,-2.7585527E-1,-8.123006E-2,-2.584144E-2,6.58102E-2,2.9222202E-1,1.3072917E-2,-4.029169E-1,9.813592E-2,-8.6206116E-2,2.8313136E-1,-1.485548E-1,1.0354859E-1,1.9644101E-1,2.3215612E-4,-9.872556E-3,9.996097E-3,2.4928094E-3,-7.244076E-3,4.5865774E-3,-1.8676529E-2,-1.1489595E-2,-5.246762E-3,4.044682E-3,-9.2980865E-4,4.5780423E-3,1.5677322E-2,3.0406713E-3,-6.442133E-3,2.6394979E-3,-3.7573974E-4,-6.938324E-2,6.264712E-3,1.4698716E-3,3.9232373E-3,-5.900521E-3,1.4798822E-2,2.5892498E-3,-9.012413E-3,-2.1291971E-3,6.419254E-3,2.8598278E-3,6.107358E-3,1.2496228E-2],"categories":[],"categories_nodes":[],"categories_segments":[],"categories_sizes":[],"default_left":[0,0,0,0,0,0,0,0,0,0,0,0,0,0,0,0,0,0,0,0,0,0,0,0,0,0,0,0,0,0,0,0,0,0,0,0,0,0,0,0,0,0,0,0,0,0,0,0,0,0,0,0,0,0,0,0,0,0,0,0,0,0,0,0,0,0,0,0,0],"id":6,"left_children":[1,3,5,7,9,11,13,-1,-1,-1,-1,15,17,19,21,23,25,27,29,31,33,35,37,39,41,43,45,47,-1,49,51,53,55,57,59,61,63,65,67,-1,-1,-1,-1,-1,-1,-1,-1,-1,-1,-1,-1,-1,-1,-1,-1,-1,-1,-1,-1,-1,-1,-1,-1,-1,-1,-1,-1,-1,-1],"loss_changes":[1.529224E2,3.38331E1,9.8562355E0,3.5643578E-5,8.959488E0,1.6146431E0,1.7192636E0,0E0,0E0,0E0,0E0,4.6384096E-1,1.2275213E0,6.073582E-1,8.805747E-1,2.6883915E-1,3.3304834E-1,7.255671E-1,1.16662025E-1,1.1405452E0,6.3245404E-1,4.6027756E-1,4.3078184E-1,6.2646374E-2,1.5062869E-2,1.3870075E-1,2.8760338E-1,4.7351235E-1,0E0,1.2570269E-2,2.5343955E-2,6.4372224E-1,2.7151718E0,3.304776E-1,1.19241744E-1,1.421709E-1,2.4000704E-3,2.539842E-1,2.3569703E-1,0E0,0E0,0E0,0E0,0E0,0E0,0E0,0E0,0E0,0E0,0E0,0E0,0E0,0E0,0E0,0E0,0E0,0E0,0E0,0E0,0E0,0E0,0E0,0E0,0E0,0E0,0E0,0E0,0E0,0E0],"parents":[2147483647,0,0,1,1,2,2,3,3,4,4,5,5,6,6,11,11,12,12,13,13,14,14,15,15,16,16,17,17,18,18,19,19,20,20,21,21,22,22,23,23,24,24,25,25,26,26,27,27,29,29,30,30,31,31,32,32,33,33,34,34,35,35,36,36,37,37,38,38],"right_children":[2,4,6,8,10,12,14,-1,-1,-1,-1,16,18,20,22,24,26,28,30,32,34,36,38,40,42,44,46,48,-1,50,52,54,56,58,60,62,64,66,68,-1,-1,-1,-1,-1,-1,-1,-1,-1,-1,-1,-1,-1,-1,-1,-1,-1,-1,-1,-1,-1,-1,-1,-1,-1,-1,-1,-1,-1,-1],"split_conditions":[1.1535715E1,1.2342768E1,1.247465E1,2E0,8.235625E0,1.2252894E1,1.2666968E1,-1.8575812E-2,-4.975295E-3,-1.4748299E-1,-3.5443076E-1,2.2879158E-1,3.85188E-1,1.251884E1,1E0,1.9273347E-1,1E0,1.1E1,1.2326041E1,1.2652726E1,6E0,3.552077E-1,1.2835443E1,1.2174312E1,4E0,1.2333456E1,2E0,1.2669016E1,-2.584144E-2,1E0,4.3334146E0,1.249074E1,1.2549541E1,2.625408E-1,1.4923675E-1,1.3184127E1,5E0,5E0,1.2804663E1,2.3215612E-4,-9.872556E-3,9.996097E-3,2.4928094E-3,-7.244076E-3,4.5865774E-3,-1.8676529E-2,-1.1489595E-2,-5.246762E-3,4.044682E-3,-9.2980865E-4,4.5780423E-3,1.5677322E-2,3.0406713E-3,-6.442133E-3,2.6394979E-3,-3.7573974E-4,-6.938324E-2,6.264712E-3,1.4698716E-3,3.9232373E-3,-5.900521E-3,1.4798822E-2,2.5892498E-3,-9.012413E-3,-2.1291971E-3,6.419254E-3,2.8598278E-3,6.107358E-3,1.2496228E-2],"split_indices":[3,5,7,0,3,4,7,0,0,0,0,12,12,4,0,10,0,1,5,7,0,10,5,5,0,7,0,4,0,0,12,3,6,11,11,4,1,0,4,0,0,0,0,0,0,0,0,0,0,0,0,0,0,0,0,0,0,0,0,0,0,0,0,0,0,0,0,0,0],"split_type":[0,0,0,0,0,0,0,0,0,0,0,0,0,0,0,0,0,0,0,0,0,0,0,0,0,0,0,0,0,0,0,0,0,0,0,0,0,0,0,0,0,0,0,0,0,0,0,0,0,0,0,0,0,0,0,0,0,0,0,0,0,0,0,0,0,0,0,0,0],"sum_hessian":[9.07E2,8E0,8.99E2,2E0,6E0,2.37E2,6.62E2,1E0,1E0,4E0,2E0,1.02E2,1.35E2,3.16E2,3.46E2,1.1E1,9.1E1,1.23E2,1.2E1,1.18E2,1.98E2,5.4E1,2.92E2,7E0,4E0,9E0,8.2E1,1.2E2,3E0,4E0,8E0,1.12E2,6E0,1.78E2,2E1,5.2E1,2E0,2.26E2,6.6E1,2E0,5E0,2E0,2E0,6E0,3E0,2.4E1,5.8E1,1.05E2,1.5E1,1E0,3E0,7E0,1E0,2.4E1,8.8E1,5E0,1E0,1.27E2,5.1E1,3E0,1.7E1,4.9E1,3E0,1E0,1E0,1.46E2,8E1,2.9E1,3.7E1],"tree_param":{"num_deleted":"0","num_feature":"13","num_nodes":"69","size_leaf_vector":"1"}},{"base_weights":[1.6706488E-4,-3.9610124E0,3.9690845E-2,-3.061644E-1,-4.961517E0,-1.18197344E-1,9.941081E-2,-1.811142E-2,-4.8509124E-3,-1.4173634E-1,-3.426164E-1,-1.9606236E-1,-5.9652667E-2,4.1765295E-2,1.4770925E-1,-2.0983376E-1,6.8433285E-2,-8.727009E-2,1.8183397E-1,-1.8114926E-2,7.753497E-2,2.642322E-1,1.2690851E-1,-1.5345639E-1,-2.6209673E-1,1.1070251E-2,8.881211E-3,-4.4981036E-2,-1.6794254E-1,2.8599915E-1,8.0612816E-2,9.191612E-3,-3.7766218E-1,9.5096976E-2,-7.474069E-2,2.8311428E-1,-1.4484088E-1,1.0754854E-1,2.0074017E-1,-1.34092495E-2,-4.66733E-3,-1.6433902E-2,-8.674893E-3,-7.216295E-4,1.6441504E-3,-3.8446207E-3,7.0064217E-3,-1.1554918E-2,2.1266937E-3,3.9670705E-3,1.5360928E-2,8.485862E-4,1.0111889E-2,-1.425333E-2,1.0264938E-3,-2.2525105E-3,-6.764865E-2,1.8527998E-3,6.690359E-3,6.2957443E-3,-5.2015516E-3,-1.22993E-3,1.4488026E-2,-8.787108E-3,-2.0759583E-3,6.746092E-3,3.0577052E-3,-4.0090558E-4,1.0763777E-2],"categories":[],"categories_nodes":[],"categories_segments":[],"categories_sizes":[],"default_left":[0,0,0,0,0,0,0,0,0,0,0,0,0,0,0,0,0,0,0,0,0,0,0,0,0,0,0,0,0,0,0,0,0,0,0,0,0,0,0,0,0,0,0,0,0,0,0,0,0,0,0,0,0,0,0,0,0,0,0,0,0,0,0,0,0,0,0,0,0],"id":7,"left_children":[1,3,5,7,9,11,13,-1,-1,-1,-1,15,17,19,21,23,25,27,29,31,33,35,37,39,41,43,-1,45,47,49,51,53,55,57,59,61,63,65,67,-1,-1,-1,-1,-1,-1,-1,-1,-1,-1,-1,-1,-1,-1,-1,-1,-1,-1,-1,-1,-1,-1,-1,-1,-1,-1,-1,-1,-1,-1],"loss_changes":[1.4262752E2,3.1391174E1,8.516778E0,3.3915043E-5,8.725052E0,1.1188321E0,1.8174739E0,0E0,0E0,0E0,0E0,4.0046215E-1,9.6956956E-1,6.439734E-1,8.2932615E-1,2.5737095E-1,3.5614796E-2,4.3253726E-1,1.3510057E-1,1.1129043E0,5.098696E-1,4.5038724E-1,4.1294193E-1,3.2667768E-1,2.4382544E-1,3.2560232E-3,0E0,5.1878524E-1,5.9471333E-1,6.3209534E-3,6.6230774E-2,3.595084E-1,2.5342486E0,3.7474716E-1,1.3064446E-1,1.11429214E-1,2.281651E-3,3.0035114E-1,1.8985748E-1,0E0,0E0,0E0,0E0,0E0,0E0,0E0,0E0,0E0,0E0,0E0,0E0,0E0,0E0,0E0,0E0,0E0,0E0,0E0,0E0,0E0,0E0,0E0,0E0,0E0,0E0,0E0,0E0,0E0,0E0],"parents":[2147483647,0,0,1,1,2,2,3,3,4,4,5,5,6,6,11,11,12,12,13,13,14,14,15,15,16,16,17,17,18,18,19,19,20,20,21,21,22,22,23,23,24,24,25,25,27,27,28,28,29,29,30,30,31,31,32,32,33,33,34,34,35,35,36,36,37,37,38,38],"right_children":[2,4,6,8,10,12,14,-1,-1,-1,-1,16,18,20,22,24,26,28,30,32,34,36,38,40,42,44,-1,46,48,50,52,54,56,58,60,62,64,66,68,-1,-1,-1,-1,-1,-1,-1,-1,-1,-1,-1,-1,-1,-1,-1,-1,-1,-1,-1,-1,-1,-1,-1,-1,-1,-1,-1,-1,-1,-1],"split_conditions":[1.1535715E1,1.2342768E1,1.2501395E1,2E0,8.235625E0,1.226924E1,1.2666968E1,-1.811142E-2,-4.8509124E-3,-1.4173634E-1,-3.426164E-1,1.2432663E1,3.85188E-1,1.251884E1,1E0,2.8165698E-1,1.2756475E1,2.885613E-1,1.2143178E1,1.2652726E1,6E0,3.552077E-1,1.2870745E1,1.9273347E-1,1.2066108E1,2E0,8.881211E-3,2.653511E-1,1.2690776E1,1E0,1.2379827E1,1.2066108E1,1.2549541E1,1.2587159E1,1.25116205E1,1.2306638E1,5E0,5E0,2E0,-1.34092495E-2,-4.66733E-3,-1.6433902E-2,-8.674893E-3,-7.216295E-4,1.6441504E-3,-3.8446207E-3,7.0064217E-3,-1.1554918E-2,2.1266937E-3,3.9670705E-3,1.5360928E-2,8.485862E-4,1.0111889E-2,-1.425333E-2,1.0264938E-3,-2.2525105E-3,-6.764865E-2,1.8527998E-3,6.690359E-3,6.2957443E-3,-5.2015516E-3,-1.22993E-3,1.4488026E-2,-8.787108E-3,-2.0759583E-3,6.746092E-3,3.0577052E-3,-4.0090558E-4,1.0763777E-2],"split_indices":[3,5,8,0,3,4,7,0,0,0,0,8,12,4,0,10,3,12,3,7,0,10,6,10,4,1,0,10,4,0,3,5,6,6,8,6,1,0,0,0,0,0,0,0,0,0,0,0,0,0,0,0,0,0,0,0,0,0,0,0,0,0,0,0,0,0,0,0,0],"split_type":[0,0,0,0,0,0,0,0,0,0,0,0,0,0,0,0,0,0,0,0,0,0,0,0,0,0,0,0,0,0,0,0,0,0,0,0,0,0,0,0,0,0,0,0,0,0,0,0,0,0,0,0,0,0,0,0,0,0,0,0,0,0,0,0,0,0,0,0,0],"sum_hessian":[9.09E2,8E0,9.01E2,2E0,6E0,2.47E2,6.54E2,1E0,1E0,4E0,2E0,1.05E2,1.42E2,2.99E2,3.55E2,1E2,5E0,1.28E2,1.4E1,1.12E2,1.87E2,5.2E1,3.03E2,5E1,5E1,4E0,1E0,8.5E1,4.3E1,6E0,8E0,1.05E2,7E0,1.68E2,1.9E1,5E1,2E0,2.42E2,6.1E1,1.6E1,3.4E1,2.7E1,2.3E1,2E0,2E0,7.3E1,1.2E1,3.3E1,1E1,1E0,5E0,6E0,2E0,3E0,1.02E2,6E0,1E0,6.8E1,1E2,2E0,1.7E1,1E0,4.9E1,1E0,1E0,1.51E2,9.1E1,4E0,5.7E1],"tree_param":{"num_deleted":"0","num_feature":"13","num_nodes":"69","size_leaf_vector":"1"}},{"base_weights":[-4.132333E-3,-3.8176339E0,3.413483E-2,-2.9851022E-1,-4.7804537E0,-1.20369405E-1,9.501983E-2,-1.765864E-2,-4.7296286E-3,-1.3591424E-1,-3.3119586E-1,-2.2521552E-1,-7.60148E-2,4.4112846E-2,1.3686068E-1,-2.9211724E-1,-1.3121584E-1,-6.341754E-2,-5.042356E-1,-2.2320088E-2,8.209247E-2,2.4336514E-1,1.16387166E-1,-1.520011E-1,-3.6951938E-1,5.1821362E-2,-2.1305035E-1,-7.778014E-2,1.08334064E-1,-2.7748382E-2,-7.532692E-3,5.518837E-3,-3.6751664E-1,9.7130805E-2,-5.519867E-2,1.6510172E-1,2.7054295E-1,3.1718235E-2,1.3211514E-1,-3.6670684E-3,-1.2694741E-2,-4.5416118E-3,-2.002853E-2,1.3376367E-2,-3.125465E-3,-5.5567427E-5,-1.3593027E-2,-1.8051196E-2,-3.3265885E-3,8.804546E-3,-2.4423217E-3,-1.5450459E-3,6.1067804E-3,-5.1439017E-2,1.2183985E-3,-1.23575535E-2,5.138382E-3,1.6118049E-3,-7.7965106E-3,1.0861244E-2,-7.5273993E-3,8.69347E-3,1.4848592E-2,2.3490174E-3,-7.395506E-3,8.594767E-3,3.8925793E-3],"categories":[],"categories_nodes":[],"categories_segments":[],"categories_sizes":[],"default_left":[0,0,0,0,0,0,0,0,0,0,0,0,0,0,0,0,0,0,0,0,0,0,0,0,0,0,0,0,0,0,0,0,0,0,0,0,0,0,0,0,0,0,0,0,0,0,0,0,0,0,0,0,0,0,0,0,0,0,0,0,0,0,0,0,0,0,0],"id":8,"left_children":[1,3,5,7,9,11,13,-1,-1,-1,-1,15,17,19,21,23,25,27,29,31,33,35,37,39,41,43,45,47,49,-1,-1,51,53,55,57,59,61,63,65,-1,-1,-1,-1,-1,-1,-1,-1,-1,-1,-1,-1,-1,-1,-1,-1,-1,-1,-1,-1,-1,-1,-1,-1,-1,-1,-1,-1],"loss_changes":[1.3219867E2,2.9067505E1,8.449509E0,3.245473E-5,8.6050415E0,1.1640842E0,1.3656774E0,0E0,0E0,0E0,0E0,4.3332505E-1,9.3901694E-1,7.3857707E-1,7.413993E-1,4.1018033E-1,5.053395E-1,4.425832E-1,6.081462E-3,1.0302876E0,3.8938248E-1,7.444644E-2,3.9264727E-1,1.17632866E-1,1.9726181E-1,2.8800282E-1,2.8637385E-1,4.953035E-1,1.5770216E-1,0E0,0E0,4.284895E-1,2.0981817E0,3.5143006E-1,1.723679E-1,3.1239802E-1,5.0564528E-2,1.3854128E-1,5.2843E-1,0E0,0E0,0E0,0E0,0E0,0E0,0E0,0E0,0E0,0E0,0E0,0E0,0E0,0E0,0E0,0E0,0E0,0E0,0E0,0E0,0E0,0E0,0E0,0E0,0E0,0E0,0E0,0E0],"parents":[2147483647,0,0,1,1,2,2,3,3,4,4,5,5,6,6,11,11,12,12,13,13,14,14,15,15,16,16,17,17,18,18,19,19,20,20,21,21,22,22,23,23,24,24,25,25,26,26,27,27,28,28,31,31,32,32,33,33,34,34,35,35,36,36,37,37,38,38],"right_children":[2,4,6,8,10,12,14,-1,-1,-1,-1,16,18,20,22,24,26,28,30,32,34,36,38,40,42,44,46,48,50,-1,-1,52,54,56,58,60,62,64,66,-1,-1,-1,-1,-1,-1,-1,-1,-1,-1,-1,-1,-1,-1,-1,-1,-1,-1,-1,-1,-1,-1,-1,-1,-1,-1,-1,-1],"split_conditions":[1.1535715E1,1.2342768E1,1.2501395E1,2E0,8.235625E0,1.2274155E1,1.2666968E1,-1.765864E-2,-4.7296286E-3,-1.3591424E-1,-3.3119586E-1,1.2256469E1,1.2518544E1,1.251884E1,1E0,1.1970223E1,1.2400153E1,3.947198E-1,3.2611355E-1,1.2652726E1,6E0,1.2702347E1,2E0,5E0,2.566095E-1,1.210754E1,1.2197045E1,1.1929543E1,4.697834E-1,-2.7748382E-2,-7.532692E-3,1.26843E1,1.2656359E1,1.2416595E1,1.25889015E1,1.2732123E1,1.7504665E-1,1.2921589E1,5E0,-3.6670684E-3,-1.2694741E-2,-4.5416118E-3,-2.002853E-2,1.3376367E-2,-3.125465E-3,-5.5567427E-5,-1.3593027E-2,-1.8051196E-2,-3.3265885E-3,8.804546E-3,-2.4423217E-3,-1.5450459E-3,6.1067804E-3,-5.1439017E-2,1.2183985E-3,-1.23575535E-2,5.138382E-3,1.6118049E-3,-7.7965106E-3,1.0861244E-2,-7.5273993E-3,8.69347E-3,1.4848592E-2,2.3490174E-3,-7.395506E-3,8.594767E-3,3.8925793E-3],"split_indices":[3,5,8,0,3,7,7,0,0,0,0,5,9,4,0,5,5,11,11,7,0,7,0,0,12,4,8,5,11,0,0,9,7,7,7,9,11,4,0,0,0,0,0,0,0,0,0,0,0,0,0,0,0,0,0,0,0,0,0,0,0,0,0,0,0,0,0],"split_type":[0,0,0,0,0,0,0,0,0,0,0,0,0,0,0,0,0,0,0,0,0,0,0,0,0,0,0,0,0,0,0,0,0,0,0,0,0,0,0,0,0,0,0,0,0,0,0,0,0,0,0,0,0,0,0,0,0,0,0,0,0,0,0,0,0,0,0],"sum_hessian":[9.04E2,8E0,8.96E2,2E0,6E0,2.53E2,6.43E2,1E0,1E0,4E0,2E0,7.4E1,1.79E2,2.91E2,3.52E2,4.2E1,3.2E1,1.75E2,4E0,1.06E2,1.85E2,5.5E1,2.97E2,1.6E1,2.6E1,1E1,2.2E1,1.62E2,1.3E1,3E0,1E0,9.9E1,7E0,1.67E2,1.8E1,1.6E1,3.9E1,4.7E1,2.5E2,1E1,6E0,3E0,2.3E1,3E0,7E0,5E0,1.7E1,5E0,1.57E2,9E0,4E0,7.6E1,2.3E1,2E0,5E0,2E0,1.65E2,1E1,8E0,1.4E1,2E0,1E1,2.9E1,4.4E1,3E0,1.43E2,1.07E2],"tree_param":{"num_deleted":"0","num_feature":"13","num_nodes":"67","size_leaf_vector":"1"}},{"base_weights":[-8.170648E-3,-3.7016811E0,3.3479042E-2,-2.9104772E-1,-4.5179586E0,-1.06328405E-1,9.257469E-2,-1.7217183E-2,-4.6113967E-3,-1.4111923E-1,-3.20156E-1,-1.7906483E-1,-5.4023024E-2,5.2190796E-2,1.4168319E-1,-1.9054318E-2,-1.6163534E-1,-1.0948411E-1,9.775515E-3,-8.542532E-2,6.609343E-2,1.864668E-1,8.898084E-2,-1.4539137E-1,-2.629096E-1,-4.5064276E-1,-8.650591E-2,4.279623E-2,-1.1053556E-1,-1.64491E-1,2.797992E-2,3.2697026E-2,1.0660042E-1,1.6291933E-1,2.8857663E-1,1.6223837E-1,5.3805318E-2,-9.109691E-3,-2.3188922E-3,-3.176411E-3,-1.8979097E-2,2.8435707E-3,-2.958696E-2,3.5774407E-3,-5.5224667E-3,-1.373945E-3,5.2445014E-3,4.5568347E-3,-8.204292E-3,4.5526824E-3,-9.995559E-3,4.6913307E-3,-3.772672E-3,-1.4341237E-3,3.277087E-3,1.33924335E-2,4.4762115E-3,7.4169114E-3,1.5027367E-2,1.5239753E-2,-3.3275604E-3,1.2232022E-2,3.810369E-3,4.9847306E-4,7.057236E-3],"categories":[],"categories_nodes":[],"categories_segments":[],"categories_sizes":[],"default_left":[0,0,0,0,0,0,0,0,0,0,0,0,0,0,0,0,0,0,0,0,0,0,0,0,0,0,0,0,0,0,0,0,0,0,0,0,0,0,0,0,0,0,0,0,0,0,0,0,0,0,0,0,0,0,0,0,0,0,0,0,0,0,0,0,0],"id":9,"left_children":[1,3,5,7,9,11,13,-1,-1,-1,-1,15,17,19,21,-1,23,25,27,29,31,33,35,37,39,41,43,45,47,49,51,53,55,57,59,61,63,-1,-1,-1,-1,-1,-1,-1,-1,-1,-1,-1,-1,-1,-1,-1,-1,-1,-1,-1,-1,-1,-1,-1,-1,-1,-1,-1,-1],"loss_changes":[1.379588E2,2.6525284E1,7.3382487E0,3.0755997E-5,7.4993744E0,9.947164E-1,1.2301173E0,0E0,0E0,0E0,0E0,3.2572722E-1,5.4951227E-1,6.6379607E-1,6.4662457E-1,0E0,1.312201E-1,6.116712E-1,2.9474187E-1,2.9152924E-1,4.19937E-1,3.1605387E-1,3.2884097E-1,3.231486E-1,2.7829558E-1,3.9169526E-1,3.0686784E-1,2.5597394E-1,1.877479E-1,1.9018E-1,1.0242996E-1,3.5064653E-1,3.6426544E-1,2.0626354E-1,1.7579412E-1,2.7910006E-1,3.4316668E-1,0E0,0E0,0E0,0E0,0E0,0E0,0E0,0E0,0E0,0E0,0E0,0E0,0E0,0E0,0E0,0E0,0E0,0E0,0E0,0E0,0E0,0E0,0E0,0E0,0E0,0E0,0E0,0E0],"parents":[2147483647,0,0,1,1,2,2,3,3,4,4,5,5,6,6,11,11,12,12,13,13,14,14,16,16,17,17,18,18,19,19,20,20,21,21,22,22,23,23,24,24,25,25,26,26,27,27,28,28,29,29,30,30,31,31,32,32,33,33,34,34,35,35,36,36],"right_children":[2,4,6,8,10,12,14,-1,-1,-1,-1,16,18,20,22,-1,24,26,28,30,32,34,36,38,40,42,44,46,48,50,52,54,56,58,60,62,64,-1,-1,-1,-1,-1,-1,-1,-1,-1,-1,-1,-1,-1,-1,-1,-1,-1,-1,-1,-1,-1,-1,-1,-1,-1,-1,-1,-1],"split_conditions":[1.1535715E1,1.2342768E1,1.25116205E1,2E0,8.235625E0,1.226924E1,1.2707574E1,-1.7217183E-2,-4.6113967E-3,-1.4111923E-1,-3.20156E-1,1.6602781E-1,1.2416103E1,1.232137E1,2.0858315E-1,-1.9054318E-2,1.25878525E1,1.1931984E1,1.246383E1,1.2511569E1,1.2644027E1,1.29714985E1,1.2504502E1,1.2376798E1,2.7727354E-1,3E0,1.1937351E1,1.2510109E1,2E0,1.1868241E1,1.2550397E1,1.2572587E1,1E0,1.2987143E1,1.2846564E1,2.4762194E-1,1.2847246E1,-9.109691E-3,-2.3188922E-3,-3.176411E-3,-1.8979097E-2,2.8435707E-3,-2.958696E-2,3.5774407E-3,-5.5224667E-3,-1.373945E-3,5.2445014E-3,4.5568347E-3,-8.204292E-3,4.5526824E-3,-9.995559E-3,4.6913307E-3,-3.772672E-3,-1.4341237E-3,3.277087E-3,1.33924335E-2,4.4762115E-3,7.4169114E-3,1.5027367E-2,1.5239753E-2,-3.3275604E-3,1.2232022E-2,3.810369E-3,4.9847306E-4,7.057236E-3],"split_indices":[3,5,8,0,3,4,4,0,0,0,0,10,6,5,10,0,5,3,9,6,6,4,3,9,12,1,6,4,0,6,4,3,0,6,9,11,6,0,0,0,0,0,0,0,0,0,0,0,0,0,0,0,0,0,0,0,0,0,0,0,0,0,0,0,0],"split_type":[0,0,0,0,0,0,0,0,0,0,0,0,0,0,0,0,0,0,0,0,0,0,0,0,0,0,0,0,0,0,0,0,0,0,0,0,0,0,0,0,0,0,0,0,0,0,0,0,0,0,0,0,0,0,0,0,0,0,0,0,0,0,0,0,0],"sum_hessian":[8.95E2,9E0,8.86E2,2E0,7E0,2.63E2,6.23E2,1E0,1E0,5E0,2E0,1.09E2,1.54E2,3.43E2,2.8E2,7E0,1.02E2,8.2E1,7.2E1,3.1E1,3.12E2,1.5E2,1.3E2,9E1,1.2E1,4E0,7.8E1,5.7E1,1.5E1,1.8E1,1.3E1,1.72E2,1.4E2,1.24E2,2.6E1,4.1E1,8.9E1,6.5E1,2.5E1,5E0,7E0,1E0,3E0,1E1,6.8E1,2.7E1,3E1,3E0,1.2E1,2E0,1.6E1,8E0,5E0,6E1,1.12E2,1.2E1,1.28E2,1.14E2,1E1,2.5E1,1E0,2E1,2.1E1,6E1,2.9E1],"tree_param":{"num_deleted":"0","num_feature":"13","num_nodes":"65","size_leaf_vector":"1"}},{"base_weights":[-1.1491921E-2,-3.5649076E0,2.8179562E-2,-2.837715E-1,-4.34972E0,-1.1395396E-1,8.490031E-2,-1.6786743E-2,-4.4961213E-3,-1.3523927E-1,-3.0948412E-1,-1.8408822E-1,-5.985221E-2,1.1245014E-2,1.0816863E-1,-2.9482914E-2,-2.0253044E-1,-8.257625E-2,1.2994164E-1,-4.0735785E-2,1.2796754E-1,1.8687679E-1,9.270136E-2,-1.2660578E-1,1.5123482E-1,-2.6739215E-2,-2.1981245E-1,-6.66352E-2,-4.7096366E-1,2.6914105E-1,4.220182E-2,-1.6898414E-2,-6.478336E-2,4.4177905E-2,2.2498356E-1,2.2263022E-1,-8.208485E-2,2.0697447E-2,1.0599862E-1,-8.443928E-3,-1.5772581E-3,9.954612E-3,2.64829E-3,-6.4830543E-3,5.1057437E-3,-1.2532423E-2,-5.655402E-3,-7.600356E-3,-9.773191E-4,-7.139254E-3,-2.5865603E-2,3.516674E-3,1.4741793E-2,5.885977E-3,-5.9692026E-3,-8.39197E-3,2.880964E-4,-1.03463335E-2,3.6271669E-3,5.9849885E-3,1.6967706E-2,2.1064854E-3,1.1646566E-2,-7.440615E-3,2.76047E-3,2.4595228E-3,-7.046656E-3,4.644498E-3,9.074093E-3],"categories":[],"categories_nodes":[],"categories_segments":[],"categories_sizes":[],"default_left":[0,0,0,0,0,0,0,0,0,0,0,0,0,0,0,0,0,0,0,0,0,0,0,0,0,0,0,0,0,0,0,0,0,0,0,0,0,0,0,0,0,0,0,0,0,0,0,0,0,0,0,0,0,0,0,0,0,0,0,0,0,0,0,0,0,0,0,0,0],"id":10,"left_children":[1,3,5,7,9,11,13,-1,-1,-1,-1,15,17,19,21,23,25,27,29,31,33,35,37,39,41,43,45,47,49,51,53,55,-1,57,59,61,63,65,67,-1,-1,-1,-1,-1,-1,-1,-1,-1,-1,-1,-1,-1,-1,-1,-1,-1,-1,-1,-1,-1,-1,-1,-1,-1,-1,-1,-1,-1,-1],"loss_changes":[1.2767764E2,2.4516441E1,7.2331553E0,2.9042363E-5,7.471176E0,9.603443E-1,1.097352E0,0E0,0E0,0E0,0E0,3.1051922E-1,6.4041114E-1,9.45649E-1,5.755501E-1,2.4732089E-1,2.9488707E-1,7.7967787E-1,1.8405503E-1,3.2088456E0,3.8024962E-1,7.779622E-1,3.8940477E-1,3.0838981E-2,1.2969419E-2,1.4585935E-1,2.677803E-1,5.075769E-1,2.1884441E-3,9.913117E-3,1.4828238E-1,3.6694708E-1,0E0,2.0732374E-1,2.2428954E-1,1.2034154E-1,9.982878E-2,3.0627978E-1,3.2451415E-1,0E0,0E0,0E0,0E0,0E0,0E0,0E0,0E0,0E0,0E0,0E0,0E0,0E0,0E0,0E0,0E0,0E0,0E0,0E0,0E0,0E0,0E0,0E0,0E0,0E0,0E0,0E0,0E0,0E0,0E0],"parents":[2147483647,0,0,1,1,2,2,3,3,4,4,5,5,6,6,11,11,12,12,13,13,14,14,15,15,16,16,17,17,18,18,19,19,20,20,21,21,22,22,23,23,24,24,25,25,26,26,27,27,28,28,29,29,30,30,31,31,33,33,34,34,35,35,36,36,37,37,38,38],"right_children":[2,4,6,8,10,12,14,-1,-1,-1,-1,16,18,20,22,24,26,28,30,32,34,36,38,40,42,44,46,48,50,52,54,56,-1,58,60,62,64,66,68,-1,-1,-1,-1,-1,-1,-1,-1,-1,-1,-1,-1,-1,-1,-1,-1,-1,-1,-1,-1,-1,-1,-1,-1,-1,-1,-1,-1,-1,-1],"split_conditions":[1.1535715E1,1.2342768E1,1.2501395E1,2E0,8.235625E0,1.226924E1,1.251884E1,-1.6786743E-2,-4.4961213E-3,-1.3523927E-1,-3.0948412E-1,2.2879158E-1,3.8431662E-1,1.2687504E1,1E0,1.232086E1,1E0,1.2518544E1,1.2046536E1,1.2685045E1,1.2713016E1,3.0771178E-1,2E0,1.2221506E1,4E0,1.2339115E1,3.7632355E-1,1.2290951E1,2.8091526E-1,1E0,4.697834E-1,1.2282906E1,-6.478336E-2,1.2360698E1,2.4166587E-1,1.2366601E1,1.3040335E1,2.8756863E-1,1.2962081E1,-8.443928E-3,-1.5772581E-3,9.954612E-3,2.64829E-3,-6.4830543E-3,5.1057437E-3,-1.2532423E-2,-5.655402E-3,-7.600356E-3,-9.773191E-4,-7.139254E-3,-2.5865603E-2,3.516674E-3,1.4741793E-2,5.885977E-3,-5.9692026E-3,-8.39197E-3,2.880964E-4,-1.03463335E-2,3.6271669E-3,5.9849885E-3,1.6967706E-2,2.1064854E-3,1.1646566E-2,-7.440615E-3,2.76047E-3,2.4595228E-3,-7.046656E-3,4.644498E-3,9.074093E-3],"split_indices":[3,5,8,0,3,4,4,0,0,0,0,12,12,9,0,6,0,9,3,9,6,10,0,4,0,3,10,5,10,0,11,5,0,3,10,6,4,11,4,0,0,0,0,0,0,0,0,0,0,0,0,0,0,0,0,0,0,0,0,0,0,0,0,0,0,0,0,0,0],"split_type":[0,0,0,0,0,0,0,0,0,0,0,0,0,0,0,0,0,0,0,0,0,0,0,0,0,0,0,0,0,0,0,0,0,0,0,0,0,0,0,0,0,0,0,0,0,0,0,0,0,0,0,0,0,0,0,0,0,0,0,0,0,0,0,0,0,0,0,0,0],"sum_hessian":[9.04E2,9E0,8.95E2,2E0,7E0,2.55E2,6.4E2,1E0,1E0,5E0,2E0,1.1E2,1.45E2,1.54E2,4.86E2,1.2E1,9.8E1,1.3E2,1.5E1,1.07E2,4.7E1,7.8E1,4.08E2,8E0,4E0,9E0,8.9E1,1.26E2,4E0,5E0,1E1,1.06E2,1E0,2.6E1,2.1E1,6.9E1,9E0,6.4E1,3.44E2,5E0,3E0,2E0,2E0,5E0,4E0,6.8E1,2.1E1,4.4E1,8.2E1,1E0,3E0,1E0,4E0,7E0,3E0,1.3E1,9.3E1,2E0,2.4E1,1.2E1,9E0,4E0,6.5E1,6E0,3E0,5.5E1,9E0,2.95E2,4.9E1],"tree_param":{"num_deleted":"0","num_feature":"13","num_nodes":"69","size_leaf_vector":"1"}},{"base_weights":[-6.846628E-3,-3.4332626E0,3.1703435E-2,-2.7667713E-1,-4.1878242E0,-9.404799E-2,8.440028E-2,-1.6367078E-2,-4.383707E-3,-1.296043E-1,-2.99168E-1,-1.5649879E-1,-4.952422E-2,4.6311896E-2,1.3361998E-1,-2.9822442E-1,-1.1723227E-1,-7.050625E-2,1.2494794E-1,-1.647919E-2,7.685686E-2,9.775548E-2,1.8353646E-1,-3.7380624E-1,-7.206508E-2,-1.8037106E-1,-3.1069856E-2,-6.1486796E-2,-2.2944642E-2,2.835242E-1,3.5247486E-2,1.6763968E-2,-2.2737437E-1,9.324908E-2,-3.6137704E-2,2.2364834E-1,8.518618E-2,2.655709E-1,1.5596788E-1,-1.0342252E-2,-2.3499727E-2,2.847636E-3,-9.153331E-3,7.526279E-5,-1.0500692E-2,7.4096397E-3,-4.5906594E-3,-6.2808483E-3,-1.2744154E-3,1.8073821E-2,4.2539914E-3,6.89166E-3,-4.5155208E-3,-2.4135755E-3,4.1372976E-3,-3.704796E-3,-6.316378E-2,3.390473E-3,7.838838E-3,-4.1319133E-4,-1.1111021E-2,1.8728264E-2,4.909362E-3,-2.9650629E-3,4.638995E-3,1.3972774E-2,-2.3856878E-3,1.1826621E-4,8.574631E-3],"categories":[],"categories_nodes":[],"categories_segments":[],"categories_sizes":[],"default_left":[0,0,0,0,0,0,0,0,0,0,0,0,0,0,0,0,0,0,0,0,0,0,0,0,0,0,0,0,0,0,0,0,0,0,0,0,0,0,0,0,0,0,0,0,0,0,0,0,0,0,0,0,0,0,0,0,0,0,0,0,0,0,0,0,0,0,0,0,0],"id":11,"left_children":[1,3,5,7,9,11,13,-1,-1,-1,-1,15,17,19,21,23,25,27,29,31,33,35,37,39,41,43,45,47,-1,49,51,53,55,57,59,61,63,65,67,-1,-1,-1,-1,-1,-1,-1,-1,-1,-1,-1,-1,-1,-1,-1,-1,-1,-1,-1,-1,-1,-1,-1,-1,-1,-1,-1,-1,-1,-1],"loss_changes":[1.1872436E2,2.2659714E1,5.899077E0,2.7805567E-5,7.4122467E0,7.235329E-1,1.1692476E0,0E0,0E0,0E0,0E0,5.7163167E-1,5.7623065E-1,6.821391E-1,4.7079086E-1,3.6621284E-1,4.676925E-1,4.5870626E-1,2.3182061E-1,8.2407784E-1,4.460534E-1,2.3571217E-1,2.1413732E-1,1.757989E-1,1.1067434E-1,2.6988196E-1,4.2738843E-1,3.13075E-1,0E0,6.2060744E-2,1.6701312E-1,4.4169357E-1,2.446898E0,3.2713807E-1,1.5895587E-1,2.2830135E-1,1.6788697E-1,1.3077915E-1,2.0705795E-1,0E0,0E0,0E0,0E0,0E0,0E0,0E0,0E0,0E0,0E0,0E0,0E0,0E0,0E0,0E0,0E0,0E0,0E0,0E0,0E0,0E0,0E0,0E0,0E0,0E0,0E0,0E0,0E0,0E0,0E0],"parents":[2147483647,0,0,1,1,2,2,3,3,4,4,5,5,6,6,11,11,12,12,13,13,14,14,15,15,16,16,17,17,18,18,19,19,20,20,21,21,22,22,23,23,24,24,25,25,26,26,27,27,29,29,30,30,31,31,32,32,33,33,34,34,35,35,36,36,37,37,38,38],"right_children":[2,4,6,8,10,12,14,-1,-1,-1,-1,16,18,20,22,24,26,28,30,32,34,36,38,40,42,44,46,48,-1,50,52,54,56,58,60,62,64,66,68,-1,-1,-1,-1,-1,-1,-1,-1,-1,-1,-1,-1,-1,-1,-1,-1,-1,-1,-1,-1,-1,-1,-1,-1,-1,-1,-1,-1,-1,-1],"split_conditions":[1.1535715E1,1.2342768E1,1.2504637E1,2E0,8.235625E0,1.2252894E1,1.2702347E1,-1.6367078E-2,-4.383707E-3,-1.296043E-1,-2.99168E-1,1.217475E1,3.947198E-1,1.251884E1,1.2758801E1,1.210754E1,1.2362499E1,1.1E1,1.2540577E1,1.2800842E1,6E0,1.2533539E1,1E0,1.2047479E1,3E0,1.210754E1,1.1954015E1,1.2290951E1,-2.2944642E-2,5.349942E-1,1.2431168E1,1.2538939E1,1.2652726E1,1.2850458E1,1.2804663E1,2.0677085E-1,1.2339115E1,3.552077E-1,2E0,-1.0342252E-2,-2.3499727E-2,2.847636E-3,-9.153331E-3,7.526279E-5,-1.0500692E-2,7.4096397E-3,-4.5906594E-3,-6.2808483E-3,-1.2744154E-3,1.8073821E-2,4.2539914E-3,6.89166E-3,-4.5155208E-3,-2.4135755E-3,4.1372976E-3,-3.704796E-3,-6.316378E-2,3.390473E-3,7.838838E-3,-4.1319133E-4,-1.1111021E-2,1.8728264E-2,4.909362E-3,-2.9650629E-3,4.638995E-3,1.3972774E-2,-2.3856878E-3,1.1826621E-4,8.574631E-3],"split_indices":[3,5,8,0,3,4,7,0,0,0,0,7,11,4,6,4,6,1,6,6,0,3,0,5,0,3,4,5,0,10,5,6,7,5,4,10,5,10,0,0,0,0,0,0,0,0,0,0,0,0,0,0,0,0,0,0,0,0,0,0,0,0,0,0,0,0,0,0,0],"split_type":[0,0,0,0,0,0,0,0,0,0,0,0,0,0,0,0,0,0,0,0,0,0,0,0,0,0,0,0,0,0,0,0,0,0,0,0,0,0,0,0,0,0,0,0,0,0,0,0,0,0,0,0,0,0,0,0,0,0,0,0,0,0,0,0,0,0,0,0,0],"sum_hessian":[8.97E2,9E0,8.88E2,2E0,7E0,2.62E2,6.26E2,1E0,1E0,5E0,2E0,1.08E2,1.54E2,3.54E2,2.72E2,2.2E1,8.6E1,1.38E2,1.6E1,1.16E2,2.38E2,1.6E2,1.12E2,1.6E1,6E0,4.9E1,3.7E1,1.36E2,2E0,5E0,1.1E1,1.01E2,1.5E1,2.08E2,3E1,1.3E1,1.47E2,2.6E1,8.6E1,7E0,9E0,3E0,3E0,7E0,4.2E1,9E0,2.8E1,4.8E1,8.8E1,3E0,2E0,6E0,5E0,5.1E1,5E1,1.4E1,1E0,1.5E2,5.8E1,2.7E1,3E0,5E0,8E0,7E0,1.4E2,2.5E1,1E0,8E0,7.8E1],"tree_param":{"num_deleted":"0","num_feature":"13","num_nodes":"69","size_leaf_vector":"1"}},{"base_weights":[-5.577264E-3,-3.6549504E0,3.125002E-2,-4.0320296E0,-1.5957905E-2,-9.488491E-2,8.024299E-2,-1.24204114E-1,-2.8919575E-1,-1.5913147E-1,-4.4900678E-2,3.634161E-2,1.20749526E-1,-9.591856E-2,-2.2657797E-1,-7.096882E-2,1.2759143E-1,1.1639707E-2,8.965962E-2,9.6031405E-2,1.8569976E-1,-1.1473128E-1,3.6002398E-2,-2.588316E-1,-1.6829014E-2,-6.01419E-2,-1.583106E-2,2.6399818E-1,4.4326928E-2,2.3314364E-2,-6.158469E-2,1.1472963E-1,-3.6540423E-2,1.293925E-1,5.5557676E-2,1.932952E-1,-5.0765513E-3,-7.2014504E-3,9.896135E-4,-5.8417637E-3,5.321042E-3,-1.3914605E-2,-2.3744584E-3,-9.206724E-3,6.019058E-3,-4.0024086E-3,1.8756889E-3,1.4314397E-2,3.256488E-3,3.8396001E-3,-8.631349E-3,2.3977063E-3,-2.3946424E-3,6.9011375E-3,-1.6324401E-3,5.1748073E-3,-6.1166375E-3,6.7499243E-3,-7.926639E-3,4.8432965E-3,-1.0609413E-3,1.1753516E-2,7.2614066E-3],"categories":[],"categories_nodes":[],"categories_segments":[],"categories_sizes":[],"default_left":[0,0,0,0,0,0,0,0,0,0,0,0,0,0,0,0,0,0,0,0,0,0,0,0,0,0,0,0,0,0,0,0,0,0,0,0,0,0,0,0,0,0,0,0,0,0,0,0,0,0,0,0,0,0,0,0,0,0,0,0,0,0,0],"id":12,"left_children":[1,3,5,7,-1,9,11,-1,-1,13,15,17,19,21,23,25,27,29,31,33,35,37,39,41,43,45,-1,47,49,51,-1,53,55,57,59,61,-1,-1,-1,-1,-1,-1,-1,-1,-1,-1,-1,-1,-1,-1,-1,-1,-1,-1,-1,-1,-1,-1,-1,-1,-1,-1,-1],"loss_changes":[1.2107106E2,1.0033867E1,5.519928E0,7.326874E0,0E0,7.956836E-1,1.1390543E0,0E0,0E0,4.429872E-1,6.4756495E-1,4.0724382E-1,5.1838636E-1,1.4807457E-1,3.4743285E-1,3.1075555E-1,2.0409673E-1,3.1205156E0,3.1424826E-1,3.2227206E-1,2.181549E-1,2.0385355E-1,9.853443E-2,1.7186141E-1,2.0581442E-1,2.3627818E-1,0E0,1.2383252E-2,1.0482089E-1,3.7425673E-1,0E0,2.860043E-1,2.1690002E-1,2.3607731E-1,3.572637E-1,1.4457369E-1,0E0,0E0,0E0,0E0,0E0,0E0,0E0,0E0,0E0,0E0,0E0,0E0,0E0,0E0,0E0,0E0,0E0,0E0,0E0,0E0,0E0,0E0,0E0,0E0,0E0,0E0,0E0],"parents":[2147483647,0,0,1,1,2,2,3,3,5,5,6,6,9,9,10,10,11,11,12,12,13,13,14,14,15,15,16,16,17,17,18,18,19,19,20,20,21,21,22,22,23,23,24,24,25,25,27,27,28,28,29,29,31,31,32,32,33,33,34,34,35,35],"right_children":[2,4,6,8,-1,10,12,-1,-1,14,16,18,20,22,24,26,28,30,32,34,36,38,40,42,44,46,-1,48,50,52,-1,54,56,58,60,62,-1,-1,-1,-1,-1,-1,-1,-1,-1,-1,-1,-1,-1,-1,-1,-1,-1,-1,-1,-1,-1,-1,-1,-1,-1,-1,-1],"split_conditions":[1.1535715E1,1.1E1,1.2501395E1,8.235625E0,-1.5957905E-2,1.226924E1,1.2680868E1,-1.24204114E-1,-2.8919575E-1,2.854895E-1,3.8431662E-1,1.2761318E1,1.2835443E1,1.2600755E1,1.2710153E1,1.2510975E1,1.2143178E1,1.27603245E1,1E0,7E0,3.552077E-1,2.763653E-1,1.9122456E-1,5.6359935E-1,1.2369377E1,1.2618748E1,-1.583106E-2,1.2297023E1,2E0,2.625408E-1,-6.158469E-2,2.9864368E-1,1.286276E1,3.568273E-1,1E0,1.2756475E1,-5.0765513E-3,-7.2014504E-3,9.896135E-4,-5.8417637E-3,5.321042E-3,-1.3914605E-2,-2.3744584E-3,-9.206724E-3,6.019058E-3,-4.0024086E-3,1.8756889E-3,1.4314397E-2,3.256488E-3,3.8396001E-3,-8.631349E-3,2.3977063E-3,-2.3946424E-3,6.9011375E-3,-1.6324401E-3,5.1748073E-3,-6.1166375E-3,6.7499243E-3,-7.926639E-3,4.8432965E-3,-1.0609413E-3,1.1753516E-2,7.2614066E-3],"split_indices":[3,1,8,3,0,4,7,0,0,11,12,5,5,3,3,9,3,5,2,1,10,11,11,10,9,5,0,7,1,11,0,12,5,11,2,3,0,0,0,0,0,0,0,0,0,0,0,0,0,0,0,0,0,0,0,0,0,0,0,0,0,0,0],"split_type":[0,0,0,0,0,0,0,0,0,0,0,0,0,0,0,0,0,0,0,0,0,0,0,0,0,0,0,0,0,0,0,0,0,0,0,0,0,0,0,0,0,0,0,0,0,0,0,0,0,0,0,0,0,0,0,0,0,0,0,0,0,0,0],"sum_hessian":[8.99E2,8E0,8.91E2,7E0,1E0,2.49E2,6.42E2,5E0,2E0,1.08E2,1.41E2,3.09E2,3.33E2,5.7E1,5.1E1,1.23E2,1.8E1,2.12E2,9.7E1,2.43E2,9E1,5E1,7E0,4.4E1,7E0,1.19E2,4E0,6E0,1.2E1,2.11E2,1E0,8.1E1,1.6E1,1.32E2,1.11E2,8.8E1,2E0,4.1E1,9E0,2E0,5E0,4E1,4E0,3E0,4E0,9.9E1,2E1,5E0,1E0,1.1E1,1E0,1.57E2,5.4E1,7E1,1.1E1,6E0,1E1,1.3E2,2E0,7.2E1,3.9E1,4.5E1,4.3E1],"tree_param":{"num_deleted":"0","num_feature":"13","num_nodes":"63","size_leaf_vector":"1"}},{"base_weights":[-5.528396E-3,-3.6255503E0,2.6655719E-2,2.9557943E-3,-4.160376E0,-9.3072355E-2,6.86193E-2,-1.23492815E-1,-2.795559E-1,-1.139406E-1,8.5943796E-2,2.4677463E-2,1.06937386E-1,-3.9715704E-1,-9.628966E-2,2.1871632E-1,-5.34398E-2,3.7349574E-2,-8.737069E-2,8.2979746E-2,1.7005128E-1,1.1942227E-2,-4.801711E-1,-1.4835812E-1,-5.1043466E-2,2.7104738E-1,8.077717E-2,3.3508938E-2,-1.1197138E-1,1.4815514E-3,8.146118E-2,-4.3310818E-1,9.0728905E-3,1.05513334E-1,3.849934E-2,1.8271782E-1,2.5898721E-2,-4.5011044E-3,5.3967717E-3,-4.7325613E-3,-2.5624493E-2,-9.59168E-3,-3.6037117E-3,-3.6373492E-3,3.4706704E-3,6.7728716E-3,1.7621394E-2,6.2795007E-3,4.519304E-4,-1.1961778E-3,3.4103037E-3,1.4163256E-3,-6.803029E-3,-1.9687254E-3,3.7570954E-3,4.471708E-3,-1.3762124E-2,-5.2496195E-3,-6.0045075E-2,3.5088595E-3,-4.7855857E-3,6.4737233E-3,2.386427E-3,5.5992557E-3,-2.5132063E-3,7.332764E-3,1.2802246E-2,-5.3856536E-3,1.09920865E-2],"categories":[],"categories_nodes":[],"categories_segments":[],"categories_sizes":[],"default_left":[0,0,0,0,0,0,0,0,0,0,0,0,0,0,0,0,0,0,0,0,0,0,0,0,0,0,0,0,0,0,0,0,0,0,0,0,0,0,0,0,0,0,0,0,0,0,0,0,0,0,0,0,0,0,0,0,0,0,0,0,0,0,0,0,0,0,0,0,0],"id":13,"left_children":[1,3,5,-1,7,9,11,-1,-1,13,15,17,19,21,23,25,27,29,31,33,35,37,39,41,43,45,47,49,51,53,55,57,59,61,63,65,67,-1,-1,-1,-1,-1,-1,-1,-1,-1,-1,-1,-1,-1,-1,-1,-1,-1,-1,-1,-1,-1,-1,-1,-1,-1,-1,-1,-1,-1,-1,-1,-1],"loss_changes":[1.0576867E2,1.6011192E1,4.528184E0,0E0,3.1216125E0,8.839588E-1,1.1204338E0,0E0,0E0,1.0115554E0,4.7434604E-1,4.462679E-1,5.241828E-1,4.132663E-1,4.612515E-1,7.1946084E-2,6.991224E-2,4.444765E-1,1.0709429E0,2.5653672E-1,1.723814E-1,3.9080217E-2,7.608724E-2,2.912898E-1,2.873981E-1,5.1570415E-2,1.49388835E-2,1.3588188E-2,3.0891433E-2,4.724362E-1,3.82959E-1,1.6373903E0,1.7318931E-1,2.319696E-1,5.861627E-1,1.9779801E-1,2.5689745E-1,0E0,0E0,0E0,0E0,0E0,0E0,0E0,0E0,0E0,0E0,0E0,0E0,0E0,0E0,0E0,0E0,0E0,0E0,0E0,0E0,0E0,0E0,0E0,0E0,0E0,0E0,0E0,0E0,0E0,0E0,0E0,0E0],"parents":[2147483647,0,0,1,1,2,2,4,4,5,5,6,6,9,9,10,10,11,11,12,12,13,13,14,14,15,15,16,16,17,17,18,18,19,19,20,20,21,21,22,22,23,23,24,24,25,25,26,26,27,27,28,28,29,29,30,30,31,31,32,32,33,33,34,34,35,35,36,36],"right_children":[2,4,6,-1,8,10,12,-1,-1,14,16,18,20,22,24,26,28,30,32,34,36,38,40,42,44,46,48,50,52,54,56,58,60,62,64,66,68,-1,-1,-1,-1,-1,-1,-1,-1,-1,-1,-1,-1,-1,-1,-1,-1,-1,-1,-1,-1,-1,-1,-1,-1,-1,-1,-1,-1,-1,-1,-1,-1],"split_conditions":[1.1535715E1,9E0,1.24869795E1,2.9557943E-3,8.235625E0,1.2690776E1,1.2666968E1,-1.23492815E-1,-2.795559E-1,1.1931984E1,1.2354379E1,1.2652726E1,1.2835443E1,1.1658767E1,1.2240552E1,3E0,1.2390021E1,1.2644027E1,1.2500853E1,1E0,1.30782E1,1.1954015E1,2.4149868E-1,1.2358942E1,3.7248573E-1,1.2287396E1,1.2066108E1,1.2398462E1,1.1952757E1,1.2690978E1,1.2744342E1,1.2495683E1,1.2735133E1,2.238416E-1,1.2732391E1,1.2947495E1,1.2927685E1,-4.5011044E-3,5.3967717E-3,-4.7325613E-3,-2.5624493E-2,-9.59168E-3,-3.6037117E-3,-3.6373492E-3,3.4706704E-3,6.7728716E-3,1.7621394E-2,6.2795007E-3,4.519304E-4,-1.1961778E-3,3.4103037E-3,1.4163256E-3,-6.803029E-3,-1.9687254E-3,3.7570954E-3,4.471708E-3,-1.3762124E-2,-5.2496195E-3,-6.0045075E-2,3.5088595E-3,-4.7855857E-3,6.4737233E-3,2.386427E-3,5.5992557E-3,-2.5132063E-3,7.332764E-3,1.2802246E-2,-5.3856536E-3,1.09920865E-2],"split_indices":[3,1,8,0,3,4,7,0,0,3,8,7,5,6,4,1,5,6,4,2,4,4,12,9,12,9,3,3,3,5,8,4,4,11,8,4,6,0,0,0,0,0,0,0,0,0,0,0,0,0,0,0,0,0,0,0,0,0,0,0,0,0,0,0,0,0,0,0,0],"split_type":[0,0,0,0,0,0,0,0,0,0,0,0,0,0,0,0,0,0,0,0,0,0,0,0,0,0,0,0,0,0,0,0,0,0,0,0,0,0,0,0,0,0,0,0,0,0,0,0,0,0,0,0,0,0,0,0,0,0,0,0,0,0,0,0,0,0,0,0,0],"sum_hessian":[9.06E2,7E0,8.99E2,1E0,6E0,2.33E2,6.66E2,4E0,2E0,2.09E2,2.4E1,3.11E2,3.55E2,1.1E1,1.98E2,1.2E1,1.2E1,2.8E2,3.1E1,2.59E2,9.6E1,2E0,9E0,9.1E1,1.07E2,8E0,4E0,5E0,7E0,1.55E2,1.25E2,6E0,2.5E1,1.71E2,8.8E1,8.8E1,8E0,1E0,1E0,1E0,8E0,5.7E1,3.4E1,9.1E1,1.6E1,4E0,4E0,2E0,2E0,2E0,3E0,1E0,6E0,1E2,5.5E1,1.23E2,2E0,5E0,1E0,1.6E1,9E0,1.2E2,5.1E1,4.8E1,4E1,6.1E1,2.7E1,5E0,3E0],"tree_param":{"num_deleted":"0","num_feature":"13","num_nodes":"69","size_leaf_vector":"1"}},{"base_weights":[-8.134105E-3,2.573465E-2,-3.018253E0,-8.662438E-2,7.056713E-2,-5.0380393E-3,-3.7350311E0,-1.5146784E-1,-3.683537E-2,3.5941813E-2,1.1647573E-1,-1.138834E-1,-2.7023733E-1,-2.6148722E-1,-1.1937667E-1,-5.6212623E-2,1.2290704E-1,1.2814585E-2,1.04178675E-1,9.320877E-2,1.7778543E-1,-1.0742075E-1,-3.6386177E-1,-1.9202258E-1,-2.0648455E-2,-4.1079983E-2,-2.1315632E-2,2.4541733E-1,2.4859142E-2,3.2985035E-2,-7.354415E-2,2.1990024E-1,7.5016454E-2,9.958468E-2,-5.316713E-2,-3.895251E-3,1.8596995E-1,-1.0581269E-2,2.9974938E-3,-2.2240384E-2,-9.089963E-3,-1.218059E-2,-4.3387203E-3,1.1344338E-2,-3.2514574E-3,-2.9229175E-3,2.697413E-3,7.24473E-3,1.6557472E-2,3.270467E-3,-8.502317E-3,-3.931515E-3,2.5756145E-3,-1.10036535E-2,1.9574165E-4,1.5320718E-2,6.849497E-3,5.151274E-3,-5.867238E-3,6.6016945E-3,2.8591761E-3,2.3640823E-3,-7.149124E-3,-5.21462E-3,9.576353E-3],"categories":[],"categories_nodes":[],"categories_segments":[],"categories_sizes":[],"default_left":[0,0,0,0,0,0,0,0,0,0,0,0,0,0,0,0,0,0,0,0,0,0,0,0,0,0,0,0,0,0,0,0,0,0,0,0,0,0,0,0,0,0,0,0,0,0,0,0,0,0,0,0,0,0,0,0,0,0,0,0,0,0,0,0,0],"id":14,"left_children":[1,3,5,7,9,-1,11,13,15,17,19,-1,-1,21,23,25,27,29,31,33,35,37,39,41,43,45,-1,47,49,51,53,55,57,59,61,-1,63,-1,-1,-1,-1,-1,-1,-1,-1,-1,-1,-1,-1,-1,-1,-1,-1,-1,-1,-1,-1,-1,-1,-1,-1,-1,-1,-1,-1],"loss_changes":[9.162786E1,4.4843025E0,2.0535591E1,8.144578E-1,1.0067992E0,0E0,7.1568375E0,3.5715628E-1,4.5573753E-1,5.7310414E-1,3.7286067E-1,0E0,0E0,3.3945334E-1,6.2001646E-1,7.1056384E-1,1.8608917E-1,4.779631E-1,2.9397613E-1,1.9195056E-1,1.6934824E-1,2.0453565E-1,1.2545538E-1,2.5034428E-1,4.3221402E-1,2.1123457E-1,0E0,1.234439E-2,9.015717E-2,4.6312988E-1,5.910605E-1,8.7136745E-2,4.161783E-1,2.5661957E-1,8.795703E-2,0E0,1.3611197E-1,0E0,0E0,0E0,0E0,0E0,0E0,0E0,0E0,0E0,0E0,0E0,0E0,0E0,0E0,0E0,0E0,0E0,0E0,0E0,0E0,0E0,0E0,0E0,0E0,0E0,0E0,0E0,0E0],"parents":[2147483647,0,0,1,1,2,2,3,3,4,4,6,6,7,7,8,8,9,9,10,10,13,13,14,14,15,15,16,16,17,17,18,18,19,19,20,20,21,21,22,22,23,23,24,24,25,25,27,27,28,28,29,29,30,30,31,31,32,32,33,33,34,34,36,36],"right_children":[2,4,6,8,10,-1,12,14,16,18,20,-1,-1,22,24,26,28,30,32,34,36,38,40,42,44,46,-1,48,50,52,54,56,58,60,62,-1,64,-1,-1,-1,-1,-1,-1,-1,-1,-1,-1,-1,-1,-1,-1,-1,-1,-1,-1,-1,-1,-1,-1,-1,-1,-1,-1,-1,-1],"split_conditions":[8.3187103E-1,1.2501395E1,2E0,1.226924E1,1.2702347E1,-5.0380393E-3,8.235625E0,1.217475E1,3.8431662E-1,1.2812494E1,1.2870745E1,-1.138834E-1,-2.7023733E-1,2.9478398E-1,1.2362499E1,1.2518544E1,1.2143178E1,1.2673641E1,4E0,3.0415207E-1,1.2384723E1,1.2240634E1,1.2066108E1,1.2514499E1,1.2431168E1,1.2665999E1,-2.1315632E-2,4.697834E-1,2E0,1.2348337E1,1.2696466E1,2.802997E-1,2.8214866E-1,7E0,1.2759767E1,-3.895251E-3,1.1990712E1,-1.0581269E-2,2.9974938E-3,-2.2240384E-2,-9.089963E-3,-1.218059E-2,-4.3387203E-3,1.1344338E-2,-3.2514574E-3,-2.9229175E-3,2.697413E-3,7.24473E-3,1.6557472E-2,3.270467E-3,-8.502317E-3,-3.931515E-3,2.5756145E-3,-1.10036535E-2,1.9574165E-4,1.5320718E-2,6.849497E-3,5.151274E-3,-5.867238E-3,6.6016945E-3,2.8591761E-3,2.3640823E-3,-7.149124E-3,-5.21462E-3,9.576353E-3],"split_indices":[11,8,1,4,7,0,3,7,12,5,6,0,0,11,6,9,3,8,1,11,3,5,4,3,6,4,0,11,1,4,8,12,12,1,4,0,5,0,0,0,0,0,0,0,0,0,0,0,0,0,0,0,0,0,0,0,0,0,0,0,0,0,0,0,0],"split_type":[0,0,0,0,0,0,0,0,0,0,0,0,0,0,0,0,0,0,0,0,0,0,0,0,0,0,0,0,0,0,0,0,0,0,0,0,0,0,0,0,0,0,0,0,0,0,0,0,0,0,0,0,0,0,0,0,0,0,0,0,0,0,0,0,0],"sum_hessian":[8.97E2,8.88E2,9E0,2.53E2,6.35E2,2E0,7E0,1.09E2,1.44E2,3.63E2,2.72E2,5E0,2E0,2.3E1,8.6E1,1.29E2,1.5E1,2.72E2,9.1E1,1.99E2,7.3E1,1E1,1.3E1,4.9E1,3.7E1,1.25E2,4E0,6E0,9E0,2.21E2,5.1E1,1.7E1,7.4E1,1.91E2,8E0,2E0,7.1E1,6E0,4E0,8E0,5E0,3.2E1,1.7E1,5E0,3.2E1,1.06E2,1.9E1,4E0,2E0,8E0,1E0,3.1E1,1.9E2,1.7E1,3.4E1,7E0,1E1,6.5E1,9E0,1.07E2,8.4E1,4E0,4E0,1E0,7E1],"tree_param":{"num_deleted":"0","num_feature":"13","num_nodes":"65","size_leaf_vector":"1"}},{"base_weights":[5.5793254E-4,-2.5638556E0,2.3301559E-2,-1.4856285E-1,7.1988343E-3,-8.512234E-2,6.710702E-2,-7.7489026E-2,-3.1588566E-1,2.7311746E-2,1.03841834E-1,-1.217907E-1,-3.59565E-2,-1.5821981E-1,-1.8942062E-2,4.5052215E-2,-7.046024E-2,7.0525475E-2,1.5493111E-1,-1.9921774E-1,-6.1427496E-2,-2.7440973E-2,-1.9648856E-2,3.6886693E-3,-1.30071E-2,6.038723E-2,-9.1223754E-2,-2.8543368E-1,1.1652096E-3,-1.5022294E-1,7.68268E-2,1.0391515E-1,1.952926E-1,-4.6487516E-3,-1.3039492E-2,-2.4448177E-3,-1.6249545E-2,-2.1293089E-3,7.9280045E-3,-2.5948903E-3,3.7839261E-3,-1.388318E-2,-6.043315E-4,-4.9747727E-3,-5.8268856E-2,3.6949979E-3,-6.939947E-3,5.858263E-4,-1.17060905E-2,2.6017292E-3,6.299924E-3,8.422291E-3,2.6504544E-3,1.623397E-2,8.93054E-3],"categories":[],"categories_nodes":[],"categories_segments":[],"categories_sizes":[],"default_left":[0,0,0,0,0,0,0,0,0,0,0,0,0,0,0,0,0,0,0,0,0,0,0,0,0,0,0,0,0,0,0,0,0,0,0,0,0,0,0,0,0,0,0,0,0,0,0,0,0,0,0,0,0,0,0],"id":15,"left_children":[1,3,5,-1,-1,7,9,11,13,15,17,19,21,23,-1,25,27,29,31,33,35,37,-1,-1,-1,39,41,43,45,47,49,51,53,-1,-1,-1,-1,-1,-1,-1,-1,-1,-1,-1,-1,-1,-1,-1,-1,-1,-1,-1,-1,-1,-1],"loss_changes":[5.307632E1,9.253185E0,4.2898145E0,0E0,0E0,4.335097E-1,9.3714786E-1,4.6113086E-1,1.9467354E-2,5.408759E-1,5.575776E-1,5.5795944E-1,3.9052504E-1,1.1377258E-1,0E0,5.5512464E-1,7.3941594E-1,2.9530704E-1,2.4944568E-1,3.2245708E-1,2.1530172E-1,3.7296557E-1,0E0,0E0,0E0,4.1085237E-1,3.950104E-1,1.8474317E0,3.869267E-1,8.42623E-2,2.3603964E-1,1.8817091E-1,9.741402E-2,0E0,0E0,0E0,0E0,0E0,0E0,0E0,0E0,0E0,0E0,0E0,0E0,0E0,0E0,0E0,0E0,0E0,0E0,0E0,0E0,0E0,0E0],"parents":[2147483647,0,0,1,1,2,2,5,5,6,6,7,7,8,8,9,9,10,10,11,11,12,12,13,13,15,15,16,16,17,17,18,18,19,19,20,20,21,21,25,25,26,26,27,27,28,28,29,29,30,30,31,31,32,32],"right_children":[2,4,6,-1,-1,8,10,12,14,16,18,20,22,24,-1,26,28,30,32,34,36,38,-1,-1,-1,40,42,44,46,48,50,52,54,-1,-1,-1,-1,-1,-1,-1,-1,-1,-1,-1,-1,-1,-1,-1,-1,-1,-1,-1,-1,-1,-1],"split_conditions":[1.2012448E1,1.1E1,1.2501395E1,-1.4856285E-1,7.1988343E-3,1.1E1,1.2677668E1,1.2290951E1,1.2303453E1,1.2681405E1,1.2758801E1,1.2279569E1,1.2561238E1,3E0,-1.8942062E-2,1.2E1,1.2696466E1,1.21997385E1,1.2743233E1,1.1970223E1,1.2282906E1,1.2889811E1,-1.9648856E-2,3.6886693E-3,-1.30071E-2,1.232137E1,1.2511569E1,1E1,1.27284565E1,1.2083379E1,1.2780531E1,1.2709151E1,1.2685896E1,-4.6487516E-3,-1.3039492E-2,-2.4448177E-3,-1.6249545E-2,-2.1293089E-3,7.9280045E-3,-2.5948903E-3,3.7839261E-3,-1.388318E-2,-6.043315E-4,-4.9747727E-3,-5.8268856E-2,3.6949979E-3,-6.939947E-3,5.858263E-4,-1.17060905E-2,2.6017292E-3,6.299924E-3,8.422291E-3,2.6504544E-3,1.623397E-2,8.93054E-3],"split_indices":[7,1,8,0,0,1,7,5,8,8,6,8,9,0,0,1,8,6,5,5,5,6,0,0,0,5,6,1,8,6,7,9,9,0,0,0,0,0,0,0,0,0,0,0,0,0,0,0,0,0,0,0,0,0,0],"split_type":[0,0,0,0,0,0,0,0,0,0,0,0,0,0,0,0,0,0,0,0,0,0,0,0,0,0,0,0,0,0,0,0,0,0,0,0,0,0,0,0,0,0,0,0,0,0,0,0,0,0,0,0,0,0,0],"sum_hessian":[9.08E2,7E0,9.01E2,6E0,1E0,2.59E2,6.42E2,2.52E2,7E0,3.09E2,3.33E2,1.21E2,1.31E2,3E0,4E0,2.62E2,4.7E1,2.03E2,1.3E2,5.2E1,6.9E1,1.29E2,2E0,1E0,2E0,2.36E2,2.6E1,1.1E1,3.6E1,5E0,1.98E2,5.9E1,7.1E1,2E1,3.2E1,6.7E1,2E0,1.2E2,9E0,2.8E1,2.08E2,7E0,1.9E1,1E1,1E0,2.4E1,1.2E1,2E0,3E0,1.33E2,6.5E1,2.5E1,3.4E1,6E0,6.5E1],"tree_param":{"num_deleted":"0","num_feature":"13","num_nodes":"55","size_leaf_vector":"1"}},{"base_weights":[9.6721144E-4,2.4048455E-2,-2.900813E0,-8.802736E-2,6.1767396E-2,-3.1262395E0,-3.870635E-2,-1.4712623E-1,-4.1831978E-2,1.9742472E-2,9.726259E-2,-4.6178687E-2,-1.6910289E-1,-5.761746E-2,-1.8082793E-1,-6.472139E-2,1.6210842E-1,4.5318462E-2,-3.1101573E-2,4.979027E-2,1.2390355E-1,1.1295319E-2,-8.811569E-2,-2.0621397E-1,-2.5919741E-2,-1.1319164E-1,1.2115033E-2,2.2512388E-1,-3.5957336E-2,-9.7094536E-2,5.5627793E-2,1.1773497E-2,-3.536457E-1,1.0115977E-1,9.549038E-3,1.303712E-1,-1.3712819E-1,-2.2832688E-3,-1.1100292E-2,-8.042702E-3,-1.4781495E-2,-3.1868361E-3,8.806253E-3,-2.0712144E-3,-9.398113E-3,-3.3711928E-3,5.7454924E-3,6.767114E-3,1.4391852E-2,-7.81622E-3,2.8136573E-3,1.1886529E-3,-9.5358435E-3,5.33953E-4,5.1451656E-3,-2.303315E-3,4.6828534E-3,-4.412651E-2,-7.98079E-3,2.3567565E-3,8.673984E-3,-3.3777503E-3,1.6865078E-3,9.7735E-3,5.6174262E-3,-7.89589E-3,-8.295059E-4],"categories":[],"categories_nodes":[],"categories_segments":[],"categories_sizes":[],"default_left":[0,0,0,0,0,0,0,0,0,0,0,0,0,0,0,0,0,0,0,0,0,0,0,0,0,0,0,0,0,0,0,0,0,0,0,0,0,0,0,0,0,0,0,0,0,0,0,0,0,0,0,0,0,0,0,0,0,0,0,0,0,0,0,0,0,0,0],"id":16,"left_children":[1,3,5,7,9,11,-1,13,15,17,19,-1,-1,21,23,25,27,29,31,33,35,-1,37,39,41,43,45,47,49,51,53,55,57,59,61,63,65,-1,-1,-1,-1,-1,-1,-1,-1,-1,-1,-1,-1,-1,-1,-1,-1,-1,-1,-1,-1,-1,-1,-1,-1,-1,-1,-1,-1,-1,-1],"loss_changes":[5.9411118E1,3.7255325E0,9.3577194E-1,5.9992635E-1,9.8109865E-1,2.5731277E-1,0E0,2.8219128E-1,5.9866947E-1,3.9542663E-1,4.4533157E-1,0E0,0E0,2.6202124E-1,2.699306E-1,4.259394E-1,1.7035052E-1,3.019741E-1,1.4147322E0,2.677663E-1,4.028015E-1,0E0,1.3763766E-1,1.9580078E-1,9.527361E-2,3.6784005E-1,3.75676E-1,1.734835E-2,5.320291E-2,1.629566E-1,4.0052134E-1,4.353022E-1,1.090567E0,2.1452528E-1,1.4024882E-1,2.3967505E-1,1.2415759E-2,0E0,0E0,0E0,0E0,0E0,0E0,0E0,0E0,0E0,0E0,0E0,0E0,0E0,0E0,0E0,0E0,0E0,0E0,0E0,0E0,0E0,0E0,0E0,0E0,0E0,0E0,0E0,0E0,0E0,0E0],"parents":[2147483647,0,0,1,1,2,2,3,3,4,4,5,5,7,7,8,8,9,9,10,10,13,13,14,14,15,15,16,16,17,17,18,18,19,19,20,20,22,22,23,23,24,24,25,25,26,26,27,27,28,28,29,29,30,30,31,31,32,32,33,33,34,34,35,35,36,36],"right_children":[2,4,6,8,10,12,-1,14,16,18,20,-1,-1,22,24,26,28,30,32,34,36,-1,38,40,42,44,46,48,50,52,54,56,58,60,62,64,66,-1,-1,-1,-1,-1,-1,-1,-1,-1,-1,-1,-1,-1,-1,-1,-1,-1,-1,-1,-1,-1,-1,-1,-1,-1,-1,-1,-1,-1,-1],"split_conditions":[6.385607E-1,1.247465E1,5E0,1.2252894E1,1.2666968E1,1E0,-3.870635E-2,2.7835947E-1,3.8431662E-1,2.4639627E-1,1.2684728E1,-4.6178687E-2,-1.6910289E-1,1.221568E1,6E0,1.2443523E1,1.2651083E1,1.2282906E1,1.2652726E1,1.2564205E1,3.3460844E-1,1.1295319E-2,2.7663112E-1,1.2328586E1,1.2521603E1,1.2367855E1,1.2510109E1,4.118148E-1,1.2832228E1,1.2594146E1,1.2599304E1,1.2713016E1,1.2656359E1,1.2646181E1,1.8921886E-1,1E0,2E0,-2.2832688E-3,-1.1100292E-2,-8.042702E-3,-1.4781495E-2,-3.1868361E-3,8.806253E-3,-2.0712144E-3,-9.398113E-3,-3.3711928E-3,5.7454924E-3,6.767114E-3,1.4391852E-2,-7.81622E-3,2.8136573E-3,1.1886529E-3,-9.5358435E-3,5.33953E-4,5.1451656E-3,-2.303315E-3,4.6828534E-3,-4.412651E-2,-7.98079E-3,2.3567565E-3,8.673984E-3,-3.3777503E-3,1.6865078E-3,9.7735E-3,5.6174262E-3,-7.89589E-3,-8.295059E-4],"split_indices":[10,7,0,4,7,0,0,12,12,10,4,0,0,7,0,6,3,5,7,4,10,0,10,8,3,9,4,11,3,3,3,6,7,5,12,0,0,0,0,0,0,0,0,0,0,0,0,0,0,0,0,0,0,0,0,0,0,0,0,0,0,0,0,0,0,0,0],"split_type":[0,0,0,0,0,0,0,0,0,0,0,0,0,0,0,0,0,0,0,0,0,0,0,0,0,0,0,0,0,0,0,0,0,0,0,0,0,0,0,0,0,0,0,0,0,0,0,0,0,0,0,0,0,0,0,0,0,0,0,0,0,0,0,0,0,0,0],"sum_hessian":[8.85E2,8.79E2,6E0,2.21E2,6.58E2,5E0,1E0,9.6E1,1.25E2,3.02E2,3.56E2,1E0,4E0,2.7E1,6.9E1,1.13E2,1.2E1,2.01E2,1.01E2,1.29E2,2.27E2,2E0,2.5E1,5.9E1,1E1,6.9E1,4.4E1,9E0,3E0,1.3E1,1.88E2,9E1,1.1E1,5.6E1,7.3E1,2.22E2,5E0,2E1,5E0,4.1E1,1.8E1,9E0,1E0,3.6E1,3.3E1,2.5E1,1.9E1,5E0,4E0,1E0,2E0,6E0,7E0,9.7E1,9.1E1,5.3E1,3.7E1,2E0,9E0,3.3E1,2.3E1,1.7E1,5.6E1,4.6E1,1.76E2,4E0,1E0],"tree_param":{"num_deleted":"0","num_feature":"13","num_nodes":"67","size_leaf_vector":"1"}},{"base_weights":[-8.960444E-5,1.9300517E-2,-2.1281443E0,-7.924729E-2,5.4607768E-2,-4.440925E-1,-3.0497565E0,-1.2738913E-1,-2.7421901E-2,1.4386703E-1,3.9552417E-2,-4.447047E-3,-3.773868E-2,-4.5024216E-2,-1.6809769E-1,-8.481912E-2,-1.8529077E-1,-5.513899E-2,1.126068E-1,1.6200246E-1,-6.907225E-2,-2.6093891E-3,5.7706103E-2,-1.05032444E-1,2.8001213E-1,-1.0129521E-1,-2.4262221E-1,-3.065929E-2,-3.5850388E-1,2.67145E-1,3.83328E-2,7.546136E-2,2.0247987E-1,-1.5844488E-1,1.326971E-1,1.059281E-2,-1.0669994E-1,-4.4663064E-3,7.000086E-2,-7.2247065E-3,-4.916373E-4,2.0200014E-2,-2.2988082E-3,-1.3656489E-3,-1.13675E-2,-2.2243394E-2,-1.0108794E-2,1.8687452E-3,-4.223673E-3,-2.0604737E-2,-9.239674E-4,4.699485E-3,1.6511261E-2,9.294478E-3,-8.753936E-5,1.6591251E-4,7.6260264E-3,1.2133326E-2,8.559031E-3,-1.1892541E-2,-2.9639602E-3,1.7288923E-3,8.223391E-3,-3.740643E-3,1.5840114E-3,-1.11080175E-2,-2.4797746E-3,-9.285136E-3,5.231178E-4,2.7200112E-3,7.5279013E-3],"categories":[],"categories_nodes":[],"categories_segments":[],"categories_sizes":[],"default_left":[0,0,0,0,0,0,0,0,0,0,0,0,0,0,0,0,0,0,0,0,0,0,0,0,0,0,0,0,0,0,0,0,0,0,0,0,0,0,0,0,0,0,0,0,0,0,0,0,0,0,0,0,0,0,0,0,0,0,0,0,0,0,0,0,0,0,0,0,0,0,0],"id":17,"left_children":[1,3,5,7,9,11,13,15,17,19,21,-1,-1,-1,-1,23,25,27,29,31,33,35,37,39,41,43,45,47,49,51,53,55,57,59,61,63,65,67,69,-1,-1,-1,-1,-1,-1,-1,-1,-1,-1,-1,-1,-1,-1,-1,-1,-1,-1,-1,-1,-1,-1,-1,-1,-1,-1,-1,-1,-1,-1,-1,-1],"loss_changes":[3.6559036E1,3.0592864E0,1.106197E1,5.753399E-1,8.637674E-1,3.742252E-1,3.2759476E-1,2.8006864E-1,4.4478327E-1,3.7033212E-1,4.249434E-1,0E0,0E0,0E0,0E0,5.529964E-1,2.1620297E-1,6.945053E-1,2.0784481E-1,2.8597498E-1,1.6528645E-1,2.3199993E-1,2.9689777E-1,2.5403768E-1,1.8024912E-1,1.9895828E-1,1.4728117E-1,3.290043E-1,1.1994016E-1,3.4498304E-2,8.312991E-2,1.607132E-1,3.1413317E-2,3.3146456E-2,3.6650114E-3,2.725178E-1,1.1425458E-1,1.7780797E-1,3.9899445E-1,0E0,0E0,0E0,0E0,0E0,0E0,0E0,0E0,0E0,0E0,0E0,0E0,0E0,0E0,0E0,0E0,0E0,0E0,0E0,0E0,0E0,0E0,0E0,0E0,0E0,0E0,0E0,0E0,0E0,0E0,0E0,0E0],"parents":[2147483647,0,0,1,1,2,2,3,3,4,4,5,5,6,6,7,7,8,8,9,9,10,10,15,15,16,16,17,17,18,18,19,19,20,20,21,21,22,22,23,23,24,24,25,25,26,26,27,27,28,28,29,29,30,30,31,31,32,32,33,33,34,34,35,35,36,36,37,37,38,38],"right_children":[2,4,6,8,10,12,14,16,18,20,22,-1,-1,-1,-1,24,26,28,30,32,34,36,38,40,42,44,46,48,50,52,54,56,58,60,62,64,66,68,70,-1,-1,-1,-1,-1,-1,-1,-1,-1,-1,-1,-1,-1,-1,-1,-1,-1,-1,-1,-1,-1,-1,-1,-1,-1,-1,-1,-1,-1,-1,-1,-1],"split_conditions":[8.3187103E-1,1.24869795E1,1.26318245E1,1.2356763E1,1E0,5E0,1E0,2.9864368E-1,3.8431662E-1,3.2361373E-1,1.2621285E1,-4.447047E-3,-3.773868E-2,-4.5024216E-2,-1.6809769E-1,3.1644925E-1,1.2232623E1,1.2510975E1,1.2026231E1,1.2696064E1,1.29903965E1,1.2610409E1,2E0,1.2501068E1,7E0,5E0,1.1931984E1,2.7014798E-1,4E0,4.1459563E-1,1.2495701E1,1.9878091E-1,1.2892909E1,5E0,3E0,1.2311694E1,1.2613368E1,1.2078442E-1,1.2938934E1,-7.2247065E-3,-4.916373E-4,2.0200014E-2,-2.2988082E-3,-1.3656489E-3,-1.13675E-2,-2.2243394E-2,-1.0108794E-2,1.8687452E-3,-4.223673E-3,-2.0604737E-2,-9.239674E-4,4.699485E-3,1.6511261E-2,9.294478E-3,-8.753936E-5,1.6591251E-4,7.6260264E-3,1.2133326E-2,8.559031E-3,-1.1892541E-2,-2.9639602E-3,1.7288923E-3,8.223391E-3,-3.740643E-3,1.5840114E-3,-1.11080175E-2,-2.4797746E-3,-9.285136E-3,5.231178E-4,2.7200112E-3,7.5279013E-3],"split_indices":[11,8,6,6,0,0,0,12,12,10,8,0,0,0,0,11,9,9,3,6,6,8,0,3,1,0,3,12,0,10,6,11,6,1,1,5,8,10,3,0,0,0,0,0,0,0,0,0,0,0,0,0,0,0,0,0,0,0,0,0,0,0,0,0,0,0,0,0,0,0,0],"split_type":[0,0,0,0,0,0,0,0,0,0,0,0,0,0,0,0,0,0,0,0,0,0,0,0,0,0,0,0,0,0,0,0,0,0,0,0,0,0,0,0,0,0,0,0,0,0,0,0,0,0,0,0,0,0,0,0,0,0,0,0,0,0,0,0,0,0,0,0,0,0,0],"sum_hessian":[8.84E2,8.77E2,7E0,2.31E2,6.46E2,3E0,4E0,1.19E2,1.12E2,9.2E1,5.54E2,2E0,1E0,1E0,3E0,7E1,4.9E1,9.4E1,1.8E1,8.5E1,7E0,1.67E2,3.87E2,6.7E1,3E0,2.1E1,2.8E1,8.8E1,6E0,5E0,1.3E1,2.8E1,5.7E1,5E0,2E0,1.49E2,1.8E1,6.4E1,3.23E2,4.7E1,2E1,2E0,1E0,1.4E1,7E0,3E0,2.5E1,3.9E1,4.9E1,5E0,1E0,2E0,3E0,2E0,1.1E1,1.5E1,1.3E1,2.2E1,3.5E1,2E0,3E0,1E0,1E0,2.9E1,1.2E2,5E0,1.3E1,4E0,6E1,2.72E2,5.1E1],"tree_param":{"num_deleted":"0","num_feature":"13","num_nodes":"71","size_leaf_vector":"1"}},{"base_weights":[-5.6843353E-3,2.3600189E-2,-2.652437E0,-7.3217064E-2,5.7523254E-2,-3.283305E0,-4.298814E-3,-8.533589E-2,1.5910244E-1,1.387882E-1,4.352415E-2,-9.3121104E-2,-2.515318E-1,-2.4478944E-1,-7.105811E-2,-3.412647E-2,2.599827E-1,6.0759492E-2,1.8311518E-1,1.818498E-2,7.689413E-2,3.335781E-2,-3.2664278E-1,-1.19457945E-1,-3.0526161E-2,1.2480417E-3,-2.9062747E-3,3.0850616E-1,3.8137436E-3,8.348159E-2,-1.0135822E-1,1.984028E-1,-8.8155985E-2,5.2659955E-2,-2.088535E-2,-1.24053E-1,8.241171E-2,5.7352385E-3,-2.9554209E-3,5.9913634E-3,-1.8510206E-2,-4.649896E-5,-6.839608E-3,-2.5314633E-3,5.8341916E-3,9.6750264E-5,-3.1471252E-6,1.9252552E-2,5.18055E-3,-2.8868772E-3,5.247552E-3,-5.99885E-3,-6.7207817E-4,8.710384E-3,1.3530786E-2,1.6856671E-3,-7.0008435E-3,3.049925E-3,-9.549284E-3,-6.302867E-3,6.1346515E-4,6.678581E-4,-1.1522496E-2,8.895386E-4,4.7591543E-3],"categories":[],"categories_nodes":[],"categories_segments":[],"categories_sizes":[],"default_left":[0,0,0,0,0,0,0,0,0,0,0,0,0,0,0,0,0,0,0,0,0,0,0,0,0,0,0,0,0,0,0,0,0,0,0,0,0,0,0,0,0,0,0,0,0,0,0,0,0,0,0,0,0,0,0,0,0,0,0,0,0,0,0,0,0],"id":18,"left_children":[1,3,5,7,9,11,-1,13,15,17,19,-1,-1,21,23,25,27,29,31,33,35,37,39,41,43,45,-1,47,-1,49,51,53,55,57,59,61,63,-1,-1,-1,-1,-1,-1,-1,-1,-1,-1,-1,-1,-1,-1,-1,-1,-1,-1,-1,-1,-1,-1,-1,-1,-1,-1,-1,-1],"loss_changes":[7.082821E1,2.973253E0,1.5908699E1,6.7520547E-1,7.56176E-1,1.0492859E1,0E0,4.9257362E-1,2.4278808E-1,3.278345E-1,4.8311186E-1,0E0,0E0,4.207071E-1,4.024335E-1,4.3173116E-3,4.7781825E-2,1.4475673E-1,2.7461004E-1,4.4155204E-1,2.840824E-1,4.4389248E-2,3.166442E-1,1.9300425E-1,3.4327668E-1,2.8235886E-6,0E0,5.420655E-2,0E0,1.061122E-1,6.571818E-3,5.594158E-2,3.0001441E-2,3.6515686E-1,5.385355E-1,1.05418295E-1,1.9720352E-1,0E0,0E0,0E0,0E0,0E0,0E0,0E0,0E0,0E0,0E0,0E0,0E0,0E0,0E0,0E0,0E0,0E0,0E0,0E0,0E0,0E0,0E0,0E0,0E0,0E0,0E0,0E0,0E0],"parents":[2147483647,0,0,1,1,2,2,3,3,4,4,5,5,7,7,8,8,9,9,10,10,13,13,14,14,15,15,16,16,17,17,18,18,19,19,20,20,21,21,22,22,23,23,24,24,25,25,27,27,29,29,30,30,31,31,32,32,33,33,34,34,35,35,36,36],"right_children":[2,4,6,8,10,12,-1,14,16,18,20,-1,-1,22,24,26,28,30,32,34,36,38,40,42,44,46,-1,48,-1,50,52,54,56,58,60,62,64,-1,-1,-1,-1,-1,-1,-1,-1,-1,-1,-1,-1,-1,-1,-1,-1,-1,-1,-1,-1,-1,-1,-1,-1,-1,-1,-1,-1],"split_conditions":[8.3187103E-1,1.247465E1,1.1535715E1,1.2800842E1,1E0,8.235625E0,-4.298814E-3,1.1931984E1,1.2295914E1,1.2696064E1,1.2700755E1,-9.3121104E-2,-2.515318E-1,1.2133145E1,1.2252894E1,4E0,3E0,1.2731872E1,3.552077E-1,2.176498E-1,1.21997385E1,3E0,1.1658767E1,2.2879158E-1,3.506752E-1,3E0,-2.9062747E-3,4.7424817E-1,3.8137436E-3,1.2345329E1,1.2671587E1,1.2780531E1,1.2497368E1,1.273685E1,2.313297E-1,1.212621E1,2E0,5.7352385E-3,-2.9554209E-3,5.9913634E-3,-1.8510206E-2,-4.649896E-5,-6.839608E-3,-2.5314633E-3,5.8341916E-3,9.6750264E-5,-3.1471252E-6,1.9252552E-2,5.18055E-3,-2.8868772E-3,5.247552E-3,-5.99885E-3,-6.7207817E-4,8.710384E-3,1.3530786E-2,1.6856671E-3,-7.0008435E-3,3.049925E-3,-9.549284E-3,-6.302867E-3,6.1346515E-4,6.678581E-4,-1.1522496E-2,8.895386E-4,4.7591543E-3],"split_indices":[11,7,3,4,0,3,0,3,6,6,7,0,0,8,4,0,0,8,10,10,6,0,6,12,12,0,0,10,0,3,3,7,3,8,11,6,0,0,0,0,0,0,0,0,0,0,0,0,0,0,0,0,0,0,0,0,0,0,0,0,0,0,0,0,0],"split_type":[0,0,0,0,0,0,0,0,0,0,0,0,0,0,0,0,0,0,0,0,0,0,0,0,0,0,0,0,0,0,0,0,0,0,0,0,0,0,0,0,0,0,0,0,0,0,0,0,0,0,0,0,0,0,0,0,0,0,0,0,0,0,0,0,0],"sum_hessian":[9.12E2,9.03E2,9E0,2.34E2,6.69E2,7E0,2E0,2.23E2,1.1E1,9.7E1,5.72E2,5E0,2E0,1.7E1,2.06E2,4E0,7E0,3.6E1,6.1E1,3.26E2,2.46E2,4E0,1.3E1,9.3E1,1.13E2,2E0,2E0,5E0,2E0,3.2E1,4E0,5.8E1,3E0,1.73E2,1.53E2,6E0,2.4E2,2E0,2E0,1E0,1.2E1,1.2E1,8.1E1,1E2,1.3E1,1E0,1E0,3E0,2E0,4E0,2.8E1,3E0,1E0,4.6E1,1.2E1,1E0,2E0,1.68E2,5E0,3.6E1,1.17E2,3E0,3E0,4E1,2E2],"tree_param":{"num_deleted":"0","num_feature":"13","num_nodes":"65","size_leaf_vector":"1"}},{"base_weights":[1.9398216E-3,-1.9572657E0,1.9647963E-2,-3.7620568E-1,-2.8306606E0,-7.313287E-2,4.8621457E-2,-4.2045277E-2,-3.4467172E-2,-4.157058E-2,-1.5613101E-1,-8.940434E-2,9.6000016E-2,1.2390157E-1,3.577358E-2,-6.480861E-3,3.3274652E-3,-8.0133E-2,-1.8250268E-2,2.5194788E-1,-1.5965223E-2,1.3951387E-1,-6.917596E-2,1.1116177E-2,7.0701376E-2,-1.3322468E-1,-2.4467038E-2,5.233431E-3,3.193817E-1,7.948895E-2,-7.3628426E-2,7.331713E-2,1.7591344E-1,-1.5519159E-1,1.2591393E-1,-2.3191912E-2,3.5838097E-2,-1.1940098E-1,7.610916E-2,5.510521E-4,-7.899321E-3,1.4501E-2,-1.7282937E-3,1.7813062E-2,4.296589E-3,4.510939E-3,9.142399E-4,-6.962204E-4,-6.4925672E-3,2.123648E-3,1.470151E-2,7.442765E-3,1.2906291E-2,-1.0920465E-2,-9.585381E-4,1.6435146E-3,7.800031E-3,5.3405016E-5,-1.0791126E-2,8.289481E-3,1.2524727E-3,6.4282416E-4,-1.109041E-2,-6.5919757E-3,3.969738E-3],"categories":[],"categories_nodes":[],"categories_segments":[],"categories_sizes":[],"default_left":[0,0,0,0,0,0,0,0,0,0,0,0,0,0,0,0,0,0,0,0,0,0,0,0,0,0,0,0,0,0,0,0,0,0,0,0,0,0,0,0,0,0,0,0,0,0,0,0,0,0,0,0,0,0,0,0,0,0,0,0,0,0,0,0,0],"id":19,"left_children":[1,3,5,7,9,11,13,15,-1,-1,-1,17,19,21,23,-1,-1,25,-1,27,29,31,33,35,37,39,41,-1,43,45,47,49,51,53,55,57,59,61,63,-1,-1,-1,-1,-1,-1,-1,-1,-1,-1,-1,-1,-1,-1,-1,-1,-1,-1,-1,-1,-1,-1,-1,-1,-1,-1],"loss_changes":[3.0985405E1,9.982208E0,2.3825994E0,3.8956934E-1,3.2231522E-1,5.892631E-1,6.484206E-1,3.7155446E-2,0E0,0E0,0E0,4.6390247E-1,3.3577645E-1,3.050605E-1,4.9700433E-1,0E0,0E0,5.523554E-1,0E0,4.6023607E-2,7.190296E-2,2.0637E-1,1.5378702E-1,2.892062E-1,2.5478756E-1,3.446313E-1,3.053884E-1,0E0,1.2433469E-2,1.6339198E-3,2.5045775E-2,2.1897386E-1,9.0598345E-2,4.740648E-2,3.2703355E-3,6.6850114E-1,2.7344322E-1,9.76605E-2,1.6966093E-1,0E0,0E0,0E0,0E0,0E0,0E0,0E0,0E0,0E0,0E0,0E0,0E0,0E0,0E0,0E0,0E0,0E0,0E0,0E0,0E0,0E0,0E0,0E0,0E0,0E0,0E0],"parents":[2147483647,0,0,1,1,2,2,3,3,4,4,5,5,6,6,7,7,11,11,12,12,13,13,14,14,17,17,19,19,20,20,21,21,22,22,23,23,24,24,25,25,26,26,28,28,29,29,30,30,31,31,32,32,33,33,34,34,35,35,36,36,37,37,38,38],"right_children":[2,4,6,8,10,12,14,16,-1,-1,-1,18,20,22,24,-1,-1,26,-1,28,30,32,34,36,38,40,42,-1,44,46,48,50,52,54,56,58,60,62,64,-1,-1,-1,-1,-1,-1,-1,-1,-1,-1,-1,-1,-1,-1,-1,-1,-1,-1,-1,-1,-1,-1,-1,-1,-1,-1],"split_conditions":[1.1535715E1,1.2535943E1,1.2448709E1,3E0,1E0,1.2698939E1,1E0,2E0,-3.4467172E-2,-4.157058E-2,-1.5613101E-1,1.1E1,3E0,3.1022558E-1,1.2700755E1,-6.480861E-3,3.3274652E-3,1.2290951E1,-1.8250268E-2,1.2287396E1,1.2375289E1,1.2696064E1,1.29903965E1,1.251884E1,1.21997385E1,1E0,1.1690036E1,5.233431E-3,3E0,1.2066108E1,4E0,1.3022579E1,1.2780531E1,5E0,3E0,1.2800842E1,1.2498324E1,1.212621E1,1.2605739E1,5.510521E-4,-7.899321E-3,1.4501E-2,-1.7282937E-3,1.7813062E-2,4.296589E-3,4.510939E-3,9.142399E-4,-6.962204E-4,-6.4925672E-3,2.123648E-3,1.470151E-2,7.442765E-3,1.2906291E-2,-1.0920465E-2,-9.585381E-4,1.6435146E-3,7.800031E-3,5.3405016E-5,-1.0791126E-2,8.289481E-3,1.2524727E-3,6.4282416E-4,-1.109041E-2,-6.5919757E-3,3.969738E-3],"split_indices":[3,5,7,0,0,4,0,0,0,0,0,1,1,10,7,0,0,5,0,9,7,6,6,4,6,0,4,0,0,3,0,5,7,1,1,6,7,6,8,0,0,0,0,0,0,0,0,0,0,0,0,0,0,0,0,0,0,0,0,0,0,0,0,0,0],"split_type":[0,0,0,0,0,0,0,0,0,0,0,0,0,0,0,0,0,0,0,0,0,0,0,0,0,0,0,0,0,0,0,0,0,0,0,0,0,0,0,0,0,0,0,0,0,0,0,0,0,0,0,0,0,0,0,0,0,0,0,0,0,0,0,0,0],"sum_hessian":[8.91E2,7E0,8.84E2,3E0,4E0,2.1E2,6.74E2,2E0,1E0,1E0,3E0,1.92E2,1.8E1,9.7E1,5.77E2,1E0,1E0,1.87E2,5E0,7E0,1.1E1,9E1,7E0,3.39E2,2.38E2,9.5E1,9.2E1,3E0,4E0,4E0,7E0,3.3E1,5.7E1,5E0,2E0,1.42E2,1.97E2,6E0,2.32E2,1.4E1,8.1E1,2E0,9E1,3E0,1E0,3E0,1E0,4E0,3E0,3E1,3E0,4.5E1,1.2E1,3E0,2E0,1E0,1E0,1.27E2,1.5E1,1.4E1,1.83E2,3E0,3E0,3E0,2.29E2],"tree_param":{"num_deleted":"0","num_feature":"13","num_nodes":"65","size_leaf_vector":"1"}},{"base_weights":[-4.5107654E-3,2.080343E-2,-2.8771079E0,-6.6120036E-2,5.356576E-2,1.1572362E-3,-3.2947361E0,-1.2509944E-1,-2.6359634E-2,1.3105716E-1,4.0143363E-2,-8.664907E-2,-2.3997079E-1,-1.5670808E-1,-4.230904E-2,-4.491416E-2,1.21444255E-1,-1.3824096E-2,1.5167361E-1,4.9679854E-4,5.7683926E-2,-9.658246E-2,-2.4252944E-1,-7.893405E-2,8.407443E-2,-3.7214216E-2,-1.843702E-2,1.9757217E-1,3.182252E-2,-8.030224E-3,2.7463652E-2,1.0957527E-1,1.9629487E-1,-9.917303E-2,1.633507E-2,-4.6038763E-3,7.104561E-2,5.6310366E-3,-6.015915E-3,-1.778052E-2,-8.214841E-3,-4.0202143E-4,-7.1624913E-3,6.767547E-3,5.889654E-4,-3.802875E-4,-4.6201916E-3,1.2377139E-2,7.5583457E-4,4.3479986E-3,-5.371952E-3,-8.277946E-4,7.518387E-3,6.4666043E-3,-2.1846057E-3,4.726577E-3,1.1581753E-2,-7.7658924E-3,2.9683455E-3,-9.42194E-3,1.1594523E-3,1.0977205E-3,-3.85237E-3,4.842673E-3,1.4798805E-3],"categories":[],"categories_nodes":[],"categories_segments":[],"categories_sizes":[],"default_left":[0,0,0,0,0,0,0,0,0,0,0,0,0,0,0,0,0,0,0,0,0,0,0,0,0,0,0,0,0,0,0,0,0,0,0,0,0,0,0,0,0,0,0,0,0,0,0,0,0,0,0,0,0,0,0,0,0,0,0,0,0,0,0,0,0],"id":20,"left_children":[1,3,5,7,9,-1,11,13,15,17,19,-1,-1,21,23,25,27,29,31,33,35,37,39,41,43,45,-1,47,49,-1,51,53,55,57,59,61,63,-1,-1,-1,-1,-1,-1,-1,-1,-1,-1,-1,-1,-1,-1,-1,-1,-1,-1,-1,-1,-1,-1,-1,-1,-1,-1,-1,-1],"loss_changes":[6.659635E1,2.5893579E0,9.7660675E0,5.8061874E-1,6.812184E-1,0E0,8.132286E0,2.55059E-1,4.168192E-1,2.9182994E-1,3.9218986E-1,0E0,0E0,3.4810054E-1,1.408714E-1,3.2039917E-1,1.0969895E-1,8.3193794E-2,1.3816166E-1,2.7629602E-1,3.2574463E-1,2.3203728E-1,1.9812644E-1,1.0371852E-1,2.435495E-2,2.149957E-1,0E0,7.831466E-2,7.8449644E-2,0E0,6.2001474E-2,1.4494216E-1,1.2195659E-1,2.2284941E-1,2.1630047E-1,1.3636982E-1,3.4157145E-1,0E0,0E0,0E0,0E0,0E0,0E0,0E0,0E0,0E0,0E0,0E0,0E0,0E0,0E0,0E0,0E0,0E0,0E0,0E0,0E0,0E0,0E0,0E0,0E0,0E0,0E0,0E0,0E0],"parents":[2147483647,0,0,1,1,2,2,3,3,4,4,6,6,7,7,8,8,9,9,10,10,13,13,14,14,15,15,16,16,17,17,18,18,19,19,20,20,21,21,22,22,23,23,24,24,25,25,27,27,28,28,30,30,31,31,32,32,33,33,34,34,35,35,36,36],"right_children":[2,4,6,8,10,-1,12,14,16,18,20,-1,-1,22,24,26,28,30,32,34,36,38,40,42,44,46,-1,48,50,-1,52,54,56,58,60,62,64,-1,-1,-1,-1,-1,-1,-1,-1,-1,-1,-1,-1,-1,-1,-1,-1,-1,-1,-1,-1,-1,-1,-1,-1,-1,-1,-1,-1],"split_conditions":[6.385607E-1,1.2501395E1,2E0,1.2252894E1,1E0,1.1572362E-3,8.235625E0,1.2514499E1,3.8431662E-1,1.2566768E1,1.2624293E1,-8.664907E-2,-2.3997079E-1,2.9593882E-1,1.2396591E1,1.1E1,1.2540577E1,1.2256469E1,1.2643637E1,1.2310059E1,2E0,1.2128602E1,2E0,3.1503874E-1,1.2437067E1,2.885613E-1,-1.843702E-2,4.3334146E0,1.2599304E1,-8.030224E-3,1.2600541E1,3.1022558E-1,4E0,1.2713016E1,1.4721684E-1,1E1,5E0,5.6310366E-3,-6.015915E-3,-1.778052E-2,-8.214841E-3,-4.0202143E-4,-7.1624913E-3,6.767547E-3,5.889654E-4,-3.802875E-4,-4.6201916E-3,1.2377139E-2,7.5583457E-4,4.3479986E-3,-5.371952E-3,-8.277946E-4,7.518387E-3,6.4666043E-3,-2.1846057E-3,4.726577E-3,1.1581753E-2,-7.7658924E-3,2.9683455E-3,-9.42194E-3,1.1594523E-3,1.0977205E-3,-3.85237E-3,4.842673E-3,1.4798805E-3],"split_indices":[10,8,1,4,0,0,3,3,12,8,8,0,0,11,8,1,6,3,3,4,0,8,0,10,8,12,0,12,3,0,6,10,1,6,12,1,0,0,0,0,0,0,0,0,0,0,0,0,0,0,0,0,0,0,0,0,0,0,0,0,0,0,0,0,0],"split_type":[0,0,0,0,0,0,0,0,0,0,0,0,0,0,0,0,0,0,0,0,0,0,0,0,0,0,0,0,0,0,0,0,0,0,0,0,0,0,0,0,0,0,0,0,0,0,0,0,0,0,0,0,0,0,0,0,0,0,0,0,0,0,0,0,0],"sum_hessian":[9.14E2,9.07E2,7E0,2.48E2,6.59E2,1E0,6E0,9.9E1,1.49E2,9.6E1,5.63E2,4E0,2E0,7.1E1,2.8E1,1.33E2,1.6E1,1.2E1,8.4E1,1.73E2,3.9E2,4.3E1,2.8E1,2.2E1,6E0,1.31E2,2E0,8E0,8E0,2E0,1E1,4.5E1,3.9E1,2.3E1,1.5E2,6.9E1,3.21E2,4E0,3.9E1,1E1,1.8E1,1.1E1,1.1E1,3E0,3E0,8.6E1,4.5E1,6E0,2E0,6E0,2E0,8E0,2E0,4E1,5E0,1.1E1,2.8E1,1.7E1,6E0,4E0,1.46E2,5.1E1,1.8E1,1.97E2,1.24E2],"tree_param":{"num_deleted":"0","num_feature":"13","num_nodes":"65","size_leaf_vector":"1"}},{"base_weights":[1.982974E-3,2.095178E-2,-1.8930104E0,-7.369252E-2,4.4913217E-2,-3.6866832E-1,-2.5937366E0,-2.9156342E-1,-5.7972383E-2,1.7136684E-2,7.770329E-2,-3.6183675E-3,-3.1439282E-2,-3.8365092E-2,-1.4027816E-1,-1.323264E-1,-2.1437304E-2,-7.2514184E-2,1.24344386E-1,2.951766E-2,-6.390731E-2,5.563482E-2,1.3941264E-1,-1.4975103E-2,-5.555725E-3,-5.8496583E-2,-2.557967E-1,2.2412682E-1,6.798472E-3,-3.160428E-2,4.700156E-2,-2.2455025E-1,-4.6019675E-3,-1.5340558E-1,5.9758015E-2,-5.342913E-3,1.4960144E-1,-2.3333908E-3,3.9723157E-3,-5.6162565E-3,1.928711E-4,-1.8297225E-2,1.4224052E-3,5.2104355E-3,1.4400661E-2,-3.4705163E-3,1.5534163E-3,-6.0108597E-3,2.207756E-4,4.557686E-3,1.1427663E-3,-3.5572127E-3,-5.5470705E-2,2.1628856E-3,-3.8051934E-3,-8.671368E-3,-1.832962E-3,2.502251E-3,7.0644E-3,7.7132056E-3,-5.8184387E-3],"categories":[],"categories_nodes":[],"categories_segments":[],"categories_sizes":[],"default_left":[0,0,0,0,0,0,0,0,0,0,0,0,0,0,0,0,0,0,0,0,0,0,0,0,0,0,0,0,0,0,0,0,0,0,0,0,0,0,0,0,0,0,0,0,0,0,0,0,0,0,0,0,0,0,0,0,0,0,0,0,0],"id":21,"left_children":[1,3,5,7,9,11,13,15,17,19,21,-1,-1,-1,-1,23,-1,25,27,29,31,33,35,-1,37,39,41,43,45,47,49,51,53,55,57,-1,59,-1,-1,-1,-1,-1,-1,-1,-1,-1,-1,-1,-1,-1,-1,-1,-1,-1,-1,-1,-1,-1,-1,-1,-1],"loss_changes":[3.2642467E1,2.042074E0,8.657093E0,6.064402E-1,6.5261877E-1,2.6278853E-1,1.6861343E-1,2.0540023E-1,4.623742E-1,3.9321387E-1,4.4028616E-1,0E0,0E0,0E0,0E0,1.4668684E-1,0E0,3.935364E-1,1.5095349E-1,3.6375776E-1,4.943698E-1,2.1947443E-1,2.3177803E-1,0E0,2.118064E-2,5.005407E-1,3.5480875E-1,2.3614466E-2,1.5103496E-2,2.4310905E-1,2.7936924E-1,1.8214794E0,1.3675234E-1,5.329624E-3,1.829853E-1,0E0,1.2088239E-1,0E0,0E0,0E0,0E0,0E0,0E0,0E0,0E0,0E0,0E0,0E0,0E0,0E0,0E0,0E0,0E0,0E0,0E0,0E0,0E0,0E0,0E0,0E0,0E0],"parents":[2147483647,0,0,1,1,2,2,3,3,4,4,5,5,6,6,7,7,8,8,9,9,10,10,15,15,17,17,18,18,19,19,20,20,21,21,22,22,24,24,25,25,26,26,27,27,28,28,29,29,30,30,31,31,32,32,33,33,34,34,36,36],"right_children":[2,4,6,8,10,12,14,16,18,20,22,-1,-1,-1,-1,24,-1,26,28,30,32,34,36,-1,38,40,42,44,46,48,50,52,54,56,58,-1,60,-1,-1,-1,-1,-1,-1,-1,-1,-1,-1,-1,-1,-1,-1,-1,-1,-1,-1,-1,-1,-1,-1,-1,-1],"split_conditions":[8.3187103E-1,1.2416595E1,1.26318245E1,1.1861628E1,1.2680868E1,5E0,1E0,1.2239881E1,1.2698939E1,1.2681405E1,1.2870745E1,-3.6183675E-3,-3.1439282E-2,-3.8365092E-2,-1.4027816E-1,1.1924957E1,-2.1437304E-2,1.2483763E1,3E0,1.23837385E1,1.2696466E1,1.2554686E1,1.2384723E1,-1.4975103E-2,1.232137E1,1.2366601E1,3.696905E-1,1.2287396E1,2.2965574E-1,1.249074E1,5E0,1.2692933E1,1.2729904E1,4E0,1.2829736E1,-5.342913E-3,3.568273E-1,-2.3333908E-3,3.9723157E-3,-5.6162565E-3,1.928711E-4,-1.8297225E-2,1.4224052E-3,5.2104355E-3,1.4400661E-2,-3.4705163E-3,1.5534163E-3,-6.0108597E-3,2.207756E-4,4.557686E-3,1.1427663E-3,-3.5572127E-3,-5.5470705E-2,2.1628856E-3,-3.8051934E-3,-8.671368E-3,-1.832962E-3,2.502251E-3,7.0644E-3,7.7132056E-3,-5.8184387E-3],"split_indices":[11,7,6,4,7,0,0,6,4,8,6,0,0,0,0,6,0,9,1,4,8,9,3,0,3,6,12,9,11,3,1,8,8,0,8,0,11,0,0,0,0,0,0,0,0,0,0,0,0,0,0,0,0,0,0,0,0,0,0,0,0],"split_type":[0,0,0,0,0,0,0,0,0,0,0,0,0,0,0,0,0,0,0,0,0,0,0,0,0,0,0,0,0,0,0,0,0,0,0,0,0,0,0,0,0,0,0,0,0,0,0,0,0,0,0,0,0,0,0,0,0,0,0,0,0],"sum_hessian":[9.06E2,8.98E2,8E0,1.81E2,7.17E2,3E0,5E0,1.1E1,1.7E2,3.89E2,3.28E2,2E0,1E0,1E0,4E0,6E0,5E0,1.58E2,1.2E1,3.38E2,5.1E1,2.43E2,8.5E1,2E0,4E0,1.48E2,1E1,6E0,6E0,7.5E1,2.63E2,1.3E1,3.8E1,4E0,2.39E2,3E0,8.2E1,3E0,1E0,7.9E1,6.9E1,7E0,3E0,3E0,3E0,1E0,5E0,2.1E1,5.4E1,9.2E1,1.71E2,1.2E1,1E0,2.3E1,1.5E1,3E0,1E0,2.15E2,2.4E1,8.1E1,1E0],"tree_param":{"num_deleted":"0","num_feature":"13","num_nodes":"61","size_leaf_vector":"1"}},{"base_weights":[-3.6878078E-3,1.1920347E-2,-2.333891E0,-5.6967985E-2,1.4479721E-2,-7.0835575E-2,-1.7299472E-1,-4.9780246E-2,5.138399E-2,-1.0579361E-1,-2.0505812E-2,1.3241391E-1,3.804975E-2,3.9898634E-2,-1.2205612E-1,-2.955069E-2,1.6877374E-1,1.4517504E-1,-8.8038065E-2,6.0950164E-2,7.225627E-3,-1.062696E-2,4.108464E-3,-1.0514806E-2,-4.5131375E-3,-1.7877994E-3,6.463778E-3,1.0553673E-2,-5.29809E-3,6.204998E-3,1.292139E-2,1.6029835E-3,-6.3038706E-3,2.2106916E-3,5.68733E-3,-8.549273E-4,4.9691354E-3],"categories":[],"categories_nodes":[],"categories_segments":[],"categories_sizes":[],"default_left":[0,0,0,0,0,0,0,0,0,0,0,0,0,0,0,0,0,0,0,0,0,0,0,0,0,0,0,0,0,0,0,0,0,0,0,0,0],"id":22,"left_children":[1,3,5,-1,7,-1,-1,9,11,13,15,17,19,21,23,25,27,29,31,33,35,-1,-1,-1,-1,-1,-1,-1,-1,-1,-1,-1,-1,-1,-1,-1,-1],"loss_changes":[3.2797348E1,2.656612E0,1.2948112E0,0E0,2.125021E0,0E0,0E0,5.34032E-1,6.097504E-1,2.7023387E-1,3.7478167E-1,2.3783827E-1,3.454433E-1,1.455127E-1,2.6436818E-1,2.0863411E-1,1.3857806E-1,1.493268E-1,2.6884198E-2,2.4326766E-1,4.724447E-1,0E0,0E0,0E0,0E0,0E0,0E0,0E0,0E0,0E0,0E0,0E0,0E0,0E0,0E0,0E0,0E0],"parents":[2147483647,0,0,1,1,2,2,4,4,7,7,8,8,9,9,10,10,11,11,12,12,13,13,14,14,15,15,16,16,17,17,18,18,19,19,20,20],"right_children":[2,4,6,-1,8,-1,-1,10,12,14,16,18,20,22,24,26,28,30,32,34,36,-1,-1,-1,-1,-1,-1,-1,-1,-1,-1,-1,-1,-1,-1,-1,-1],"split_conditions":[4.7506323E0,8.235625E0,6E0,-5.6967985E-2,1.255799E1,-7.0835575E-2,-1.7299472E-1,1.2252894E1,1E0,1E0,4.118148E-1,3.552077E-1,2.1609086E-1,1.1975359E1,2E0,1.2929563E1,1.298226E1,2.8951317E-1,3E0,1.2804663E1,1.2760813E1,-1.062696E-2,4.108464E-3,-1.0514806E-2,-4.5131375E-3,-1.7877994E-3,6.463778E-3,1.0553673E-2,-5.29809E-3,6.204998E-3,1.292139E-2,1.6029835E-3,-6.3038706E-3,2.2106916E-3,5.68733E-3,-8.549273E-4,4.9691354E-3],"split_indices":[10,3,0,0,8,0,0,4,0,0,11,10,10,3,0,4,4,10,1,4,9,0,0,0,0,0,0,0,0,0,0,0,0,0,0,0,0],"split_type":[0,0,0,0,0,0,0,0,0,0,0,0,0,0,0,0,0,0,0,0,0,0,0,0,0,0,0,0,0,0,0,0,0,0,0,0,0],"sum_hessian":[9E2,8.95E2,5E0,1E0,8.94E2,4E0,1E0,3.26E2,5.68E2,1.11E2,2.15E2,7.9E1,4.89E2,1.1E1,1E2,2.06E2,9E0,7.5E1,4E0,2.8E2,2.09E2,1E0,1E1,2.5E1,7.5E1,1.99E2,7E0,8E0,1E0,6.5E1,1E1,1E0,3E0,2.14E2,6.6E1,1.66E2,4.3E1],"tree_param":{"num_deleted":"0","num_feature":"13","num_nodes":"37","size_leaf_vector":"1"}},{"base_weights":[-8.878358E-3,1.6554995E-2,-2.2791889E0,-6.869152E-2,4.4021245E-2,-3.3473333E-3,-2.823881E0,-8.545883E-2,1.11421734E-1,1.1720518E-2,7.3022686E-2,-7.518307E-2,-2.2615133E-1,1.5759379E-2,-1.04118735E-1,-6.0491245E-2,1.7714003E-1,2.628118E-2,-7.372422E-2,4.9402718E-2,1.09977394E-1,-5.1351365E-2,1.318899E-1,-8.276799E-2,-2.0867896E-1,2.2285304E-3,-6.208241E-3,2.524677E-1,8.908582E-2,4.6309225E-2,-2.1422748E-2,4.304378E-2,-2.823174E-1,3.1248007E-2,1.07106335E-1,1.1439692E-1,-6.3516772E-3,-3.8545423E-3,3.865707E-3,9.400158E-3,-4.95588E-3,-9.316693E-3,-2.6082753E-3,-1.3542629E-2,-2.3664422E-3,5.085214E-3,1.4621611E-2,1.1410308E-2,1.8305302E-3,-1.6164946E-3,2.9066766E-3,-2.6130953E-3,3.5323165E-3,-1.609376E-3,5.7792426E-3,-7.2249346E-3,-3.4705173E-2,2.1578E-3,-3.853077E-3,6.1856764E-3,-3.6872008E-3,4.4210255E-3,8.335085E-3],"categories":[],"categories_nodes":[],"categories_segments":[],"categories_sizes":[],"default_left":[0,0,0,0,0,0,0,0,0,0,0,0,0,0,0,0,0,0,0,0,0,0,0,0,0,0,0,0,0,0,0,0,0,0,0,0,0,0,0,0,0,0,0,0,0,0,0,0,0,0,0,0,0,0,0,0,0,0,0,0,0,0,0],"id":23,"left_children":[1,3,5,7,9,-1,11,13,15,17,19,-1,-1,21,23,25,27,29,31,33,35,37,39,41,43,-1,-1,45,47,49,51,53,55,57,59,61,-1,-1,-1,-1,-1,-1,-1,-1,-1,-1,-1,-1,-1,-1,-1,-1,-1,-1,-1,-1,-1,-1,-1,-1,-1,-1,-1],"loss_changes":[5.2120655E1,2.0938962E0,1.1860863E1,6.678848E-1,6.323991E-1,0E0,1.1144863E1,3.7938523E-1,2.2537415E-1,4.0130395E-1,3.053081E-1,0E0,0E0,2.5616813E-1,3.6001027E-1,4.567209E-2,7.036957E-2,2.637316E-1,1.1569313E0,2.2607589E-1,1.5908384E-1,7.5507656E-2,1.7418543E-1,4.403308E-1,2.680689E-1,0E0,0E0,1.2434661E-2,5.0048187E-2,1.8227094E-1,2.3651743E-1,1.7289853E-1,8.6448383E-1,2.2000349E-1,1.6530085E-1,1.7004204E-1,0E0,0E0,0E0,0E0,0E0,0E0,0E0,0E0,0E0,0E0,0E0,0E0,0E0,0E0,0E0,0E0,0E0,0E0,0E0,0E0,0E0,0E0,0E0,0E0,0E0,0E0,0E0],"parents":[2147483647,0,0,1,1,2,2,3,3,4,4,6,6,7,7,8,8,9,9,10,10,13,13,14,14,15,15,16,16,17,17,18,18,19,19,20,20,21,21,22,22,23,23,24,24,27,27,28,28,29,29,30,30,31,31,32,32,33,33,34,34,35,35],"right_children":[2,4,6,8,10,-1,12,14,16,18,20,-1,-1,22,24,26,28,30,32,34,36,38,40,42,44,-1,-1,46,48,50,52,54,56,58,60,62,-1,-1,-1,-1,-1,-1,-1,-1,-1,-1,-1,-1,-1,-1,-1,-1,-1,-1,-1,-1,-1,-1,-1,-1,-1,-1,-1],"split_conditions":[8.3187103E-1,1.2457771E1,2E0,1.2698939E1,1.2666968E1,-3.3473333E-3,8.235625E0,2.1779147E-1,1.218872E1,1.2645057E1,1.2758801E1,-7.518307E-2,-2.2615133E-1,1.2366601E1,1.2434285E1,5E0,3E0,5E0,2.3998207E-1,2.3451325E-1,3.552077E-1,1.2350792E1,1.249074E1,2.0406623E-1,3.947198E-1,2.2285304E-3,-6.208241E-3,1.2287396E1,2E0,1.2263778E1,1.2713016E1,1.2628512E1,1.2808759E1,1.2716514E1,3.3460844E-1,1.2770888E1,-6.3516772E-3,-3.8545423E-3,3.865707E-3,9.400158E-3,-4.95588E-3,-9.316693E-3,-2.6082753E-3,-1.3542629E-2,-2.3664422E-3,5.085214E-3,1.4621611E-2,1.1410308E-2,1.8305302E-3,-1.6164946E-3,2.9066766E-3,-2.6130953E-3,3.5323165E-3,-1.609376E-3,5.7792426E-3,-7.2249346E-3,-3.4705173E-2,2.1578E-3,-3.853077E-3,6.1856764E-3,-3.6872008E-3,4.4210255E-3,8.335085E-3],"split_indices":[11,7,1,4,7,0,3,12,6,7,6,0,0,6,9,0,1,0,10,12,10,9,3,10,11,0,0,9,0,6,6,9,6,6,10,9,0,0,0,0,0,0,0,0,0,0,0,0,0,0,0,0,0,0,0,0,0,0,0,0,0,0,0],"split_type":[0,0,0,0,0,0,0,0,0,0,0,0,0,0,0,0,0,0,0,0,0,0,0,0,0,0,0,0,0,0,0,0,0,0,0,0,0,0,0,0,0,0,0,0,0,0,0,0,0,0,0,0,0,0,0,0,0,0,0,0,0,0,0],"sum_hessian":[9.01E2,8.92E2,9E0,2.17E2,6.75E2,2E0,7E0,1.99E2,1.8E1,3.2E2,3.55E2,5E0,2E0,3.1E1,1.68E2,5E0,1.3E1,2.74E2,4.6E1,2.18E2,1.37E2,2E1,1.1E1,1.41E2,2.7E1,2E0,3E0,6E0,7E0,1.93E2,8.1E1,3E1,1.6E1,1.67E2,5.1E1,1.35E2,2E0,1.7E1,3E0,9E0,2E0,3.1E1,1.1E2,1.9E1,8E0,2E0,4E0,1E0,6E0,2.5E1,1.68E2,6.1E1,2E1,1.5E1,1.5E1,1.3E1,3E0,1.51E2,1.6E1,4.7E1,4E0,9.2E1,4.3E1],"tree_param":{"num_deleted":"0","num_feature":"13","num_nodes":"63","size_leaf_vector":"1"}},{"base_weights":[-7.073477E-3,1.505488E-2,-2.2092884E0,-4.277536E-2,4.7728427E-2,-9.47784E-1,-3.5492227E0,-9.093148E-2,-1.4749365E-2,6.6354446E-2,1.661295E-3,-3.2357534E-3,-6.865699E-2,-2.700286E-2,-2.1861294E-1,-1.2532817E-1,-4.57332E-2,4.005859E-2,-3.862542E-2,5.3926148E-2,1.1824433E-1,1.0241265E-1,-1.7781189E-2,-9.189402E-3,-1.5311731E-1,-2.1670757E-1,-9.3200593E-4,-5.2017365E-2,9.805449E-2,-1.3543594E-1,-2.0057654E-2,3.110692E-2,7.7827774E-2,1.785481E-1,5.006805E-2,5.5275507E-2,1.1459685E-2,-7.5715676E-2,6.9766864E-3,4.614239E-3,-1.0514994E-2,-8.664217E-3,3.522328E-4,-1.9274998E-2,-5.8986346E-4,8.4121805E-3,-2.5331064E-3,3.5500482E-3,-6.938149E-3,7.4367137E-3,-1.5344961E-4,-1.5582353E-2,-1.9432813E-3,4.221826E-3,-2.0076525E-3,9.277093E-3,1.1691917E-3,4.6129767E-3,-3.4396013E-3,1.3120553E-2,5.0753513E-3,-4.8235077E-3,4.027933E-3,1.0091544E-3,9.968626E-3,3.573317E-3,-5.622435E-3,8.611537E-3,-4.721893E-4],"categories":[],"categories_nodes":[],"categories_segments":[],"categories_sizes":[],"default_left":[0,0,0,0,0,0,0,0,0,0,0,0,0,0,0,0,0,0,0,0,0,0,0,0,0,0,0,0,0,0,0,0,0,0,0,0,0,0,0,0,0,0,0,0,0,0,0,0,0,0,0,0,0,0,0,0,0,0,0,0,0,0,0,0,0,0,0,0,0],"id":24,"left_children":[1,3,5,7,9,11,13,15,17,19,21,-1,-1,-1,-1,23,25,27,29,31,33,35,37,39,41,43,45,47,49,51,53,55,57,59,61,63,-1,65,67,-1,-1,-1,-1,-1,-1,-1,-1,-1,-1,-1,-1,-1,-1,-1,-1,-1,-1,-1,-1,-1,-1,-1,-1,-1,-1,-1,-1,-1,-1],"loss_changes":[4.4086445E1,1.6950505E0,1.1849098E1,4.359367E-1,4.9155092E-1,2.1648479E0,7.5453377E0,1.792742E-1,2.711184E-1,2.567438E-1,3.269912E-1,0E0,0E0,0E0,0E0,2.1482861E-1,4.0577042E-1,3.4152234E-1,2.561314E-1,1.7811191E-1,3.1174064E-1,1.4868581E-1,2.0133512E-1,3.0511275E-1,1.7563999E-1,3.759125E-1,3.7028787E-1,2.7663484E-1,2.003282E-1,3.792732E-1,2.5957227E-1,1.9961552E-1,3.470199E-1,2.3826015E-1,1.7755699E-1,1.0216703E-1,0E0,2.3510672E-1,2.702679E-1,0E0,0E0,0E0,0E0,0E0,0E0,0E0,0E0,0E0,0E0,0E0,0E0,0E0,0E0,0E0,0E0,0E0,0E0,0E0,0E0,0E0,0E0,0E0,0E0,0E0,0E0,0E0,0E0,0E0,0E0],"parents":[2147483647,0,0,1,1,2,2,3,3,4,4,5,5,6,6,7,7,8,8,9,9,10,10,15,15,16,16,17,17,18,18,19,19,20,20,21,21,22,22,23,23,24,24,25,25,26,26,27,27,28,28,29,29,30,30,31,31,32,32,33,33,34,34,35,35,37,37,38,38],"right_children":[2,4,6,8,10,12,14,16,18,20,22,-1,-1,-1,-1,24,26,28,30,32,34,36,38,40,42,44,46,48,50,52,54,56,58,60,62,64,-1,66,68,-1,-1,-1,-1,-1,-1,-1,-1,-1,-1,-1,-1,-1,-1,-1,-1,-1,-1,-1,-1,-1,-1,-1,-1,-1,-1,-1,-1,-1,-1],"split_conditions":[8.3187103E-1,1.255799E1,1.1965243E1,1.226924E1,1E0,2E0,8.235625E0,1.2362499E1,4E0,1.2780531E1,1.6258685E-1,-3.2357534E-3,-6.865699E-2,-2.700286E-2,-2.1861294E-1,1.210754E1,1.217475E1,1.2475623E1,1.2307678E1,1.2707574E1,2.0677085E-1,1.4789575E-1,1.2655604E1,3.3983985E-1,9E0,1.210754E1,1.1954015E1,2.4639627E-1,1.2478926E1,8E0,1.2351699E1,1.2252894E1,1.2929563E1,1.2838216E1,2.129924E-1,1.27315035E1,1.1459685E-2,1.25751705E1,1.2667536E1,4.614239E-3,-1.0514994E-2,-8.664217E-3,3.522328E-4,-1.9274998E-2,-5.8986346E-4,8.4121805E-3,-2.5331064E-3,3.5500482E-3,-6.938149E-3,7.4367137E-3,-1.5344961E-4,-1.5582353E-2,-1.9432813E-3,4.221826E-3,-2.0076525E-3,9.277093E-3,1.1691917E-3,4.6129767E-3,-3.4396013E-3,1.3120553E-2,5.0753513E-3,-4.8235077E-3,4.027933E-3,1.0091544E-3,9.968626E-3,3.573317E-3,-5.622435E-3,8.611537E-3,-4.721893E-4],"split_indices":[11,8,9,4,2,1,3,6,1,7,11,0,0,0,0,3,7,4,7,4,10,11,9,12,1,4,4,10,7,1,9,4,3,7,10,4,0,8,9,0,0,0,0,0,0,0,0,0,0,0,0,0,0,0,0,0,0,0,0,0,0,0,0,0,0,0,0,0,0],"split_type":[0,0,0,0,0,0,0,0,0,0,0,0,0,0,0,0,0,0,0,0,0,0,0,0,0,0,0,0,0,0,0,0,0,0,0,0,0,0,0,0,0,0,0,0,0,0,0,0,0,0,0,0,0,0,0,0,0,0,0,0,0,0,0,0,0,0,0,0,0],"sum_hessian":[9.03E2,8.95E2,8E0,3.23E2,5.72E2,5E0,3E0,1.18E2,2.05E2,4.07E2,1.65E2,2E0,3E0,1E0,2E0,6.6E1,5.2E1,6.2E1,1.43E2,3.3E2,7.7E1,2.6E1,1.39E2,1.3E1,5.3E1,1E1,4.2E1,2.4E1,3.8E1,2.2E1,1.21E2,